{
    "biases": [
        [
            [
                0.0
            ],
            [
                0.0
            ],
            [
                0.0
            ],
            [
                0.0
            ],
            [
                0.0
            ]
        ],
        [
            [
                0.0
            ],
            [
                0.0
            ],
            [
                0.0
            ],
            [
                0.0
            ],
            [
                0.0
            ],
            [
                0.0
            ],
            [
                0.0
            ],
            [
                0.0
            ],
            [
                0.0
            ],
            [
                0.0
            ]
        ]
    ],
    "layer_sizes": [
        2,
        5,
        10
    ],
    "weights": [
        [
            [
                -2.8208864565279983,
                -3.731205813361264
            ],
            [
                1.6711198559406197,
                0.4086617765750008
            ],
            [
                4.2178590698785134,
                2.320903177139748
            ],
            [
                1.9638811482299954,
                0.35587256873457085
            ],
            [
                2.005945682294722,
                3.1951452712097614
            ]
        ],
        [
            [
                3.917060169313179,
                -0.5185420516934687,
                -0.3557824448169085,
                0.7097747790594212,
                -2.8571207368924054
            ],
            [
                -0.23160907834983974,
                2.655436349054977,
                0.8003915772060769,
                -1.2623169318185647,
                -1.9549834035717775
            ],
            [
                4.895691981973136,
                3.3468121976954293,
                -1.0835628206577441,
                -3.417626127381154,
                0.03551685201749017
            ],
            [
                2.7403655377088794,
                -4.748278911596055,
                -2.4447818884621517,
                0.9579961861610091,
                2.845931850138126
            ],
            [
                0.44044938896043784,
                2.5117536731357464,
                0.051732452949701274,
                1.278147493772217,
                2.3921155328822548
            ],
            [
                -1.1684940484511448,
                -0.09695102758175689,
                3.2287738936658754,
                1.4952080894101223,
                2.6957271535749703
            ],
            [
                -1.4972107426056955,
                0.9805205210149572,
                0.7741455458283264,
                -1.6458631141775264,
                -1.145165669733391
            ],
            [
                2.0956246210945855,
                -0.33988275081028124,
                -1.5094550657509658,
                -0.03561105198023231,
                -2.8710975867518136
            ],
            [
                0.14381845525047626,
                -2.0056193728814273,
                -2.5958445776114,
                0.5782531296443415,
                -3.1231608741172656
            ],
            [
                3.4476672873878917,
                -0.9313006764465669,
                3.098917587040953,
                -0.3772754086631847,
                -1.9098190444593222
            ]
        ]
    ]
}