{"biases":[[[9.800000190734863],[0.0],[11.900000095367432],[8.699999809265137],[5.0],[6.699999809265137],[-8.799999952316284],[2.5999999046325684],[-1.5000004768371582],[3.5999996662139893],[-8.800000190734863],[-0.20000000298023224],[-9.600000381469727],[3.5],[-3.700000047683716],[0.0],[0.0],[-13.600000143051147],[-33.30000019073486],[0.0],[0.0],[-4.800000190734863],[1.299999713897705],[5.0],[9.800000190734863]],[[18.99999988079071],[2.299999952316284],[7.5],[-9.49999988079071],[2.600000023841858],[3.5],[4.3999998569488525],[0.0],[15.800000071525574],[-10.800000190734863]]],"layer_sizes":[784,25,10],"weights":[[[-0.9046981676828858,14.803450986380506,-6.262141125896516,-2.807389127858174,9.3402008293133,0.9816867763038717,-1.567764394551089,9.397529453586579,0.3644893100332173,-8.341526336081273,-1.8972115665297935,-0.23257038556191373,2.3043184075955616,0.22169112442423905,-3.0154301554503453,-1.1471447842321518,5.806937150019287,-3.844556148242707,0.019512539524668537,6.849319140773067,7.883438600526267,-1.7083337431217815,-6.193645382674374,14.867280347252596,0.45632272470283164,11.39007574429208,11.61171530229111,0.8724640426076212,-2.391445813625657,-7.668389060199441,0.5716563165033617,-9.44130117131874,-3.5091156724057146,0.9446736611452594,0.04113842585842647,4.239020172136597,0.10435219276867737,-0.012391122869943594,7.918792386935096,10.485873855547451,-2.0457349545190535,-7.543270364851418,0.6354326981614364,-5.753653609277976,0.42218945053682905,1.8042047197804734,9.729472576753494,0.33719477209400783,13.614325682384617,-0.8867157757103898,1.0238124842839067,-4.275911529762738,-0.8831971945264944,-0.9674394421447882,-3.5119925186241874,8.39615552662924,-1.8027097434138215,-2.4081632558072354,1.8784918085159192,11.319582201413713,-0.6677827134987215,-0.2176975968591561,-0.76556038306415,1.1338853607789925,-0.46957248067613977,-2.8462476488130513,5.5617707226361635,0.8207600616051457,-0.7834048990982363,-9.237608803259548,-4.849421432744283,0.05559362228030824,0.5237431510662117,1.451784232000017,-4.767583997390285,-7.047284677788172,1.9987647266279982,3.3478135034777066,-4.997243745414129,6.649684378668507,-15.465869860460028,-14.278363428862988,10.153746184714057,-9.72849389839552,8.749005029548885,0.7831434417019814,3.7096081638950533,-11.025702566040565,1.495273426868761,8.560141239425786,-4.035050664299705,0.04797061252340776,1.088519930097753,-4.7769569388837425,0.630071954809337,-8.184242720755346,0.699360268049583,0.7386660804998044,7.055867181034967,-5.547540773227902,-1.254251182863106,-0.3933809302073583,-1.4245011682328015,1.5011803875487901,1.223770401478267,4.339615171436958,-0.541621999276418,-1.427803257139071,-4.623280565976678,-4.030652657974386,3.6596949671227876,-0.5398475695995852,-8.514341612436578,11.933313476805473,6.5557430300016595,1.370959816457635,-5.097771722356697,2.3824712848788527,-4.82685978254154,-12.95286595566925,-6.670380138112212,8.840521000978809,-2.3671421834845847,-2.9559671890267856,0.7972723395312828,8.132462103688612,3.2981752881173207,-7.38765404849541,4.373239112769091,2.201544917889779,-1.101429425101681,-0.34401539098962547,-1.2777218310919145,6.184365842891005,-9.496659585431999,1.1488081710045777,-4.217383660025068,1.7427004262848371,-2.932050968197549,-3.3825231145863754,12.18138326006805,-0.23008530636077199,1.078503115433698,-1.2443612605843295,-7.972762500196977,-0.2856362891733511,0.218355255238117,5.4771259454086945,0.9658299369346871,3.990912127121827,3.1871995747996964,2.129545628562491,-5.2905374959649425,2.8415002708021926,-6.966608577551955,8.08233220618461,7.231192327285202,-11.4965672052524,12.3411556227,-6.831924169267657,-8.42538100540644,-0.9601046715680062,0.7002264539712968,-5.318326872193358,-10.536448891818456,1.544051890394729,-5.588660509210978,-7.685486906453224,-6.278191469037143,-2.0697202586685934,0.260376786287269,-2.414145421646346,-2.535743316472753,8.45304572002459,0.5882307321230726,-3.5460574873616064,2.8048250922981137,2.439662746055458,-3.7135470940226045,-0.6277016363276808,12.440768060528665,3.586752641755702,-0.22624556498714504,6.895134379540101,9.956298741229666,1.6799905624562679,-0.07715745992811664,-8.974909281492524,-3.8586048367241292,-0.5821452735432128,3.107624398841889,1.6980191580647275,-1.425897848536146,2.5430354848024375,-1.4766471660343565,0.07874245444671593,-8.244613267617996,-7.682667258298447,-0.5983082161793442,4.008898162591317,-4.980923631189422,0.45187048597325363,0.2906371446923369,2.932295049954404,8.591296047958686,-13.397423642635765,4.520963922828442,-3.5911943925097747,-4.145680066401118,-10.729914791746156,6.6580948495044225,-2.465195950076687,1.8673910421338091,6.167651597179778,-6.479333770034688,-0.18280418721222788,0.007194946012667987,-0.6457225989807335,0.23496071966576196,-2.9587737827664604,-0.5770964763761226,-6.823442330958019,-7.403435813008771,-0.4224033220570007,1.799288928905102,-0.9268926493585803,-4.2804616132345155,-0.7006929342153158,4.933372105354456,7.533240318537969,7.4173621315912115,2.505727136691528,3.9397202685115484,-8.818332289818265,0.21018799724205356,-0.43993260647474747,-0.2714525433583946,-10.047814342445243,-0.12859547824368095,6.4904810249689024,-6.519031577627953,-0.8791265785116773,-7.298294640941256,-5.331681674979999,2.542207328417159,-1.2118567725901521,5.663037270359556,6.408810530713902,-9.401898110101397,1.7249925096019387,-6.215297855620646,-7.722151710944581,5.27456953953485,-0.15704108811434564,-0.7212398727780432,-0.01334467061119402,5.609453393970535,-8.301543376131235,1.858142157731826,6.691340178738617,2.766438741195945,9.031222009197691,4.113298825170755,-5.979090871334797,-0.23574020429722947,15.990251125991804,-1.75805143563946,4.483259965213516,2.057764472064859,1.65661139284322,-0.0420249820230452,-2.6996245211753958,-3.871254779920619,8.114219383997796,-2.288209435096414,0.675804034988449,2.182588039701585,-0.5664903184963868,6.754255990839951,9.317389613700623,-1.0795391139035508,-4.047688022433022,0.6624382928835924,12.60195051457476,-8.152941050930057,-8.825767179881163,-20.327493198317605,7.466425528016185,-21.89999314615182,0.26047637039788885,-1.458143470898847,-14.93822591695528,-10.170880934141055,-1.0474155263760707,10.910044607847983,-1.4952009598226914,1.8668470193571738,7.9189868940340045,-4.7225063792897535,0.8168670503859229,3.5250591183947613,-0.17902970460772138,12.89089890511249,-0.15298481067885028,9.269176615423701,-2.2605208874932305,-2.4241917049417685,-6.2510134295304995,-0.09605680840022518,-0.7804550693629104,8.411370011994741,9.631679637446963,-0.00022274568597824285,3.172408686667129,3.5095714713480586,-0.5392503017237177,-7.0822955441645465,-10.104613218817166,3.2907582243499527,-5.101517805497263,-5.37212566263074,-1.6136741112486905,-2.752695276250061,15.443422893301056,-10.546993401754225,-0.46624905682734025,13.027210011642717,0.3320091693162227,-1.2301995446047087,-3.484793940877983,3.3396215492530814,-1.7160255427952176,-2.9149462373265536,7.3861640988052555,2.8564889134611207,3.4659177811089172,-8.973807276042729,7.7973820221470405,2.837509240323729,0.3453115169561194,-5.296919817508755,-8.961042571834412,-0.6477359533827487,8.848593712982625,5.614751390163392,-2.246031915582436,-4.260237961486609,0.12931634227427247,9.021357684957255,-0.211167986462775,-11.202409814800317,-8.104075106125915,-4.587559912129181,-3.6705283827501693,0.7140139267077257,-1.1308891429505887,-0.20772409578439893,12.487800476845898,-0.3707434640433046,-0.1348690862958316,10.867098191542217,-3.3321890987732576,-3.8766253465497043,-3.39334775502741,-7.03341352653348,-11.995294264222995,7.356129500870772,1.857055348467262,0.8925555252054305,5.290252993170335,2.720040984732424,-10.449507298882814,5.3128770573300095,-2.800336565312366,-0.3840526840707241,9.617709978557663,0.09514262779633154,3.855824239287351,-0.09899336173089164,-3.3353256967595293,0.057901962551788255,9.476449351901058,-2.2066760362372713,2.6344460516302286,-9.950673744458784,0.18599842827220814,-6.1674828004488935,2.0398961337419026,11.126214451579315,-3.0609095832381086,1.957487728594721,10.57214058398591,4.784971995418755,-2.019441107998163,10.984639613602237,0.1956152802202944,-1.6060990606781513,1.8185687037787865,1.8295607985139613,-0.31620527203661,0.36797985242415343,-0.1307610469520352,1.1152588061499888,1.8263156230232742,2.9069469849216802,1.9252751193563926,3.1940973197778475,0.6379989927010206,-1.1395097963115606,-1.5735461616104018,5.534540514542069,-1.5656511764777423,0.2997591229069262,5.442697122425697,1.156468963271437,-0.34678967906606584,-10.476354834463832,-6.825950422646969,5.6833429141160465,4.8720472813091735,-1.0575444446512985,-6.600776722992995,-5.275675035986227,-8.389175454232271,1.4802008600782686,-2.2898844475902034,-0.7642471770179418,1.7958927613617583,4.3524439479303245,-0.892524748479331,-5.535808964356734,0.4183200706411209,4.61906764187631,3.28653272568194,9.017467604270907,-1.4151640294304677,-8.950448014071712,-5.961524732312392,6.200424959517882,-3.342420843706245,5.230242085186731,5.034557880278307,-14.349609526139455,-0.4008845068406243,-7.670676172672272,0.4357505785081169,-1.2609835414491168,3.550693870779534,-2.3776883469592485,0.4825085463107048,10.06168214683796,1.900728361851546,5.111968204206041,1.1503920431569634,-3.895582000228407,-0.7750366172029848,1.9243068767335592,4.081017377207116,5.936482460255458,5.217290643568029,-2.29940435224045,0.7376561175456572,-11.2427312550376,1.150364029075504,-0.9873382893041236,-6.786949527020858,5.8401766569230125,-0.14115935295644924,6.208682517468747,-8.412376023489086,0.8630237832245204,1.4059216802496335,-2.344383859068106,-6.0811325682648825,-9.54314845630839,2.840667136776342,1.5474370791518441,-9.593613489358265,4.122032545738838,4.153648424400345,4.900414172897666,-2.6020020853091896,5.968306415161022,-0.13482237850544365,-5.011140676720457,-1.1688939171056085,6.186766475115261,-0.6376407530016541,-6.066236013061943,6.186617295549505,-0.3464351282438234,-1.653868313749454,3.4853366017565333,1.0893141585220536,1.3762880689588146,2.0554674213204085,4.297016307230473,4.6339252043879116,-2.686196393738296,5.018381310524335,-0.8587108161019952,-5.068584139548477,3.406541422586655,2.718842535444158,-0.7037445786608866,13.947288929127716,-7.224466388599643,-3.232108972141304,-3.8574103860708653,-4.882744163071221,12.144605642036545,-0.9035392901790704,-2.4118708415889856,2.166947881237824,8.636479821617918,-0.30928186547826825,-4.030082254699365,0.04737048621863568,0.9765973609844931,0.5337542240053106,22.39120533659631,1.6391654837650633,-10.648535780277248,-11.170051613603452,1.4488329012203442,8.677352004405975,19.218251203581694,2.168249622684342,-2.559250993513138,0.6093454205590245,7.29894463618608,-5.267067005030194,0.639445123936289,0.8716962622734951,13.798297999556365,7.753384664688096,4.368752612281833,-0.3353843489434444,0.4452384596264952,7.609987659214257,4.503703713373572,1.6735176601341966,1.5582943540629683,-10.20453212698418,8.49919223129438,0.6618539832635609,-1.6531694212543102,0.6701888974479973,-5.2577826141220605,-1.5768293810792322,1.0304722756657902,7.346013055174082,-1.3110164133483284,0.41499014020506747,-8.76438086376782,18.99204586611625,-1.6342654452043262,3.2740190361199137,-4.919393576105476,-12.21538917166432,-2.6983084566623283,3.32475945705381,-0.08131135087135495,1.9231704153306675,-8.759431787459688,-5.484030689388149,4.68186558470545,1.2875395698872643,-2.205428611724419,-3.3683925646639925,-3.420416873209965,-10.696143822395186,-0.18017985196316685,2.1810809472341735,-1.5282976941427213,-1.3202897173639354,5.515736390803684,2.1391797417368887,4.345517869510044,-2.1584834659316927,-4.80331796555461,-13.33150799145364,4.060364757705098,-2.8404236192766295,-0.5548478010564013,2.0560557227511462,-6.344394116778432,-1.0675310681738548,-8.006320021349714,-3.865102754630037,-11.888402276695235,6.480893963058861,11.140061732108457,-1.4689943994851482,-10.721624441617603,3.302394988507264,4.461750556352478,0.7984671835250244,-16.85648277584106,-0.7565983951515006,-0.784163306439206,-1.8374297884280952,-5.755114259189218,-1.3798499523801975,3.950157572444776,-6.207340146466375,2.834850991327188,9.82962517357625,1.122309374139001,-10.358953030733492,-1.9354426028719933,-6.4269381445277105,1.3569376813685636,0.6311848792210735,4.990910625466398,-1.800070938027606,-7.99714818538906,-5.438615323065704,0.6102077675342286,2.5336485761948184,4.981378566208948,1.2509418887295183,4.062403586766832,-18.31008828416091,0.6786353391709059,-0.9390784082259755,6.165318372131955,3.7550845624382405,-3.9690644022247623,6.871288685301151,-0.35716088265549806,-0.23828316296252788,-5.853543586895163,-1.0710578837188258,6.867538890569936,8.17656746217825,7.386797925120476,5.1765077363585705,-4.600862003147707,-0.7859825146250283,3.211621086720425,-1.5464180519588087,11.052390812532279,0.6712995489571026,8.148772305298834,8.649710536726621,-0.030532097100325593,-3.8544231773021647,-1.5124834242028502,-4.160012060197265,10.181353422605905,7.477951803379656,-9.400169625006974,12.517091505738653,1.9354924592465237,1.033304075051219,6.701738570691705,0.7557153007606399,-2.7330987968604568,-0.6914930422093519,0.903298949316268,-0.6330635613296227,0.8904442439761104,1.3690455179011867,0.6129140310833145,-2.434321441991671,-2.680886808325949,0.4276613416677987,15.525729295733047,-4.345850183527397,5.428062947880643,-0.642667083493604,-0.08256320708248893,1.9393417337836056,-1.5336822350003059,-8.289899113789346,9.158894270095622,3.74203938990794,2.4378677773357396,-10.28994219258935,0.7832179083675086,2.8208227018112915,-5.677092612374402,-8.770532477044279,6.668627279940663,1.5415694061345127,-0.9455731636611485,1.4662501577860443,-3.1972621967707817,0.9007063260284743,-0.05305062323986212,7.526113097295126,2.8152409005127925,2.22506735169695,-3.2975373199591465,9.741735083740243,-3.144274394648756,-4.28542114992503,1.3551790074942507,2.3710161520460256,-4.243936316017874,0.1227440701551763,-10.261422223609866,12.374953751623359,3.5685195952330626,-8.390482811157955,-0.22925776341646376,-12.111554924128427,-4.936864804201113,1.745538945397148,-9.981139199823659,-13.981674238460903,-4.344563115927411,-0.39873134054882264,4.248268396897151,-0.013860451265253764,-6.679937661677851,0.8151959958889512,-7.2263215423307035,-0.7741640047038824,2.3901349369103775,-4.896914310482492,-7.457548737185823,12.767562994424386,-13.149041593616179,-1.932529913288785,2.1163651883526233,9.472447933834369,4.160420271034258,-1.2567065994239484,-0.7031719753267297,-7.659769744210744,10.984761450821951,-10.944076878369463,-15.598254648691132,-5.650817027622843,8.904287588146772,4.263343938947645,-0.18822050548025177,-0.16707808400433133,0.9932497024538939,1.6818855679984077,-6.053677815996528,15.480468982572244,0.147141302343889,-16.990136220435872,-3.6869088577210514,-0.37132985699017546,1.6842374870715124,9.116426293400227,4.017854428790295,-10.207376818697494,-9.729841611748302,8.818684843750741,-2.3617890238078174,1.3437073381800437,-0.24164552811312612,2.00759017632056,-11.070819679393068,3.5972291753911274,-0.9591791435258491,2.079089008555243,-1.570380636003816,0.9417742828478386,-3.455288721247095,-0.8840374873589365,26.45897990766954,2.822758400869935,-0.3285574990899099,-15.932866838257109,3.2484809290145127,9.48931262563913,-5.702147482180102,-0.8516125351180898,2.9547488593903575,0.8722953771690704,-3.574903811958792,5.466877186821984,1.7446514535247317,18.680401621583933,-1.2241116474638458,-10.91125896060445,-0.9874257353417147,6.186360802860257],[-0.4911842371580043,-1.776567293786126,-4.566627248464814,0.7606310147531785,-1.7577400040024607,-9.20764654955204,-1.2805345651142246,0.1543734700636592,2.3089994894605055,6.488374442525049,-0.5856047135559361,1.392346615203676,10.897004005942787,-5.133891609539623,1.7323181254433087,8.357865655402644,0.08995394742562209,0.13736345937907407,5.793938627658056,-2.9613991569948594,-2.970466220157043,6.905613746814252,-2.511619993039536,10.0773982382131,-7.4530471269358,-4.95506510641621,-6.931806106597941,-1.7643095427674043,-7.062047364936202,-16.12814391936276,0.0001785588070025323,-3.4991986747348722,15.829107249929246,7.131545285595549,-9.883320474968677,-3.914614595526308,0.5846866737211116,0.4353295390947203,10.680102913400681,6.741405689994376,-2.6660436937773895,7.9248019941255645,-1.5842935526137356,-10.84128553407163,-4.48453409119173,-4.505802382377936,0.4263274223879989,11.991342177940117,7.686676271858692,4.537946764939143,-7.142740569924385,-0.9199876413093107,-9.378711300868796,-4.496215020085232,-2.5928970322011597,0.7715890447829453,-3.1175991624303943,6.307629718252216,2.0122938471369753,-1.7478006772562986,-1.4279295761606434,-1.5295557829303552,-0.655228327360702,10.789315599584997,3.4559873425215546,0.14877611689387565,1.6157120051195812,0.21949438582869413,3.681847325378156,6.744431519416376,0.18615011361338407,-0.4163344942628147,19.807401284823804,-7.3776503098865165,-5.705459357770157,-0.7295309778354864,-0.6914759014634418,5.680947965469153,-5.814839187423594,3.5483494972004563,4.419778368386591,2.306992439116468,2.7207568067228345,0.4848799099139083,7.777273528668559,3.6486107286957257,-0.5728312506298991,1.0254530391259509,1.7168857812391765,-16.619451886459025,1.9311396307031048,3.5716438960262664,-2.023367986537889,-2.9352310474095744,-6.136750691004464,-14.113727974379874,-4.272618424065753,10.729767173116757,1.9334509893396026,-1.7004067681934059,-5.943991024060022,1.0585045241856401,1.471115433378365,1.1243310243211642,0.6246178349822602,-0.03289175660214083,-8.579898465800834,-9.699918717561467,-10.288540206628223,-2.5880250225701174,-12.090250400475322,2.687258088164665,-0.5784360948718011,-2.6882058179899126,-6.95208958377622,18.656809960864795,-13.251992286866097,1.2234970240722367,3.079345852904814,-1.1371599708427018,-1.415618736299033,9.009153732056259,0.40135372471106256,-1.8837607289184313,-2.191229143772362,-3.1741601699151807,-2.1327993433560954,2.6333626523708737,0.7613663630983062,10.457389967008332,1.3814512096006017,4.744810448416757,-3.758175098253218,3.6173881619163546,1.3756583427155409,8.236045583843921,3.172408751135631,-8.235949505192345,-0.7817974001553095,-4.365498199562024,-0.7755302531573298,4.220602698864026,2.199688054175436,0.7518243394437263,2.179651574512005,-9.692657834456153,2.516406645109221,-3.037332938338382,-1.1796166424611816,-2.2454358357293525,-12.390637231187473,-6.904591671980302,-0.8414804388491444,-1.6702794416249085,-0.007546479376139932,9.659525260924143,-1.9037037181941678,22.832053749470592,14.34616363663463,4.1609344331107065,-10.454681239246229,-0.27951259535679945,5.832870805413609,8.383197613674744,0.25250651084895026,-3.4181422324053603,7.075575607136413,9.086138295638072,-1.5134393141966669,-9.517351166971,11.871121581325838,7.4933378838720675,0.045463161762766546,2.8990614340757803,-2.7959669381508485,1.177266177846312,3.261854302805698,0.05187743968898749,-0.4847488535922983,-15.818174071101026,-16.458032551274364,-5.453616027935788,-3.3312757182167925,3.126244435731392,0.35944257527258855,-11.49677734012846,2.1411598544616117,-1.2938800473387422,-4.099965124420123,-2.7298504954870113,-8.937158441788082,0.24762909926234117,10.547167198769493,0.19726278434287248,-2.174642773657723,4.625579449961175,-0.3751235428283144,0.3040022082781899,2.0150057316496204,-0.8977209632398504,-5.419325739059473,-10.955091987471672,-3.941351974856758,-4.843565362936167,-5.530218874133318,8.634277375301325,-0.832473062578714,11.511595359996717,-8.045030080825274,5.300246218038616,13.784538835122667,-3.591172505617537,-0.5624068211591542,-1.4125223333625385,-2.3428589144475396,-1.7362555777782467,10.326488399281772,-0.8209533535321415,-3.649259584147665,2.232604423303557,-0.9533034874740436,17.940092289711107,1.6467079387755184,1.4198655693599327,-7.798872198563193,4.257862270793383,2.5020542826372285,10.077395606426046,1.606029867156119,-1.9507901984331562,-7.317703110724785,-0.10325581108799824,-1.0502211138536386,0.23181342795366178,1.6491263082024052,-5.5461671648202975,15.934181839259622,-4.301434793400543,-0.016815132336667888,2.049225967304929,3.81032631607545,0.9188872479136876,2.035792146589406,-0.15922206931569027,0.42022600972194135,-1.4438718059196511,-3.9597326122077163,-1.4718490919194993,7.8414775677620705,7.648714009905633,-1.749190459734697,0.6556801099428303,-0.09760706502998122,-6.918565612646603,-5.253974004848463,-2.6580934487050327,2.1065428587120327,10.855549588625003,-0.12399066165430868,-1.828641951658021,-0.7082060376179006,-10.82059444306838,0.3058703223530417,-1.203745679937851,0.0044753556646412035,1.9278692094749597,2.870901124450693,-1.4798230127937206,-9.981519241096471,-0.2160766180090527,0.7682540765036507,6.8938224377857615,1.5988952609502842,2.1570719280898336,-3.2461004987533304,-2.68375059446026,1.657634335503155,2.7749002657746793,6.7706739958884015,-0.8760646142017181,5.7207575231387295,-0.7061982001454157,-1.4209382989161643,5.450298083451173,0.3797865693343674,-15.600995586126325,7.291848034570549,-8.23066075153098,-0.05505468166660837,-4.9186429156535905,1.2594481838732414,0.9295244659410464,0.1571131616394956,0.4521958314529684,-0.8564747587814701,-3.000641249436372,-2.563776338649017,7.717259450006813,1.2016505956117005,2.46100986349774,5.940522315502725,-0.7185498299139839,9.664528300075029,-5.8498675947419425,-0.44478126348205005,-0.18822223320172687,15.190851753924623,-1.4653259070558033,0.9444834666746758,-0.6813361992244875,3.3718633304183667,-3.1096326551379105,-1.927066414815405,-2.084006961103828,2.9414873564071207,8.512308393912472,-1.175588875439936,-3.5643192144823495,9.048489947097494,0.36472373152491316,6.582354223635704,-16.087403571611855,2.8312968165843446,-1.1724347464514822,1.1670077947673623,5.885604653118136,-8.687283368714565,-7.719041975350995,1.261430943540954,-4.937100920895777,1.4260740067516178,8.205652034724867,-1.9972938223837169,-0.7671489332034866,-1.521444824528634,9.908996941944931,12.317088519509461,-2.4122563477579386,-7.562227894090327,-6.298800168340565,3.3452729748302037,-1.967110093751689,3.0560323146071973,8.442254258996186,8.916957483225673,-3.4899846179833425,-14.257906496930513,4.557387717251599,-2.6207600602868237,-1.4894149729846762,0.29441452610736246,-4.163133869332294,-1.0603869636044418,-0.5774595604894042,-2.690335060353714,-5.421174430170614,-0.04235884975525476,1.0875584458652534,0.8175126772851142,-13.664150958783285,6.380922558436787,1.5268367763861028,6.838221361240178,4.880292697095015,-1.7133111007955701,0.7336617657292952,-0.39422048481157657,2.379344443078626,-8.012040256035018,-2.109918643074567,-1.8783864815812454,2.6695351247044328,-7.203918523952874,0.35107339261584,-3.2278496697924264,-3.416514269406758,-2.8123510713222806,-10.454146469720268,-1.0868516192829087,4.721975259075625,0.5805732778694553,5.170172430467849,-15.944622984806912,-1.7311118450902467,-4.953707892610762,0.4438312861001404,-5.253261365403892,-1.7899524611179718,3.5100386759862583,1.091697113776598,7.10637340048112,-0.535377175536092,0.1115173008865258,6.164676567258905,-3.247574469304004,-1.7167074552560166,-7.291628343783068,6.678122010771309,5.040985708053973,0.3701305086304716,4.348885256146636,-5.359747629846557,2.407016598092592,6.943432570887059,9.353604987324275,-10.818100601886393,-4.243830899451576,-0.016782748891633347,2.28704003112248,-9.040835588564716,12.445567847969663,-3.010681066848511,3.8138916922230663,-6.440716104334646,-3.976183019838676,-0.9880478273821859,7.384343856039472,0.7989662893402335,1.2447538245354877,1.0907795282945512,-0.6284369297978634,4.326017855574246,-10.31373080275116,-1.5646888275498654,-0.8877061441933924,-1.7827590247786265,0.9467969294174942,-0.17504983488254489,-0.5562869688002818,-4.279537038724255,-1.6631090572421328,6.278561340294283,-2.5520248673701214,-0.47240781620827665,3.6483773892146063,9.066319714657558,9.398604431309758,-0.029949221894484224,0.26714522156782655,3.0738627423240543,-6.965091072065054,-4.337308983545549,0.003930131482581998,3.251272695767716,-11.057138415335169,-7.327554055671058,-10.381460747292904,-1.9361476304009244,4.7612248661103385,10.38717925638131,3.6631774595970104,9.41595936074405,1.8399598655831424,6.010219550448868,10.19746580890126,7.303362887573985,-0.43323386131392333,-3.741026852057102,2.130182371399699,9.201308037365663,8.272854147565226,-1.0315162361733081,-1.2252380375128185,-6.119973223586926,2.8694841831010294,-2.438672106686863,0.7228482206316613,0.4776829167054867,-0.72300335063586,3.3653388310269285,-5.641793303996248,1.913708027255661,-2.036798065212,6.811174501874404,0.1901988123230021,-2.4644822072860713,1.846864081310932,-10.06524686671092,2.012336360573312,9.55240087386831,0.6248805717655889,5.6832130752999905,13.540206350171712,-0.5145058825606651,-6.300760705125987,2.8597496974962553,-0.5780026071713597,0.2800663616463728,-2.20861630037913,1.1561765819718872,-1.0973974514043565,4.7071525807342,1.153554433337643,-1.637473981891534,3.2605994944100396,15.190548112451323,2.1704412850766617,-6.334396164405991,2.467013262679408,0.6966729146721694,-2.8692266721867536,-2.2169466361626227,-3.240360622553658,-6.5493746941035145,-0.8154977936411266,7.523394226271355,6.190260424563539,-5.764319840639441,18.146938456162026,0.6174697752803575,-0.46232513431164274,-1.35509446038966,-5.475385521599776,-9.188954958049704,4.329013838669454,0.4944748358602633,-4.856614957644462,10.697165532505895,7.941790988586461,-2.6105762080152974,3.23990528608352,-0.5036505432271435,6.374384365234538,-7.176617071531865,-3.7359178759022487,-1.2454486791277024,9.040675883360771,2.1305802355526042,-0.35524799219314296,-2.3498077022951924,-0.7852603256775712,4.088912419651869,0.8297458893621162,-0.7592181049699634,4.325516401738926,11.88653803994088,-1.0504641585005001,-4.499126117609124,-2.2372966452220884,12.09875260278014,-3.0168871999863756,0.2005682646217107,10.960270003167953,2.0216498032423345,1.3222662931572635,2.8956121956755196,-19.508547255524704,1.6075710375100556,5.180804732199009,0.017825606864269455,3.028787934310854,5.8799227023128555,3.235406474817699,4.483744129908816,0.163608288717844,-10.962013102918142,9.243611484327714,-2.8472826541539433,14.782697999223629,3.406025637371404,2.130132323998959,-7.293021972086064,-4.254244574565725,-0.45023462922117563,-17.235234293162943,8.731725416173441,22.466620203812266,-4.145982392446816,-1.9169908068500192,-14.116778895565442,-10.017357651491315,0.5715961277366493,-2.809498286249492,-0.26397419423194524,-1.562036743236388,-1.9528100116320046,-1.1453013535403347,-2.513821291716599,3.8094739416636494,12.851881513684432,5.314348309943192,1.0450920288996108,-5.735556023711742,-0.00037145442004993257,1.0682045989198714,3.9642611921042916,8.77642190661753,-0.08834763738934104,-0.2982292118498564,0.05729577469481706,0.498067028344287,1.0896933151184518,2.8402575789020017,-1.286266444209011,1.1411392961913454,6.33441636267231,-0.8676356734171433,-25.22554559432467,-2.925941602288569,-5.211967995913395,2.7384529395921264,-4.80463919080948,0.21801738439247753,9.808118815976306,4.557274166341964,2.0724824896143303,3.67699690987886,-1.1568289209830895,-0.4247129485116881,-0.9754557244074131,-5.5633427396440265,-4.859939072247249,21.26232124338875,-7.701773977114291,-8.70506859240874,9.291692442489207,-14.59050182867317,-5.759383484559768,9.297468180089226,1.1134041134570662,15.111849187775283,3.392508684292631,-0.8512085924951158,8.551850657300731,1.1457178369011163,2.316828471164222,-6.682091399543486,0.38049180276787625,-6.466164592148753,-2.3801711806762085,2.239716805285834,3.03460933927974,9.106945480139444,14.026562203312729,1.4394285594630212,-1.017815685534653,0.1347606264559651,0.38017847223047463,8.635515966068988,-0.5880164656591692,-5.029525264929854,-7.173685856052251,-2.4082909588774974,1.530676226290548,-11.84302896989238,8.082984275901858,-1.831048640039943,-0.30115365256260807,-2.039449410654242,-1.4944332727785212,-9.928814863497983,-7.111177061186128,1.3781590879352952,14.921267938142645,4.721156455663152,-7.430503443838281,1.8351563015784764,-20.005734301262144,0.20753951398946036,3.3018742629994264,-5.240628586234199,2.60309705406598,-9.738832986649971,4.165489211846454,1.0057365343931766,4.21926276117233,3.29088183356372,-2.0851741281748453,-3.2605150439549013,-1.5003185535053039,2.823444650669733,14.054406828984382,-0.8371071810114852,-0.6090715303282419,2.6219905050985384,3.746774270468328,-0.013009770890506367,1.8661563204558473,-0.9943911425070705,-0.4526518953021655,-5.566849858122689,0.6806602607884303,3.7157641128211196,-11.435663089930953,-3.0825077919244688,-0.08923423547642646,-1.2913470913664726,-4.694621832126766,0.2122737564315793,0.3344019265880997,-2.065582589351261,8.105884010803344,9.598890098022931,-4.2323567639355035,-1.9530972783253524,4.653732282360966,0.49548117212030024,3.4501080657206575,6.009296962718295,-5.412310933689089,-1.446432571557967,-2.5758136404968632,10.255418811540371,6.590063041833061,-1.9492924288269293,-15.950794478273512,-1.0298655572819249,11.325782703647178,0.7587321309905346,1.4385796812387683,-5.6663098078145495,1.4757847573493519,1.3730552000265936,-2.9859260243036347,-5.128680699804232,-2.678984996394984,1.295784206957738,10.559617310624327,0.12995205340108287,-2.39762877410791,-7.2154794867321,-8.267401453981304,-0.1059425372006266,-1.4606332268196545,-1.5199440728146645,-3.0310576635585718,-14.317404454501347,4.175827276850369,4.882784823712598,-6.806305701300075,-0.01639004198494173,7.889144696081076,5.958653446540452,-4.605371404042449,5.976518137737672,-3.308683049754019,6.834557704457174,-0.2795409556529793,-3.431424904221155,1.308378505551051,4.675184109722712,-2.04005438757573,-1.8557645753157657,-2.934281661049763,-6.562669098752888,1.9556531502724759,-1.6461718084087518,0.4309734140200378,-0.3603755280614628,1.5878890991278356,-9.964145297441377,-3.6385510849090523,0.7499591609079514,0.7608247307480773,8.106141571134795,-2.1470535723849524,-0.9664910542220493,-3.7850245143064063,0.9287971350979134,1.340587299221026,1.1706729181105908,-9.422122819393206,9.581022912457822,-4.933358437365217,-6.1731661338589365,-8.359342197049237,-2.1533776711478425,-0.12434385671331942,0.3160613028415498,-5.204246896267254,5.546693953129487,1.5475580142377552,-4.801212063781911,3.356937510863134,-14.033329725787311,-1.5175425037013888,-7.495500387456641,2.510441924812234,6.932625268595135,-4.742644701388034,3.6672675445506138,10.250488897632877,-0.17850871620923994,-11.183567033732691],[1.5955453301731959,-1.5143466981354314,-1.0568017117612396,1.8000728333444835,-5.298412882412366,-6.983559233547749,0.565511968010457,5.266114854139665,8.040752316032622,-3.4936550570796268,0.8037772934613693,2.774459238235878,-1.0011885845123376,3.0865247152278403,-0.7756706354936809,1.0892117071658924,-13.296638114093007,0.42055098003716745,7.311183932027554,1.4558402281704788,0.35190032491875967,-1.4854150340649823,-4.4195799537015485,-0.16705198736967117,-1.5958301748814652,-10.812865413616308,3.8206116235933383,-4.343502959410332,-5.885903714812228,6.955641645199024,4.695250086770945,-8.372143778239575,-2.1834800421805687,8.32225970221595,-4.983730073379753,0.6023340993394615,-0.1812873511349059,-0.8077643713741258,-5.869044403713984,0.12800646977812935,4.84645128985125,-5.479496705549226,-2.9088431297296173,-0.06249284888568446,2.8232281633546497,2.999865523287519,6.117118550666063,5.940476908226274,-3.345165729214629,-0.6888793850775977,-1.916031286770794,0.11667435555211296,-6.9272621538312835,-2.1173616021628217,6.339834411142785,1.1115792632849908,-0.23831054195748957,-7.109816074649867,7.3673727716902935,7.4762528493859355,-0.7018019826011778,-1.4340433311243128,-2.316246299846778,-0.8661204166699202,3.1280496863661007,2.1181604875038125,11.476356011495376,0.9959019679078436,-0.0423113896671401,1.0257361515793477,-6.963329893801373,-7.5718545810927935,-11.678540576637127,-4.481816656611661,1.8287107821132291,1.5784884797501566,2.288526087540044,0.996124008362339,0.46240818498868025,5.653037536715486,-6.898188035465174,2.4241879639123334,-2.147930903875901,9.498635513126745,-1.7543556824445767,0.6788865453339267,5.374501164709528,-6.333067785005377,-0.005489390902928208,1.3501487481767827,2.030531961950657,-7.951744268753405,3.9292167028451046,-10.41629585540423,5.443431464195487,1.4031357070098107,-6.376070387507454,2.9266919954360504,18.040988085740572,11.58385378297284,0.057046027488375645,-2.6173438835297147,1.8221296846830337,-0.7419802881419717,3.444591958336358,2.6933764339007293,-0.7434652596634256,15.321781016085811,10.330561362928712,-7.278354494599097,2.3540145639137338,11.750863711069808,-3.607691376214072,0.34964899597608295,7.99278674076931,3.9269952860484634,1.344784184044257,-10.206067577009769,2.8358476440984077,-4.185469385888406,-1.143741613264017,-3.647168889421698,-2.7449653520953485,-1.5876515368658612,-3.7752584946360015,7.641007575068784,9.56265257561145,4.511932538472597,-1.3486680685074734,-0.16205622039796594,0.06120031391248126,-10.810848522002908,-1.3493906429180316,4.241490574897322,5.9917555346026905,0.715158604300933,3.92959797022391,-7.497435376877492,2.5440987913068867,-8.879268403867249,-1.4144522389333152,-4.042779505654069,2.5221151352529265,17.47537130588624,-2.667107545632835,4.975252252583714,4.059509463148601,-2.304399437174972,-9.347826149456404,2.6936303771530374,-6.840760785199829,-3.9497385332473938,4.900950213935705,-0.26365508115312364,-0.05442800701306071,2.9717519754036696,-2.599966003822794,1.1549435629454152,-7.404304123318776,8.742203577098138,-14.977298680398619,8.670203651866137,6.599976208097187,11.923691484482344,-2.5861146049640054,1.6118197609453828,5.6043188579169945,-3.7570010230083217,13.479209268834115,2.045421224170599,5.201287601849248,-6.545086375092432,-7.4901846920074995,-0.9633978237304086,6.939906592316112,3.6713054196404293,-3.4951429497013446,-3.5654150821481174,4.858876299906604,-0.5217025911474656,3.49215047926736,-0.595047873790309,2.360283272426048,-2.0371854128075944,3.4010214786312987,5.109348200059387,-24.53615293252793,0.12628108189731893,2.3639605270698056,-5.682024511839767,-6.596455616466222,-9.561155872652916,-4.976612205333608,8.327319851590945,7.071114175480586,-3.114974002847496,-10.421837513217271,-2.7161546246594823,-2.219124011676628,1.2454734727942045,-23.792836503343665,-8.366764772585391,-12.60092209735276,-2.3466371494882567,-2.7569693602137364,10.68335493257968,-1.4694802505260611,0.4825886626131107,-4.803033792478357,4.3232973457050115,1.182540119018239,-11.519135805282907,-11.658187489632663,6.187562012988218,21.016626522535105,-0.8879640914726966,-7.704589270559804,1.1601281516302935,-0.5190822886912736,0.495333618982291,6.58711277347626,-0.43130605456485915,-9.800036270978524,-28.30288275624866,-1.978320365804405,-3.543542383698327,-0.49826815898933235,3.8041054605056788,-8.69904193179484,1.0005834484861456,-1.8109244638831914,-5.034334559458911,-0.4537657165097771,1.7674450885578703,-3.2222642108199366,-2.3368492713644793,8.03690636778773,-2.5715920601818847,-4.145895487906458,-3.101298903876527,11.715349108324402,-8.212908946496466,-0.3384484134817404,-1.7191826058376787,-2.6186075519094216,-2.306379407384894,7.134938826555187,-3.4370600962913067,-7.173374082164754,-0.7552822928071113,3.561480470389111,-6.53994983124986,-1.4479617056533574,-2.9698451501097143,10.627525395736178,1.4489137070210842,-4.379772038837092,-14.096299740814048,-1.3751107741337338,-0.030317508337982524,-9.405083090064585,9.340929523919087,4.352155807125572,4.510281692413521,-3.584477583414368,4.679602568315641,5.01312659236867,-4.696822082929176,-2.133968299078112,4.017637254198653,0.25693133153421266,0.21799474711260114,1.9382926557380686,1.0840766797585402,2.3480554491688355,2.2282771122389167,-1.2683343690107873,2.316318538393889,4.489687469618625,-1.2671310985484379,-3.6103858694495954,1.9166994741412784,-7.140205366248424,-0.19683195754952387,-12.90803049858966,5.002918410201977,17.575909886423048,-1.9497349957927756,1.2077689465222796,5.359964140369799,-6.63128196374095,-9.285688804432182,-2.877530014274281,-1.194468291605609,-1.2587585148655485,-6.939167695715049,-7.60456650433492,-1.106359334379743,-0.42889081899598125,5.6754589572527925,-2.7955826209202774,-13.305403126419078,-1.3695400210434487,1.23883840390297,-1.3386396645075045,4.523078631923131,5.22117148295736,3.5969458056130663,7.494414461299048,1.8056542380828833,2.407246911640381,-6.082803260761528,1.6436645051014231,-2.2575893711393684,-7.486471712684985,0.6687728482472339,8.981084990263904,-3.4832656555404835,2.902766693472941,1.0116795450109173,-0.2950956182760183,1.1503683389844368,-2.680937278043663,-4.8467866260365735,-1.2295153391122426,-6.272338568763274,-8.288043179155848,-6.651623254017343,0.6855302895131331,-5.834951909849477,3.792830466532681,8.23645138222248,-8.5759130442664,2.013729467186576,3.4705065595001097,2.7431400688088146,-4.163538158442043,1.009219509731927,6.992170743488694,-9.336794568260263,-3.5381638547580296,2.7822427294705405,13.843367269377428,-2.6846083577269595,8.326181594654152,6.5150534598704875,-6.109225609121641,-5.313747013882443,-1.6085784271661243,0.9444467408319825,-1.5030193173492925,7.786781742261111,-1.965828021439432,1.0779002581316157,-1.1438861541038428,0.38348341723926715,-8.34755233026807,-3.2588420636965587,-9.952857967391685,3.365490312509148,1.508115647600372,8.319695686670077,-12.510517481860456,0.7216828921466191,2.076535099740093,2.3703136040251347,-1.1338203019888562,2.203837447245379,10.508828005503673,6.220126638822367,10.560077985692065,2.1617886994480466,-2.341081959115843,0.2164684935633013,-0.301473520361168,1.6453733716808978,-0.710319923789672,-1.4225407583379042,-6.77003178707939,-1.8245221132116514,1.9829626679078034,-1.6856533528805553,-5.326675017757211,3.6321246726235707,4.4097683492417925,-1.3188338508365125,-0.8266305275570367,-1.6126055336766818,8.368207079695319,-0.2257111912896364,-3.3297563296354844,-0.04236074327073021,-9.532440373851315,2.400969694947775,8.88719247382545,5.008270398332604,-9.970822931895544,-1.6075186723854678,6.855505759022054,6.0912375686546305,-0.25104286299912393,7.593682948103478,-0.8293818232430459,-1.8371688696227575,14.305876810110103,-1.3962212519129524,3.481334622573236,-7.433193233560978,6.451352989499163,-1.734683558510486,-2.082895780686921,-1.523829628097374,-2.740383234002257,-0.15313595531106472,-1.9329091290705684,6.827252027362505,-9.643270310839988,2.2045934420355273,-14.807477579436554,-0.5553890046663745,-20.28029158133161,0.9647626495223027,7.060350246570929,0.5926775057079557,-1.292776229285998,7.614602363868632,-4.088895764345867,6.23828965914379,4.7024991226455555,-5.673112406036039,-2.7113194804641774,1.5309432531879164,0.4820123987894016,7.860614548927318,-15.283241348872814,8.23137550387614,-0.23743800548626262,7.868251920683926,-3.4023983458703664,-3.8495023718034873,0.41858897967661157,4.3480983280433145,6.927621227191338,9.571775265659594,22.723340218905143,-2.8748651573317323,8.587040313706424,2.544252338649017,1.65136235768599,-2.252264089746417,-5.483658960970278,-0.9752218546884435,-8.90813746631115,1.0773035048159574,-1.656365161247733,-0.11024640284230257,7.2524151427658765,10.68407107267814,1.9021844882781587,16.890622620357345,10.515252348325214,-1.5120487741122406,9.881428910730385,-6.587600308478269,7.091311892662184,5.672715734929971,-4.573269413896751,5.299381826063443,4.846946452828293,1.4429123464283926,4.631115976261971,0.5837506954651421,1.7930653703140838,0.2427928313162767,-1.7209679739747965,18.969551626269556,9.820227757563364,0.8639106302518855,0.7352007527328057,0.8640478379019183,-3.3799325837829333,1.622799930636285,-3.3895765001933675,1.4967436427139187,-5.47543364914047,1.8730577378804651,1.4092989462736043,1.0488285496498193,14.201892501147796,-4.769766587398433,-4.495550255425575,4.918473895866389,7.259735917008786,0.3143268267931534,7.74981694230529,2.706002292206656,-2.416978763820657,-0.5031181607845323,0.6565768698557019,0.7115081931112198,-1.0505925343393872,0.27378071498930745,1.9999589693279693,-2.351931983563829,8.488449979870953,-1.6937985650268108,-0.5039348004520041,-1.0235506955338582,-11.674966453736308,-1.8484771355626428,2.0105964186600307,1.8085166481796198,0.8508562638340033,5.5459315285269435,-8.391414079356952,0.13186632007879134,-3.6181372216926277,-4.569277480707682,4.804257003403951,-8.850613377642949,6.470723048233538,-0.2532184307738065,1.6471715757174645,-4.9570059106217075,6.877112235474353,3.3329759972702044,6.349130551889317,9.182543659414105,8.258082486292299,0.6965956602073738,-0.6454024229135467,1.4040105666975495,-0.4321938132460103,-2.762719860894629,0.4944241865055527,-3.158805243086313,1.6827251873196545,-1.412035025142774,11.177653859526986,-5.061852795891674,22.48734224336752,-5.79708771607352,-10.279839243999003,0.12160638542325321,1.0831882967845998,-2.213085638639883,-11.918587797004427,-7.223034498794812,-9.881338758888187,-11.217289275516249,0.1835117068062626,1.6537799429150717,-4.412729061149187,2.078692259957461,5.40527045502207,-4.944865525504039,1.5953243599270808,-8.110774894561276,8.639404096861691,1.94572830763848,-3.5977910016002816,23.27727740512585,-5.986422306816918,-4.331741442054223,3.2200517625388563,-8.31297639955717,0.509344061172348,2.045269116075763,-3.7720457085079158,-6.597190422205736,2.420351314948065,-1.794768578031713,-2.428102943703736,-3.4648646002253822,-2.3310093591056433,-2.8097464819300826,2.359502198495334,-1.2742493742299068,-0.5377429957638309,1.35070080694934,-6.286127673033955,-3.8453182845735725,-7.199828277449632,-2.2566878564656347,-3.6786194959094445,0.8262611488527883,-1.8884202772290324,8.498034753427387,2.9734169780762136,1.217386613894094,1.9318426431744566,-5.778129004613355,0.17479629112589823,-0.34385701118813333,2.8207770513939256,-4.7594932412851385,0.7405457811764208,-20.500148509278162,1.2354163194438321,0.6577967793734991,16.439977585442062,-1.1506575122006295,-3.567842465497214,3.7610735446708565,5.882106030647846,1.6328099538072078,12.907819376199736,2.1443392224747897,-1.0251573204759588,-0.2419951126094487,-3.3321546943838594,-6.098724573358423,4.611748880177733,-0.8963130597769758,-1.9743301706614547,1.77074628078614,1.8542527744923156,10.731782891948692,2.5621781924407254,-0.34082627291482936,-0.17642937959237137,14.494491506022221,-0.8343389349892845,0.3624705912647917,-0.4744572564858962,10.633095481081801,0.5898831522730913,-6.602951375087658,-1.0852361236103343,9.235066070719089,2.207123209222367,-10.42203738031211,-7.498910765000385,-0.5351864173986377,1.8457846827940627,2.906501769346127,-7.389524447854548,-2.5641467690143536,-1.2176231712486025,-5.858533585329581,3.6092140708075178,-7.779195961019733,5.7198959728589305,-4.376035443489862,1.9535845519352122,8.904894552141755,-0.5641960003391074,6.9897625735867805,0.8690303934627606,6.32756500559763,18.21595923303125,4.126339047395383,3.8736501650035255,-16.0211794953885,-2.1910097839952503,-5.652078989065496,8.028269479733694,-1.426874001093512,-0.9508638289064802,-5.138166622909798,-3.372742152245452,-16.26155608392837,5.925663308320042,-1.1161723880155294,-1.2105648781339953,7.177088350691648,2.4087740732939795,7.466346315248033,-2.9234824860240174,9.138152818041615,5.791788375774294,-0.018843998087934657,-3.2571297831375654,0.982276947191049,4.309539304202039,1.4092765624377845,-14.378574870674402,2.755094234045597,4.935549603048579,-1.7304948419032375,1.0770890284495998,8.977818571927635,-12.649045479085272,-0.38696757142276295,-4.995561244529428,-5.877059345276094,-4.497953566871915,5.965008413543421,-7.880576203186609,3.266447401136261,-2.8649693019628533,-8.142802706528142,-5.627836370788682,-4.602600027617148,3.8400400635725984,-8.790090007940869,18.39093600196004,-12.422299634846137,-17.862155702182847,-8.779604792071874,6.163913856864241,-8.471722001900282,-8.612792189942539,-5.352879263392163,1.9519220307382168,16.200503209073133,-7.57716422573351,0.7222343919293653,1.7657130383345172,3.88417222870216,-0.6564819609697735,7.985797109648218,-9.396942641356848,-0.5926901827123856,-3.7700292471852497,8.058668718678332,-13.34089268699168,1.2745715580627235,-0.5708572752795852,-21.201306692603307,-0.5366596050541135,3.2947977493137888,4.425347607982337,-1.7124343649925722,-1.2579471663081327,-1.7243839849672686,-0.476697728213255,-0.4531831432851962,-5.7458221229341335,-1.448649895998336,-2.8393379552123847,-6.151051543628429,-1.5555574993543655,-2.4913053531866804,1.8578275744756454,-2.0685742402343847,-2.260431885147527,-0.7464746766365942,-9.958269243719956,-0.2287721319071436,-4.65491557829626,-17.363501074875032,-7.7484715551540955,10.868218587582358,1.0689079846191807,-0.3097671512401567,-0.030949358757929455,1.87289355473347,8.700480940923,3.716737412239472,-2.5084658845655414,-6.270066643676142,-9.503605148444148,2.5444035251787076,-0.7399063170762876,-3.2641368909054216,1.8837424392783608,-1.4528454804079471,2.4188498149094917,-2.909680669926978,1.96921987004039,-3.0575402201262607,-4.235593326523473,-1.9006622392922286,-1.0938669213026793,-0.5258602050479237,2.5926317719779184,-0.929814481853359,-3.664068065626341,2.4591431976926863,-1.4092532686995969,-2.4006105554757577,-0.9096605113945699,-9.071766776618439,-0.04070414296928157,-4.513500258882757,2.6007292294974014,1.326320682528099,7.9947868748782795,-4.430894073406792,6.780036609585384,1.5158652048179575,0.9589881757510867,-4.767601167319295],[-0.15612924986474272,-0.46822371619088576,-0.8138579164641929,-8.02933670605426,1.6372613457858365,-2.8558922809261413,-9.243771163421084,-11.061113563978097,9.680520277937678,-0.7021856182392824,-5.615364386969979,-2.5866979781506183,-4.2292854417904024,-2.41945025886631,0.8284639961104802,5.045938225688932,-1.5742847534257542,-4.401999441821895,-9.587719964632345,3.028022637910953,0.19434204077318817,-5.840723274763618,-0.6201170025954319,-8.147426455799973,-10.180188614320565,2.28624219929261,11.06850098822437,0.6606712937203929,-0.3166582182638633,3.2508235054016836,8.990920423868474,6.3465535952859575,0.35173287918694873,2.7462039693839553,-14.891081852287948,4.085358471522402,-10.202251256074998,-10.432914253719597,21.629674916449634,8.774963036082891,0.33779836081846265,-3.866542255021225,-2.5790835441239013,2.9155740472502205,-0.6815108844296379,2.817596062050979,13.366686462075009,14.752614812876802,-2.5021266010348513,7.903703320830975,2.446339164147798,1.8556617022409574,6.544982427268654,4.2249797411501815,2.3967746383058324,-5.2777507160842685,11.805088056989321,-0.5308924755975725,-2.7467484924136873,2.851833404132737,11.218517509996216,2.1116861440837553,-5.989908154701411,-1.4060014677824562,2.902096753044436,-3.528802402471081,3.5792972757373676,-4.143439594915216,1.6836373147992159,0.3111347139192958,-6.0053559677858654,5.819856491752244,6.377452781737409,-2.1685014797786626,-0.6959970762746265,-0.14951701623380162,-0.9519119400089425,-0.9718322645570603,6.974268205405757,2.6950903260341015,-5.744942157806662,0.7879454583886603,2.514523466135831,4.5110380614921075,-0.981506315655806,-7.46118406296526,1.3562552789765006,-3.018022481254029,8.508407575134958,-1.3870868451049998,10.671087375373213,0.9893147780858145,1.1788298516918596,-0.33880775907087957,-1.5657857867217848,-3.572473740868512,-9.128212340943842,-1.4121004461531723,-4.313228087571753,-6.508572130842031,-2.1403736424902853,1.505242391437918,-1.6917489403124106,-10.376257603187575,3.9342603114698234,6.120079525133561,6.940342044191742,7.965537760964563,-2.2503224577254564,2.2433401588159345,2.3362099808893486,-7.001642009984637,-5.803009451669632,-11.999458210068141,8.13825008660262,0.20950122723039893,4.262677430353769,-0.2645981868138745,-9.136013440546398,-6.065685884138706,-3.6522414349984613,-8.221319303534969,-1.664987405541785,-2.170623067089589,-6.725886447942633,-2.2670221758564324,1.0786173188155024,-6.495729313783882,8.840941192684078,-2.318484196272651,-3.639714160694763,-1.872073963254144,18.032817005449985,0.9251565254957732,9.208861961918526,7.167443665061155,-0.6565642432016124,-1.212053323608306,6.956814840385864,-1.8556222590411107,-1.3140814952058468,2.4512447368705583,7.113452558844849,-1.4769271074818375,-0.7157405414282756,-0.9287835052986625,-4.8312004004273,-0.20739951319018665,-8.278340316828608,5.8823493165558585,-9.891824177205368,6.781914990291407,1.0483957393206906,6.107602119212516,13.112569653157953,1.0298182565072906,2.4934979619529187,-15.348234342651658,-7.014707397939783,-1.8583236641067866,-6.925659771517264,8.355040263093693,0.2663184351169223,1.659155413860311,11.995212778304806,-7.961009578824455,14.13809028176146,3.6986992848476397,-0.4684104800091031,-0.48482713762519186,-8.430891546003462,3.0356892121705954,-4.91421190593657,-1.0486902600494619,-2.385238823630168,1.4705315600819162,-0.7303282964817932,-2.3468600479332338,3.625538511292723,0.09300092892799176,-1.6547243663599034,-7.782299584243416,-1.6846084947398103,-6.277130605609356,-0.8747974080363505,2.7373802072979476,1.4952813783133894,0.07939526485011905,4.544901090174503,12.735437396213447,-1.0193478503971387,-11.158436095818276,2.8132687054813115,1.434353337512338,5.817306797275611,0.21887539797124497,-4.151673319633033,-3.8237525200087594,-0.7115925804554868,-2.7504495555306434,-8.04433681399302,-6.064981155039293,-6.608025312929893,10.93979480964563,0.0973940347464719,4.2336340865067115,-1.6425400775097396,0.6765525219200537,-10.695971124467128,-8.862507975589757,-1.274883664289927,-3.4299003339656777,-5.184627500679856,-0.5996817460215229,-6.5937799224529385,7.132842789581552,1.2940509751711298,0.061115120375689,-5.2972532119982585,4.6249925631655255,-3.0827326368621484,-6.867114574998791,-0.017721802426322934,1.44411457846539,16.493675108048322,21.56172615122886,-3.5877559988650285,3.2164416609506397,3.751587304506426,-0.25706708844865256,-3.098789946031558,-2.1534550463457776,8.672453924470322,-3.9217507673010443,-4.463845506819581,6.004065873984539,5.066081139962782,4.36247352153042,3.453918462225019,1.3268732682959072,1.576704676926445,-1.5785824123705385,2.567102098138721,2.1283820275106096,1.891973400507201,-2.5202297303828503,-0.4224639366931844,-2.997433579516997,-0.546361835384666,2.4202165136656424,4.616533726724254,0.8348972875681367,2.8715772963188844,-1.2736131726923245,-2.247718558774366,7.006981589675707,-3.9101711671875856,-2.787905884483903,-4.389905226549558,0.5224003199912962,-2.4870651868472793,-3.6256206487990474,3.9181667611226625,4.646286850920771,1.6553146229952576,0.9699957192451533,-0.7330444676917177,-8.8174773917374,-0.9540989010679034,1.7425282673464761,-8.09799386323541,-6.641417206862409,-5.09583000654087,1.319302835093571,11.792041943326176,1.9166598126034646,8.349261926158084,1.3057762551729482,-17.82085836951022,-0.4683146531431227,4.1038133841055435,0.12327161149418497,-3.0563322677686044,-5.285623512418932,-6.558054426633353,-5.0165206854060544,2.2237803416298267,-1.340433791094503,0.008935338030083173,2.8515773706401086,-8.633125442685454,-1.8005836231483225,3.3307363678513973,2.070189010936896,-3.6521500393092436,-0.690641340013639,4.525681359601249,5.8900711287733944,-2.0589227982675102,-3.79444398992189,4.429550420675755,-7.139235307209101,0.6608793833649537,0.7455349870882204,1.2434305042381737,4.909655171817644,-6.378058974825192,-2.1124316475346427,-1.3637835121262796,-2.430975959176774,1.4395200525178782,3.786882327781421,1.2045185767723394,-3.98380852333877,-13.282652013710704,-0.7186265553683948,8.795948198946165,-11.174153110279317,-2.5202269087532287,-7.571622309246516,1.8574646056903348,5.920206294468461,-2.5377534962977557,2.5041269559802806,4.6722429692726095,-5.762728210129939,7.056142414062171,-0.05512302637019868,-0.3593195178972878,-0.8175346352613354,0.20115521797727615,4.925915749955191,0.8539375399143029,7.2106065552735465,-0.4815227307575,0.934963588768368,-1.2747615780635222,-1.2018389008303607,0.49996856298324527,8.370796035419895,1.2116446695920176,1.3071157229896697,1.2783538326208084,-5.482171018799705,-0.8335235891641146,-19.908999097046106,0.38670552044362366,-4.854328013239908,7.8652795673629905,4.885011020574189,-4.629978498973952,-10.295089597236693,6.345570338407828,-9.568061653214425,3.0035241057546194,-1.3969406368015862,-0.4909102375492615,-8.472106603653323,-3.0158372965512616,-9.437457515841377,3.979419627498527,-2.4872959848025546,1.518206554067945,-5.485291720478052,0.8636300736791226,-2.7679194580477127,-0.02140686453602747,-11.267879035705024,-4.756825823975295,0.533096890923541,-6.790132174663833,4.434008560245482,-3.9710258700849703,-0.8755498952912593,-2.161961606900352,0.842655881428286,-4.30177993351346,0.603800856079613,-2.137620503940453,-8.580874495950086,4.795632813154655,-2.1757553583499245,1.0543444147771275,-6.59832959457184,-3.17966190094606,0.04874701314340779,12.454747055576707,-4.686231933465673,-0.38488460539170805,7.066651495506237,1.2889089428923215,8.555430172822925,-0.35930802526381617,-1.726922198210321,0.9686865588029026,0.3285444201455484,9.887874642672376,-19.813874686774668,10.712956634766998,-2.7854974565596926,-4.869638652309266,-12.106228926615081,5.752097662360846,-2.4454171946493037,10.047695999736813,-15.284960775520751,-4.820069307576019,-0.11913812541750515,-1.0877484668756825,-7.664801910373424,5.451952303436174,6.5977802540749675,1.5321992350849005,1.5772502079490394,1.6719838373053835,0.8917532490314344,14.125910548443166,-1.1828284280301478,2.3806441981621695,1.3452516519259663,-7.808184535101743,4.6879274202902605,3.496609530917195,1.8583225440123405,7.633787139269242,7.945818434788581,-1.995428883734116,14.585252360656138,9.096928230015912,-0.5773730059793939,-1.7811596454227323,11.525296080611788,-2.6414075198083804,4.747921941214635,4.732277955102342,1.919848072396186,-16.001943966398272,-5.201124508100587,-2.255191437525772,12.866716540962491,-1.931051839125348,3.1893301034051746,-10.865790376504235,-0.8228676753081592,-9.21741137998369,-4.898798797383085,4.29002199165076,0.13611208016512855,-2.81632735974609,-0.3091450900405869,-0.3840139771623958,-1.4098380910982278,-5.048920284955297,5.787905893118465,-0.7070760359240751,-0.41262641062646216,0.09009922708155749,-4.378086269062351,-3.446287146144434,-4.785127932502696,2.8684325076316104,-9.630152351479012,6.57068490639522,-3.3824272465492826,-7.570681141536654,6.96936017639329,-5.380728055085049,1.0505125381156946,-0.5847904077485413,0.704554470690672,-3.9760919697794765,4.916398768604091,-1.6110384594975806,-14.094969873309587,-3.112079524269894,5.022142935119927,11.729741395438891,-2.7803389833014953,-2.541623305890294,16.02150179033717,-5.966726116668178,-7.918988309051778,-9.691824558945205,6.80597024074534,4.673167140509051,2.0012425557890063,3.724816605658629,-0.7541926179727199,-1.5705386106223498,-0.9828115278019706,-2.1782643878242314,2.6078688991977708,-1.1281568542572202,-10.126907627138843,1.2974636221882057,2.414073758086328,0.26130060493626844,10.18321303806885,0.16916995246141345,-0.34747239737499674,-0.42139001024024,2.137748974083761,4.860725173786993,5.760152605593063,-5.8515292366282825,-3.3298259091857423,-1.6106526052300922,-2.0907086394760945,-18.712180700293636,0.16219872592477436,-1.8803986505562964,6.522319465699706,0.882360250237948,-0.32849017488380966,8.319289745402896,1.5627452228012542,2.8837514220855995,2.5457169769175754,-5.002301863734078,-5.039469422267394,0.5295432602831911,-2.383043842610406,-2.9828464237849737,10.368110268087385,-8.144176303915938,0.30553058889885615,-13.212491668851708,-11.187013867326645,1.6455870379719575,1.086894762802843,9.374599589327268,-0.9844604851183059,2.8738792686614594,1.8203647163640817,-2.228052345553175,1.3704810779658279,1.6720420422987898,6.081553038436962,2.3151370407784135,0.4195685431555862,1.1408896881111872,0.30837224049938783,-15.28668945198677,-10.263461311183011,4.98109408604321,3.9772561785908493,3.008509621081842,7.053887705029058,7.644041556628354,-2.2889550104431087,10.123919782634033,-1.9336092179122293,-7.013765118530867,-7.960997173921742,1.1511031039712423,3.8187177320003065,0.9237788135406099,-0.08017344807647131,-1.4767788945567788,-3.715230461920035,-0.5743109861191451,2.939755904185355,-1.7658916215020697,-2.068156397648069,7.585134761478535,11.183814968221157,0.9598410944004049,0.2086364542497144,0.04073392341045956,-3.592764732656366,2.076600567541444,-1.986118888767229,-1.4262289048585313,-0.6706880894968557,2.697792045311037,-1.464689424259686,-5.397956523138274,-0.07719196693934727,-7.805925207954872,-1.694946421955465,-6.6093736035510595,2.3244786411001384,1.7275871787741022,-0.11869473017601584,1.0651883934713324,-5.723279520635716,-5.122223525157203,-0.07254301704613801,0.3655999315034826,-0.28257546525317917,-1.6222945342566648,1.3540595002778588,11.49147954106928,1.9556863453841924,1.0794489641702265,10.237127119928049,1.3423228198756856,-3.4406258850857414,1.9753954406573593,1.050742780549983,-7.530498188904738,-3.5332619608763003,6.49546524150193,1.2652093324151663,-3.651724271579545,-0.20142807456127235,-2.5375012792590272,-2.645288331564143,-0.9501891348205334,-1.4593548329592148,-7.249530915607538,0.422868325606979,-4.217419883238552,-2.9381839174515907,1.3901946728657237,10.3554059399757,-11.287037684937763,-3.696298337496122,3.9369068267869087,-2.862130446762989,0.896990707768119,-3.98001435115404,-0.571890491970556,-2.3172225143706098,-0.483543219746804,3.5383669014216306,-2.512190945747645,-8.462445728260299,-0.22991809144936662,-3.2141401588851,-11.760477817957932,2.647844971528593,-2.4391907379891724,-3.560245658303896,0.8194057320396885,-9.480833781677909,-0.20464275989690606,1.2769046489192728,0.10342772129949637,2.707341246212388,-10.31020029097819,-17.691520360634648,-9.72610888103468,1.8757264381578742,-0.6541535997205157,-7.803842457437432,-0.42436733094300005,-10.302798588842784,9.694326650241628,-4.757069619914411,-0.32247946908248615,1.5422460985443174,3.1949395776266822,2.4932340296498134,3.6997034873140455,-3.5387121891516107,-0.46404220871134993,-0.3439457122932318,-2.7694999000674,8.186841655826894,0.6099971847510037,0.9546956391795902,17.10794599237959,1.540315234974397,1.2719831251380935,-1.2266156053273893,-14.746910628305788,0.7566240960369376,1.3847283166918547,0.9027297203066,-0.2830506160055963,8.22588539777369,2.491841077328417,2.082882660119418,4.371608574546736,-0.13453874232063115,0.7158971926477202,1.2575213998549346,2.5615810907190477,-6.558282902581004,-1.968516623731843,10.192552617284425,-3.2307034846537634,7.8950030908161235,1.9944646931166123,5.027851769553115,8.023271482116073,-3.507937638522195,0.15357737857249082,1.8934310496362632,-1.4026763243254354,-0.5413207509226706,-10.610046223832214,-12.471418157455762,-14.843450653109928,6.930959181752334,-2.6122969219704606,5.950502802991541,5.881700971291443,-0.8769354584888016,-1.373961757947996,-0.7655471581172417,-3.2148946426481078,-2.4441123795681086,6.25070048639998,4.836893160614363,1.590013705545627,-1.4628120257810533,-0.6251475022045495,-2.0959361891444184,4.305514472791431,3.6059436933080753,2.131278374969628,0.6881288705982571,-5.048047098195665,1.0714864872617784,7.923774765040238,-4.796056629405024,-0.7342559653136647,-0.3491596616892292,1.398010797570616,3.0733850797850883,1.7369739024115725,3.7913448471321263,2.2283957575188396,0.30796696281765884,9.785454697210433,-1.6466279710240923,3.4546489400715963,4.11959576054354,6.943092630024227,-4.003914339604697,-11.890769073721554,2.3244026428827538,8.546239420710467,0.005409376506064773,-8.745100785374786,-1.1097066954161432,2.2331795235004552,-4.7776009279564935,11.54814894511339,0.6776290743111378,0.020699927821560007,-1.4228604257968562,1.5516072874689524,5.276871505643717,-8.980036280351186,-3.0845644807899513,-3.2218231377985718,0.8882399860768793,-4.7869095887293165,-4.930189965267163,-1.5925291430462043,-0.4119860166832089,-1.0668865382785873,-0.11504270755960708,1.3067973594486215,-3.9072332148090725,-0.31287289279427527,0.3754811269780044,2.6735093066887616,9.97884405550774,-2.7283933928429636,1.5666458741025324,-1.0156232823154268,-4.0747131652873,0.19984423555895975,7.968104321441555,-4.589140765693127,-0.6015935932654897,0.5547757032635608,1.4052385816903266,-0.6157421675947979,-2.211607094795537,5.357873984930984,-13.06816842262215,-0.23172589444436043,1.1873144388152077,10.359435676456634,-0.42236582303433506,-1.6890314525549597,-0.26381124441000514,-8.844754412181413,0.7092737019217554],[-0.26736301109268723,-2.3340131387108,-0.951608907094149,1.2417939213929536,4.5378528617922544,-1.9749173822504265,1.6311073640712104,8.57136301594523,5.582721475626427,-1.4212496215076393,0.8901304160600523,-0.9718035682349161,-1.8757811258668322,6.094826376944262,-0.04585031543965434,8.793971719283944,8.292919651773992,-0.3043226753314486,0.6501729326433626,-7.1824255224488285,1.454049403173351,0.9847743522310493,-2.1133498659874705,-2.9825299495873177,-3.7892701775825963,-5.544028694918905,4.192310357559653,-2.168845219098163,6.493165207563992,-8.183891554515284,-3.3422048440092813,-0.8229653005357401,-0.15269148008767827,-3.0141383844333536,-6.592857469669365,5.144727129145947,-1.075195466784149,6.1630647171208635,-1.3201425776837503,0.7980170505119046,0.7141141841204133,-0.6270213856484248,-1.5791443387137936,5.471791815416054,-2.3813070172802497,-1.2476697711669233,-1.6243172817409082,-1.1164899033483844,-2.884895646844034,1.505943262152452,-2.3812396598193803,5.717831099600984,-1.973003854903159,4.4637875390270665,4.598565472983449,12.416409981017956,-3.8190419945938867,0.7938243369763762,-3.2135611159748505,2.7440747690564207,-5.402583919762459,-7.954419801258062,0.19401100224528356,6.556466808072678,1.7538328589823295,-2.7432753496226083,-6.490729902637527,0.47010729365374787,0.5017483259078688,1.6201231846508783,-0.015433128634257142,-0.42423406691319965,-8.071925382616532,-0.4795597722090843,-2.769804960612297,-10.326505077352826,12.679514615575524,0.552035903776492,-2.595480161559044,0.6336413818084249,1.2273960431812942,0.7818568112928936,-5.86192293153098,12.36890360673974,1.0674393505655158,-4.367356788046628,-0.01987409524949928,-2.1926929851429438,9.777086065238514,4.161940026734582,2.885563801752496,4.275878803730093,-3.158525700525379,0.23311545349739027,0.18192144562816925,-9.68833138806481,0.5665241665881986,-0.26398874537646494,-0.06449113018016954,9.29044657000993,11.895922028692997,1.9981404955469806,-0.4726680139740693,1.7290845568185667,4.661748708519386,-13.001533177667701,-0.22465016751265907,-5.617589698491878,11.233291207036377,14.391122612416794,0.25777298932766834,-0.6324927576515801,1.9152657530001953,-1.464808093428681,-1.6234564541886458,-2.0739735941712096,-2.600589927285798,1.3473519454364593,3.718177077713033,-1.261788110327315,-6.8344133872779125,-1.2024863727097364,-1.576938584613306,-4.407040460617342,-5.320878639086287,1.44768659388769,-3.728266825597118,-12.552145763115227,-15.281704893310831,-7.5835025741695725,-0.6447915938088276,-1.6513895193279873,-2.2338761763378585,1.8434110772711212,-5.28510692731032,-4.519474558913577,-8.881479830875811,8.735751294108013,1.0604924131132176,1.0541925443786058,0.7905354110593006,11.10910337434358,-2.9260844743661916,-4.133945608360643,4.94302204627386,0.20030052980564259,-7.523291820269443,-5.126043087274639,-9.450113511536237,5.039114287248572,-0.7474579572125908,-0.4343398505078661,2.6400778103974822,-0.7047927469085824,-8.841707826841915,2.449954655554946,1.4033478360612823,1.643482446377261,6.317774957012208,0.4937724638718985,-1.1886334807975654,-4.082856606331308,1.2540487643585916,2.8047495199275523,4.022902748272954,-0.4170427340814338,2.0058647445676145,1.6726917731535254,0.0514580983170826,1.0388376605456011,-3.9018679759302892,-12.654061137665582,-2.014337295252752,-7.708810028888092,-3.2599231569933913,13.983257731832266,-6.342520433913795,2.7088990939230437,-6.020921185681926,1.5489879740536416,-2.486789794239524,-0.8959026018814042,-1.9253160946933026,-1.4156638351391493,4.48283511160529,-1.6939864791141261,3.0644568226871813,0.8904896409274495,1.2074007873995716,-0.30285308530772825,0.15269406641335603,-8.670530921636667,0.7714503337708698,-2.1492677625971317,-0.13729267766941353,-8.274043682015227,1.3086142806244156,-1.332326762265971,2.0385622446837433,13.129081527709577,-3.34151125455232,-7.558454303783801,2.6206387330449536,-2.1344622429212587,13.032513630123034,-7.76455431576233,8.721902509948846,-0.38179842243923034,7.829981832169505,1.5116864409117372,11.024643820043652,0.44877478557576833,10.774882646349312,7.976091433784677,4.2630593474479594,0.9120648069596362,-7.751885684446082,-6.6871259387579896,-14.685721849961173,1.81247138217762,4.553753679384909,-3.7126374214329,0.32710083009664487,1.3925747670679296,4.079939017657788,-3.7411255953591818,-6.657535389263225,-0.24818100408188926,2.0855879653720093,0.8970979552388312,6.250200113475509,0.611235207162659,-0.04245398103977194,5.4428463939814336,16.466041032688473,12.021182883610436,-1.6618562611700818,3.8539304520861313,1.1211126083420213,0.6391907344637803,-4.435597449498579,-12.383376494076082,0.96472816991884,-7.057295641791367,-1.3150147454193737,-1.3750922236502026,-1.3088591193503651,6.108143826272604,10.937965027807738,1.7851265433366141,5.354061269022914,-4.053865140623029,3.6298219301943258,2.8538501708826622,0.1319298303570855,-1.316930497029091,8.404234685714389,2.7888335798113797,-0.9040595211756437,-9.14289214208502,-3.2179546985157956,-0.5357706343568557,-19.052453381703224,-0.9867528500527609,2.3138169786144283,1.6194065997341516,-3.7533925241453527,4.990312996668028,-7.654228741735966,-10.100933756751637,0.467476079458212,-10.485394933139169,-12.045570997330005,-9.187594884518063,8.161881436909397,4.019388367457099,-4.232412657771533,-0.7792199144493634,-4.773440835408593,5.60191204675395,2.1261912682712687,-1.0993049798560524,-2.1769189183690076,-1.5416138946816602,-1.2410205551269653,-5.654188883564409,-11.167268924964318,2.884654950664711,-1.2600811860100585,-6.688032638400177,-6.7029213364682025,1.559578131157586,14.800531080780901,-7.593322530352626,-27.31733136609246,-6.225557558208295,-0.1761131179988631,2.007648742616954,-3.3800483204332163,-8.696407192878226,-1.4140574793500087,-0.5951935680104714,1.315289766788049,-6.749408943512265,0.22257112026778336,0.05169533800900655,1.2394121265472533,-6.248387806779197,-2.4063514440058733,-3.491258591635044,-0.4890096367010407,-0.4250214024669674,1.3931367720127519,-9.019199079147139,-1.8658971098707813,-3.0288156751551414,1.0562141180021818,-1.352624728841242,8.428804886090388,-2.8607281836290728,-2.593204607873698,2.1572240212191125,4.964032617658248,2.2254537685583387,-2.9852733626548487,-0.1991515174248193,0.12201307821844683,2.0582827405903235,-0.7950538221471497,-7.900201925698573,-4.874830833592055,10.546837782963365,1.3674727785274339,6.613649996653876,2.584421483199996,4.7587747341733415,-7.790687228817256,1.2961127115944708,0.8827596210065201,8.222282598627956,2.8419179878370935,-1.598989067892858,1.4036674589739124,7.4370927326638965,3.8071081723749596,3.565640725450585,10.91916994404708,1.3539054377038473,8.121395776181403,2.423990184048759,-10.864484232846195,-15.557943694298448,5.880588579673401,-3.873266591559543,-1.6582702355410204,0.8902896227544452,-0.7332398972823743,-1.5872795671242415,-0.2735248685159047,-4.66275535968278,-0.958090675716452,-3.248269265945536,-7.782147920488969,15.915575086031428,-5.292672690345287,-0.1662579026613917,-8.364343097791215,-1.4687253973028778,-12.078906674587893,6.074198439207947,7.337716141935013,0.14083035128234725,-0.632007282150103,-9.208833280159881,0.5869729638529769,1.2615187265284034,-0.3140773287947395,3.9198815717076734,1.3368454897302873,2.182353517253917,-1.103539276081885,2.322379986606801,6.938155213977144,-5.464152183230464,2.9715177225526777,-1.349699589825466,0.2795534883095768,-10.18618192702673,1.0541304343820241,7.910219415377467,-0.4480474280004518,-9.182019775851286,2.9834962496077146,2.2145560203435624,-2.2854693374395083,1.1073443542817678,-1.7190943810268866,2.819418326496673,1.0799374717641412,7.477153035832919,-0.43333519913221874,5.580971229292986,4.338358277499289,1.1941343124541035,-0.4624645508718169,0.9454239302825269,-0.28556898531641434,-5.641215943727779,-3.9949305266985586,-7.063315355078591,-0.2732454966730806,-6.444503531420624,3.409981618236981,-3.210144663160327,-6.222178616313272,-5.928404153354773,-2.266670979461808,-1.7726221913474778,-4.132830914448424,0.1349010364518232,0.8229386583275754,0.8896781278719867,-0.99764474598934,1.0529823337957647,18.061105447638184,-0.15889629182333953,-0.9579766988608339,0.16965227385975828,0.35697848372017776,3.9178396751759177,2.751334956493139,1.4253019474429522,-10.048095824134162,1.9904502121210899,-2.682642008256275,15.509391297084516,-11.239420596121816,-0.33755648105961944,1.8303599390916552,1.1539354870380898,-1.0799638058520415,-1.9449929250822198,-0.5731729070670344,0.0060411529930355775,1.1813632203975593,-10.7100765125983,8.596030146225672,6.761866031192406,3.1857027690191346,2.157316389495514,9.036854374742731,-4.100484406419436,-0.9613856374623571,11.547943868028284,-3.800912085599884,10.44243407086357,-11.08435171430146,-2.8229106540831572,1.0937725744078577,1.2153667425261285,11.039567273774738,-0.7377630826178851,9.482522677239778,2.1139144626402793,3.3644085306534732,-17.175103301378677,7.405776959173828,-4.497410854558842,3.4828486765286977,-1.3358016643059532,-1.1305212685104449,-2.6730122751508736,1.2495424713787175,-8.920218046743543,-5.271666484359107,3.97229124986429,-13.495598546984443,-1.7255364758728409,0.1728425127480125,8.154499657618778,-2.1620400744268173,2.1371954828367903,0.3276571238056718,5.589750093330348,-12.324463626627672,-3.4878820042431604,-1.541951650766828,-28.260130819131863,13.3801725986836,-3.0923146181579355,-6.528336195440229,-1.3484176807768438,4.539916166751734,-0.9134391431390712,14.690017483805537,-5.443853127957036,0.6022704163064929,-1.166606142440722,-0.9890105330694526,5.67627265192938,6.28530605680692,-9.421423770923752,4.720688253157888,1.6808099431505448,2.8036543278643546,-8.538177694192767,0.1948953081653449,-2.7637556316111023,-0.5981336506661143,4.083081371980436,-4.04642831584254,0.08891443414186408,7.582365052838634,-3.3150634346990904,-6.3922771526617375,-6.8927387153952235,3.1152324776205145,-2.961465418971449,-6.340039120034879,3.1139804913777303,-3.7484310070994384,-17.815969990579607,-0.04276522731451516,1.554702864251402,-6.674933892562283,6.896839122805094,-3.3371260123585103,1.0648798355619518,0.07846336256615868,-1.8860774641945799,-0.5117852844015718,8.437453123269906,-1.343398068824098,-0.17568687376329128,0.08969276994195008,4.354826190719667,6.981519874268967,-8.249809498705538,10.124242781834623,-11.554259611026414,-1.1194004851525161,3.597441132257506,4.922531053255519,-0.06457812595504094,-4.785013052200842,2.1558497806617254,6.70732754806449,-21.767693853510266,-8.594233638776256,-2.5927290804227434,1.9220525433944111,5.943780052353763,1.458044588469302,4.253534874152456,0.32030551576312083,0.9478340259297059,-2.924588447119333,10.964219737289827,0.6938301878363351,0.7582840361952717,2.4820546467074953,1.2472332218739703,2.205515559136498,2.613456846485767,-1.110285451815828,0.2487804308333636,-8.10460724238718,1.002246256605004,-1.5726476952790904,-4.312050364826027,-2.1489975681811266,9.269442674573053,-1.5508948125661457,-1.4825089777688534,-6.353228150090029,-10.938228687842694,0.2533215231486638,0.7366824521684047,-5.41111699748086,6.498688137243318,-0.3215725962650412,-5.786736996380583,19.51541540102589,-1.1679897510986579,2.4337973217379303,7.360889781097394,7.876212296561315,-0.409440831209269,2.3028971902525557,5.193606956525312,-2.6937069044987694,-1.255194841526129,-0.9959702527654044,-4.121949330090539,7.868275135168975,5.009573716961597,-0.4958481876019533,2.541700033661665,-4.935298059787966,3.633676285506696,-10.407119429731852,4.400816242597935,-15.08211009168896,2.530942784735659,-4.132857678643894,-24.834457893446768,-2.202086778372361,0.8661938056477604,-5.317658000511294,7.28766489206421,-1.941231960988539,10.813750163296199,-4.9809397570740455,1.6068480568270442,-10.676821558345296,-4.401319958210148,-1.518752760010873,1.4017615292697916,-5.014936256627417,2.4894828550251886,-3.0015243397985905,-4.058696980089843,3.6872389297551402,-0.180160937088942,3.1829593232036384,-1.037518731271379,-3.324140048439779,10.176581225912223,6.672137517248849,-1.6363005260517076,-13.833313218521386,-1.577516677880856,6.6963125402504895,-2.4433633884659987,0.4585554952903368,1.8538432811729955,-1.7369659504558417,4.180080804170994,9.128748667615126,-9.311839984413302,-12.009251855861322,-3.327623319853198,0.5777936727493128,6.6850655599206,8.952268072427412,3.4141768644096584,-7.790532687184452,0.6816465346961931,-4.8061303219313105,13.095564317425229,-1.0992136285106693,-7.50156102513285,-4.422920831267982,-0.27261521076221856,0.2609035993235895,0.2672284074257545,-7.706957057572613,1.440365552619199,-0.5357895600665921,-0.042218307630602296,-2.5141828802135464,2.05750983004957,1.696167204557693,12.31112007430643,-2.2510095320389394,-3.8957703865051716,-0.4491559842651415,4.047256610546477,0.31954281147052477,0.5746338559495476,-1.257835972819877,-2.1060569472345403,-3.665955351575742,-5.050456026359511,-0.8152112764896364,-0.7166956235469365,-0.19212328330825185,0.7269161052119539,-2.3430163067964194,-1.5951180240999183,-1.4181597757552635,-2.51030811188963,2.361533151119843,-7.5588017341514595,1.2154916345945652,1.0161724677657111,-0.143476901005338,3.694519336433857,-1.586160796932809,0.21801852707196567,8.186795357588739,-4.857532325225769,-3.159930484578745,-14.050778415078668,-9.143902601410375,-4.952150502402864,1.546465145122555,2.869137254925212,3.281181822681,0.5430276206624821,-0.1941805943148516,-1.3989725111566598,-1.5798522793176695,-8.415606637151875,0.5718584460550986,3.41333133890319,2.1267727377683743,-13.564657266172535,-4.044608900879185,-0.5955754540586149,-6.10632422764586,-13.876245426248802,-3.5490555844028813,3.39511796328866,1.7830661248661754,-0.17951211899115851,-2.944680091338892,16.17759331614457,-3.7924249507312484,-1.8878365489063138,-0.33401612121819024,0.23745777042543811,-17.98762874327838,6.655134649039882,-4.9998025645000155,1.2391282558158987,-10.23407851654014,7.4748746703647795,-3.184493326858309,11.041445284256572,-4.792259158589587,-9.007856840437942,-1.1900245093017103,-0.29330653911467364,-0.22047993913704822,7.2917053192982815,4.874694464356929,3.226220412155215,0.8874248728803152,3.5826665816918624,1.778175317193086,-3.838292699041215,14.6432566023999,1.3588010383007558,11.847133937791787,-15.057404960910505,-7.130881313220958,-0.6079300838577312,-4.349003109244814,6.035644496827309,-0.3268172045439286,5.951474774277507,8.744899680929267,10.524583800337385,-2.1522362532932844,0.1029662159578996,-8.24248643014446,-10.117694063972749,2.247159701522605,-8.113551711797047,0.10148470314088859,0.8456539259443842,3.091158589568943,1.618438255379306,4.92045246750796,1.8380149068889402,0.31830781683831155,-10.225502496465383,-0.20636940119189062,-2.6316009906501625,0.34172069696654883,-1.915775182170827,-19.823941551472437,0.9490891891127632,4.627182419593184,-15.84276194332388,-8.335902355115515,0.43564367471764587,-2.367766430532491,1.0683859618369826,-5.702235874545623,-0.36928886931342275,-3.45125844315756,-5.902626891727351],[0.40437256234890273,-8.922299331458781,-0.6413200282860045,-1.3128713620366748,8.428533337519115,-2.7458086029531703,-10.280730590403014,0.18381568665313372,8.730448725819155,-1.8320577115728494,-0.16017388350312053,-2.168497521209882,-2.881732763659305,1.4739973361148893,2.9508566086423147,-4.091137974091565,-3.1560732945549734,-7.21980880905688,0.6150800833622507,0.2751384462163742,0.3266559759867018,-0.33313547500514007,9.197931917302903,4.165082211617576,-5.815808869760505,-11.52528705130198,-9.35050290368754,-2.24040554869027,2.4638206347490423,-0.544154350342133,-1.0400411242781824,-2.7905980272542354,11.766474260944282,1.076862655245134,-5.985614011817443,6.77616058292057,-14.477029589305488,1.7231322392912878,0.9742136869333445,-3.1449659259188825,-5.5494070904375,6.346580615723249,-0.2902833410154243,0.18399038486340225,-2.3746562602831554,-2.272850886297152,1.8687157393131146,3.8422435405732105,-12.783313069024803,0.48617585853749473,4.358981147468398,-2.752138776574167,-6.7594180081939514,3.05647604167127,6.1672876503247,1.0835186852249878,-0.008322938939033185,-7.622421937774489,-7.863934666113996,9.197972954968769,1.351867420997081,-4.399475229344279,0.07748304824746914,8.934979989978535,-1.1941409097817677,4.792725413959164,-9.376947054029186,-1.9900759855658112,-1.8887637682359584,-0.950162647257965,5.1818194918322105,-7.742790553503967,0.13983538534519438,9.954259287671668,8.930093452655608,-1.9836165372857515,3.0407524579048415,-4.505130901301049,-3.7860032916592026,1.336137710721076,-1.474075432834618,2.6149265741918404,-1.577469907812148,0.05450521399290847,-5.303024151240032,4.0493268997346625,0.7571392148972235,-0.23267952074415277,0.9167479253889751,7.110659778001224,4.6103677558506355,-0.8514550441006086,0.5755160685213135,3.3922319485815557,-2.40304151349258,-6.018683749232838,-6.234503101912049,-6.879785223927773,1.7580689237275073,8.258586388234745,-2.372561963968239,-8.874566797940526,-3.475547227738065,-1.7451367075286208,-8.071253076479211,0.5599249104922396,5.245941507561602,5.262513866999701,10.855821248246976,-1.2988649663904628,10.798633460704547,-5.035066274879379,0.013493411895192457,-0.34137703300790107,-15.225584134833316,1.4911268305092231,1.187906294235008,4.043972993739285,10.974809737385122,2.3222967669137486,-3.0584212073376724,-2.266533729984117,-1.7050861396420427,-0.17191236042053637,5.620693924315939,3.5106858423010587,3.5561460021408866,8.940998905696876,-1.5542010703364637,-4.803759136050478,2.455805066797244,0.27595215258336897,0.4252457726302983,3.2768611611042924,-11.831311624533628,0.7405590567843031,-13.352899430344836,12.35615988708181,-0.9195075681712608,1.0015485021939474,-4.474131051985897,-0.7651797008335919,-1.0080604051092532,-5.483528743390327,2.732683431682674,7.029771317829934,-5.46353880088097,1.8319903313953017,0.5613812682637145,7.030017971074184,0.36884628139261444,6.562982524785103,-4.383849867645554,0.15821079416178147,10.533043683716306,-0.32687010856622134,-1.1475809234694943,0.6826030702109964,-0.8133924327366063,15.28930928607337,-7.210482434944165,0.03190815192260503,1.6039870500681048,-0.9853734238221888,1.1471884193961348,16.791237389620164,0.4412536526700397,0.4306544921956732,-6.722713225966061,1.8719192805952887,-0.7405199769518818,3.110526208404126,-0.8537577532511544,7.141374533101792,1.897805915768238,0.8724351225529499,-4.805674076217764,-5.377020422152452,-8.461815667644858,6.06847794120039,2.5630309168384775,-0.07629750693073101,8.788385991934822,3.8072042389913876,-3.476358164435981,-8.129376196272457,-4.848145797961227,-2.1815799156298237,1.9805384808781232,-1.536531531624808,-1.9183951448056933,1.646493727855046,-1.408561454223971,7.017416262912792,-5.226906837529408,-0.49410920976545963,0.7910867357949602,3.2346855592703947,3.05955026066125,1.0226364720517565,0.5945169431025775,-4.889284865503964,6.383266399589868,2.56444073117909,3.5526044726694654,-9.382378881632636,-1.6974264248535538,-1.4368501935303173,10.156171982401602,-8.486740504237067,-2.2513367023756046,0.05472531880559739,1.7808806791028173,11.988310468132767,1.0283102978775536,-2.2624377953917216,-0.5959895359354981,4.855619351515391,2.56252687319059,-17.99607367856136,-13.410465574325261,2.6394586405412293,-0.7762014643263004,6.674412526154733,1.389000612077657,-0.7624885837146054,-3.5701659291508303,-7.587744469493467,-6.221262842560183,1.1938637844585316,-2.962005679084951,-2.2971919227110877,-3.357099130589004,5.685075778437301,7.645687653960579,1.4178426910426238,1.1604729486514327,-2.252595695774084,5.770077191890454,3.812366732328411,2.90203282065211,-4.411536171723849,-1.889338744332203,8.512807054079982,10.829357200732206,-1.144832105198097,-0.7403921916792015,-9.558328322008371,-3.2852136773061584,-14.085767446078147,-1.5208875453454684,0.205815266120783,0.37394711472395614,2.8222979018930126,-9.141637144708966,-1.8651077048585964,-11.43152543921296,-4.655831623303169,-7.471132769456504,7.470376161491993,2.149199282647086,0.6327360393393086,1.5256763268609144,-3.864307053267373,-5.7750758202424475,1.5940825937555823,26.428019626934248,0.05248999798592653,4.7789158070830595,4.118594113834758,-2.9089848784072614,-0.6479525507413059,-0.0516071498560311,0.22834627014733,-0.9859993473369894,7.5838731166419855,-7.313628342607741,4.164782635664426,-2.3121682040740943,-2.4126554364873605,-2.2857094029952325,11.632418686392127,6.84885676468213,5.730957811422484,-6.797366072745684,0.03784288090263388,1.185884037031666,0.09908558776763993,0.09822890949446285,3.011041241415836,1.46427837610167,-16.768488963249638,-6.612187839728923,-2.4870779538134227,3.5827506986947544,10.24574086134501,-4.9492988421752315,1.8726329369687242,-14.43067761417138,0.33077642346768743,1.016463730882271,-3.5658470114175618,0.6381406995371969,-2.624249384604826,-3.7937940891678252,0.9135273883969847,-8.025943179146216,-9.54568159094066,0.8004125423340902,-7.726857450799196,-8.276892706912438,1.152141526439937,14.452763876777002,0.8825503326491041,-5.368316067757547,-7.0551530906690525,2.014793074837739,7.633808005569198,-7.357854522871514,21.151053688239806,1.7636808257408823,-8.153299626365005,-1.0007117549245945,0.2646030717807642,-10.111083539541156,14.82568525312846,-0.4797353512022259,-0.38308801205659376,2.9431468480672693,10.577290558233917,-12.469260442246668,-0.8611828214310364,5.507841092914389,2.155733405889602,-6.464547153625924,8.213395555977542,-8.585755915058435,8.598989083933668,13.349984616614222,-12.6010340004859,10.13334377175304,-0.9416366773988594,5.653609261546764,-6.658924700455515,-3.131655063029334,1.5866096870450401,1.4113594505140812,-0.33636058525805596,2.167275713747134,-6.832933389652761,8.166598194602487,-0.3462440118448211,-6.991772969876842,2.1474516604345846,-7.3441158280786425,-9.916922577087044,5.428831112200841,1.467088548532277,16.772381140129212,8.773885090828793,0.07099029158708145,2.509943661747491,-1.3953403905292858,-4.3250877302180815,3.0047406253080444,-6.253174815009556,0.9912068161837012,1.1532361176892494,1.7345988976447753,-7.522230686966156,-11.316664876405737,0.8683671652198708,-0.33699058770917834,8.69281980898533,-0.3286545446640589,-9.33278499837893,-1.1065640582892504,2.2394395917023786,-0.6563655238966457,-2.7779190928772906,-1.6393781794025566,-11.671104671831156,-3.89450410126235,-5.192239076057747,-3.4827857351640046,0.16788405962698505,-1.1035166706387396,-2.2615525494278277,-0.2854377038570761,3.1730602269090147,-3.011756331398713,-4.228547099065076,-3.596987824777588,2.786878738820826,9.249005706216797,-17.184577609002318,-13.163776135411451,-5.535420923440046,2.7934028742370725,-9.440708338375899,5.479253409005165,0.2579771052154296,-2.71566087288585,1.795358763475618,-0.20891904456507518,-0.12221519079564154,-6.377828269187492,2.1227590550690096,-1.2537975564220076,-20.113881770693098,4.87075189715792,-2.2923529712344437,15.407469755088986,1.084747974948718,6.63216750721158,6.014879473539322,-3.9905319535777153,1.1280995364828685,1.230088472411989,-5.517373581610361,-1.0800685207020544,4.3086840407095135,-1.631350355431147,7.913841529202678,-4.695394825565867,-10.494425068606143,-2.672714058317799,-0.8384051323421534,0.10237275492149249,22.374290553355273,9.336157586268524,-10.017549770898174,-2.6824154194203786,1.1980899268340401,8.001346488771471,16.264318132341607,-0.11631153795531013,2.218625038247705,-3.3676354805320075,-4.298742858841518,-1.1212151460210185,-2.463984883763172,13.388248046061635,1.7022180982452388,-16.754617698057704,-0.9859400908582159,0.10728223201574788,12.28932510398872,-4.575277990242975,-0.671186736500256,-4.592867562684541,0.2818651648525581,-1.077947802027881,-2.3882726065992608,-5.024241319898088,-10.11483707368841,-1.8277890661276066,3.0016297126688865,-0.746373340234015,19.208187996585956,2.320071742226968,2.5847526045780755,7.387607534788287,6.2414428311865136,1.2552213172554494,3.9452497335445953,-1.106821981396636,3.493917577538408,-10.867805498080909,3.4923079475520162,-2.044583576801319,7.983413043356284,-0.13095530275705813,3.0205529007650114,5.914480778264517,4.289116750993408,-2.203908623856687,-5.2156781215641255,-13.603941951644998,-1.7161650010942586,-10.294538355819151,7.136698190363969,-0.6880551252193222,-2.5213440463343106,-5.894148961849819,-2.1060353999657337,-5.754983856931011,3.965155511909642,-1.7308341544774133,-0.14271821833948684,-5.3319147659485155,2.2801878404793867,3.37506279921031,1.9892388474758396,1.2591330474603364,-0.5916784158418108,-5.7777271399844015,0.5919718726505349,-5.865784412065082,-4.93875880807669,2.310839088786667,-2.107344981095323,-6.897954844367494,0.8268083650791794,-0.2695001839307328,-9.782393759404602,-6.644403516278794,10.672073661388941,5.583472245591365,-1.5966429255593693,7.908169761791672,0.412098393046772,-7.006835489135664,3.3667604587216586,0.8791076981352048,7.745908556739288,15.517394923352924,17.459209898648137,-3.824168049135294,4.171233706355953,-11.114230020747042,-9.695822500052099,1.4503588722139338,3.6713149569013694,-9.164018369540127,0.9360379239157008,-5.669113398445559,-6.509652395041187,9.516479963137062,2.478147587138654,1.1764689468127594,1.918881485526443,-3.7561026407780735,3.6724861554264385,2.5072843521686434,0.9129013387893857,-0.09015537006242136,7.5743532623285486,-1.8559138090497673,-4.878114618257353,-0.17405146028795482,9.607182920485197,-9.66462359755829,-3.9064072822582085,-22.180285351761793,-8.501985255168368,-9.054483243436511,-1.9327104821697145,1.2664613351557408,3.486256583783951,-2.145406227075076,-1.4594878100936874,-0.6167809087786184,0.36005410053986914,-1.8457566260082765,2.2148698485037466,7.34749358564196,5.952434726582993,-3.6824607466157957,0.8554963713159333,0.8388872257697162,16.199222792016954,-5.978858989173311,0.6173301582604791,2.4497024904698135,0.08365431405039489,5.421049747896637,-3.239749198785914,8.51386114501986,-0.7868348704460992,0.08554831089826731,4.952346379455076,10.21180880804449,-2.611685130577367,-4.188899022333355,0.6300449119093229,0.5175135339109572,0.6914434380287825,-0.019335562933440183,-14.358480398513374,-0.47451765008799757,-4.005394398773179,6.913727026062485,-2.559868698016646,1.3634524008020859,7.533704528686935,13.74605297428855,2.8417048068538318,-6.141072635574427,1.883760672067026,-0.4960886700669985,-2.003390196547199,-6.8700410802569944,10.373594569571122,7.019149528784412,-8.884873700820412,2.3004209305572374,0.38327390209861417,-1.483437509370227,-14.313278089380436,1.250368373709425,7.352473109365112,-1.6366544918499872,-4.7744599106867645,-7.536050905290966,2.942120128915306,1.2059516958261123,0.42286346834905697,1.9165335372345758,-11.805853243338058,-1.3495841296433346,-2.1641716194517873,6.8771207114191455,1.6078837785428675,1.1732737824626407,-1.8466300701421923,1.5434005232598877,-0.3287246299024855,-6.684767612222933,-0.6600351765075851,5.358773288659816,6.148343117759118,-4.806653261523879,-0.8708783647415189,0.5142171382227736,2.3093787220367936,1.6519095053117936,-0.9126219567533422,-0.01883313073504489,6.3207025120215,1.89147271375261,-0.9343808201057668,2.9639347880290856,-12.15179207492532,-3.883040292006478,3.9532191104857137,-6.963304596996321,-1.07513700482646,-13.713218091321387,-2.3959661157451353,0.9091423281262484,9.220257006884978,3.1823296545901036,-1.0285117900805267,-8.121642329328681,2.462544601066047,-1.9918937047344087,-3.466279054949535,-0.6843381755187125,-7.90757599826528,-1.3678999019910496,-1.179716939899453,-2.255115946515543,2.4564438035944796,-5.25457767785428,3.3093916119425857,-10.327571446068966,9.508276506924584,-0.1936260384622397,-8.305834312389496,0.7615087183613757,1.378330787941223,-7.0661252367920095,17.761594424851122,0.044627419562433435,0.5514227635810127,-0.18857172373317063,2.8164465905027534,1.735995324656026,4.991558320885892,2.655971535491893,-1.3433559658167848,-0.301119157121271,1.5002178920618299,6.772860757671617,-8.43697148116901,-1.674220766470224,0.9310082500803423,18.66631513662574,-1.5562437323624903,4.114499439158157,1.7615611316289597,0.7173401178063673,-12.462741525834037,-10.287023414517328,-2.8490200124499676,0.08221957024078086,-1.8158940960691081,0.018076101012346846,-7.286266115178625,-16.989900931613963,3.4349026423420055,-1.831010550140732,-1.0856834659932917,-14.24277557964979,0.21232005829963693,0.5931154859985506,2.4914278132144503,1.2836082755943021,-2.9638099525886257,0.33138355785200474,7.53298561899231,1.44972149794207,-2.3375327890548516,-0.6111239988156061,6.70509876681473,0.08648446089253403,-5.493547115667385,6.737100984268525,-2.9988632798080994,-1.568842221186128,-2.790297972061069,1.8717582828428467,-0.41564019650188544,-0.06208263861627402,0.42360423327561847,-3.9155060428660584,2.579582440519558,-0.866565826608773,0.5994750839922445,1.0415599286076813,-4.839328053791185,-7.6821274857123,-2.1343614745130886,-7.573386640473976,2.1584542711879995,-10.49219715038243,1.7303564008431553,-0.7426039089647625,0.5187151251853301,-0.3040844577002872,0.05482414660912036,3.4921133790563488,-2.134124484802577,8.889147137784086,-0.21225249923328107,6.5800490520266575,7.405575913315648,0.9547188921931968,-0.5222820911450001,-0.503788480966244,0.9443125715960398,1.8535692282288743,-8.195704473440795,2.4625884257931747,-21.625043314301088,-1.1961322286654519,-2.7053770463910056,-17.180998092378495,-4.654926196382105,0.7223860076762049,0.8906960751693062,0.2964302178843862,0.8492022287222024,18.269501872526313,1.2612909932510552,4.920258873596971,2.910865942905247,-3.984942048207707,-3.628956478977774,1.8197194022788734,7.966432689101961,5.786282116143137,-7.6182010603700885,-3.3234644607330153,9.880141603839958,-0.2553907249230066,1.9609041744595688,-2.9693199348038015,-4.210050332284901,-0.6881623890216517,3.5029640827852138,-10.372947143097395,-1.4946896883126128,-8.478106210336266,-13.107276087755807,7.1291935257462296,3.904194991431922,-1.8036003416741373,5.938660372172097,-1.1963648164026353,-0.9864171872703769,2.809629085203877,1.2117196735446696],[4.574846659031803,5.049148700970372,-8.620653180594111,-4.457278674039477,10.540715247885785,0.3507677455791971,-0.4743273370605388,0.9719912764926918,-11.574985686137909,-1.140271929013396,-0.3534843109849972,-1.3225109436241558,-11.243062387470033,1.6526165394340278,21.263096997931147,0.42702572205031664,11.20016453870952,0.07048486942717708,-8.111567600463836,-0.5474119707718543,-6.511605143017112,5.543258341754058,-1.8094571938868276,-0.2300935158014359,-13.130831682583283,-5.272317536784424,2.7641833818698256,-7.143307560864962,8.715948196316102,9.078598969738584,0.6234004267127112,-8.519578154645925,-0.944598514359008,1.265838463386381,4.000923256309536,2.738091867928023,-0.872607889120869,1.1988529065613998,0.8493961039437563,2.233632206201468,-6.465193338650511,-2.4910241889255103,12.900802831772527,-0.27117234705296195,-2.2921354637597213,-8.358305697238931,-1.6155568882317426,-0.5288504539764913,-3.6764630832859684,-4.770368378671294,0.9217719944613829,1.070130047406936,-0.945462649828937,10.334548674319803,-5.889414950395492,-0.7254319851044182,-2.920761822246374,-8.707157780917509,-0.19697260242822956,-0.6861830873588302,13.305084408132062,0.43376980404243115,0.41692546614630155,-3.255358542773253,-2.9799825186351736,-0.38476658009819786,-1.9335690217186685,-0.555314114019917,0.9827794318011106,-7.657140012790457,1.8394056640095595,0.8762068817208186,-1.039643918371393,-7.750536504399819,5.1402934074801365,3.814836688370602,-1.829540085704641,-0.19843672572025708,-2.1390661964947935,-2.9529581599414283,3.2045722331656004,-10.55737601605107,-7.969547019580562,9.892908384491504,0.17248749572633398,0.6213243302782308,2.201188943283025,-0.18014571723645587,-4.600885331137339,-1.372967057016004,-2.6191085477061997,-2.907722066181714,0.5935195303185709,-10.763419558834277,-10.005334901522827,0.02064198084540836,-1.5886920443881771,11.992188226703846,10.03180656474374,2.319613025351177,-2.773302377230799,7.19136437978209,-5.1995910246629204,-3.800508782449267,0.18907155375780027,-0.448180846977051,11.517343406954375,8.385988201930985,-10.100738283454234,0.8606418144478045,2.5414369563113803,0.3495317265845946,4.915631818835637,-14.190475339886305,6.666514405709523,-6.6054755915905705,-0.5503400779120791,-2.4826177953819037,-6.041167233475612,6.003204255856416,-0.17985220095311363,-3.24895154710731,-2.277042771867466,0.5134257373561131,-0.22099747122242908,-3.679124637660942,-0.6627930526331929,1.5322483936558928,-0.033010320508877825,0.8110282248437487,9.126154305695012,2.307997801388388,0.2689617397208378,-6.415507128793957,-3.3374418886176356,4.470654579930197,-1.1498435165002219,-5.216483528660513,-1.6111931128195158,1.5460657307027328,1.7683619045272991,-9.420786167932214,-8.182334709560346,15.848806638743579,-3.441963915338532,2.607342764093781,-1.1260758730543199,-7.95694984874325,5.364703161637191,4.501661419291558,4.7385660163488685,-5.0213447287062785,-0.05282938450163499,4.589576536422225,0.6949876384174701,-6.043466529821181,-3.5463754678774575,8.022938654951908,-9.281198511519166,1.5409010901736377,1.2087587076180166,2.2809507101188577,5.825712879849329,-1.0434426090409323,-0.28427904703731754,-1.2952680455756242,-8.78348356537419,3.04467623434804,10.94139293811442,-5.233229860405347,-0.6168959851499491,-5.771046830095783,7.6284708567244,-2.475815579160684,10.000765998445956,-0.7561796154702297,-1.8105173073618632,0.7771923934588967,1.7210238434909544,6.940523071390096,-2.191523262769517,2.6377293089843397,-1.1704516271852348,0.13938550253775756,-2.4221452093957336,2.0724901598292407,0.7325029533839156,2.7267462046147197,-7.246437831812853,-0.7694768946005016,-12.04210490438206,-5.234688369892139,0.9079284259121557,-0.27161268849151554,2.728721500036198,-7.993322850320886,-2.658920181277467,-0.015094420188706431,0.15761010742251852,-0.1799684377002615,3.139203930405548,1.7678122252553043,4.6980704566733404,-1.8235062225025462,-2.9445613853359154,-8.19310645235916,18.59321610963595,1.1319973492729027,-7.345238135794954,-7.0646718409533005,-4.068988118263715,-4.681777200856996,-4.975059552793279,6.401319458206381,1.7789985524204857,0.6910467931611481,2.6900229122077564,-0.2153990836783771,-11.500313482951103,-6.327409310661211,4.08801275787553,-19.413590492761575,3.1128091582431203,0.4266580206446329,-1.9559570885786162,-1.7818514170014006,6.406275839839379,-5.796684156114218,-1.8667667739203826,-0.4137873507903931,4.382734750703813,-2.807181289751387,-16.204445064856408,-8.031524625113468,-7.317085661771548,-0.5817100792026875,9.61190316322003,-8.079034239010848,-0.1498575384547256,2.6566180209981223,1.0070685369642896,-9.762415678888333,3.0515261381484713,4.157694973598883,-9.42651339752093,2.035707814241537,1.5080007306100938,-2.267076286690768,-0.10458814231205249,-8.634486751572442,-4.759461347763796,-4.736864387606484,-2.9657192833872603,1.6773974656307942,1.1776434451480078,0.2879097537574079,-4.221613491028568,-8.903258531379121,-2.2581463103972514,-0.8191409914975294,2.306425366458283,-13.3464831406652,9.479208959950165,1.7568054023755049,-1.0665064630684233,0.6252484036784773,-13.12737406620834,2.370125060996315,-2.5515320900666523,-11.855647802868113,-1.0620748728171518,-1.373297107558919,5.363752762651309,-3.825800471819621,-2.2314574422728617,2.227792123849931,1.3000293296249106,-1.59300391329401,-1.157816508188549,4.5854136080827805,-0.9262898061034452,1.2355760393888866,0.7729103615212263,-0.3348449851619673,-1.1115272458845133,-1.6499207639200129,-11.747437701777834,3.0107164931044093,19.15470459865425,-0.7436434655220153,-0.36585342060444614,9.137636392102984,6.673414621708119,4.1108002699310155,1.7067340967471738,-5.012374695854229,3.9436501677201905,0.49232670624148145,4.517164327173962,7.468190935057454,9.853778930460654,-1.1636008423236461,0.2620296761371859,-5.576396437993585,-10.375762062549937,0.2298837904372717,0.7334220614265616,-3.931555244223309,-7.5075212455015095,-8.742570833804772,5.603793673046079,1.8300439878441779,-8.08741230151233,20.637963168974572,15.205973708137895,4.2019757409318625,0.5474699456432238,4.122071587259578,-0.34179178385923836,4.140686977156468,2.160107154631542,-9.189566295707518,-0.9016253216464528,11.201494052121346,12.376213710476765,-10.85653944819753,6.068246406629811,-5.484752341831982,-6.167530436558802,0.8990640933439118,0.30295667269113685,1.6297692005234599,10.011080449858781,-2.7341839870508817,2.790388099250655,-13.148527096045258,-9.24316576074539,-0.4831885581236093,-3.0580947294708993,-10.634925329832601,6.6087414487681535,-0.9403481391026833,-2.2915382653842133,-0.5473688198641676,2.513442090019079,-12.243054890425624,-8.36509067945021,-3.518401863584853,1.068769502285071,-1.9891396750952555,-0.6488015449863892,-1.8880911215887028,-2.70918589244339,-0.16698240800814057,-0.5776180903818816,8.671139224317695,2.4457235931816586,9.047145138770576,4.356220431852444,-2.5159443985897916,6.940025118238799,5.590248969019639,1.6289192629361458,4.277773471860033,7.071879261986632,1.0183493077774632,-1.4895177110627706,-0.5764727788647237,2.549477434479331,-4.851007741929362,2.513497244009397,0.0661380816536289,2.924906157215583,-0.383945185730537,9.406665099464696,0.484688875824434,4.748453783285609,-0.9957450521231589,3.9622030719055674,3.5330108155123634,0.36584038105246863,2.1522980690618123,-0.9875027829679724,-6.86822642674295,4.11241602938975,-0.0003659649732519338,15.122779185699653,3.5903322228870076,-7.928516062756637,-6.6094841627052,-16.911584187584523,0.024212129676028874,-11.04697438227895,-2.898914624811914,-4.172594138061769,-1.5297721062484468,1.1855984022112098,-0.7881814857177065,4.304629504048198,7.955167607949026,3.1718237904231468,-4.316661215047581,0.08934452718087149,0.5738270087464217,0.8579328224712715,-4.058159221685329,-1.1825531864323389,-1.8854864755076242,11.111577704742981,1.0829586266907751,-3.8620248863975197,-9.781798713111925,-2.7897283310346674,11.108562129169513,-1.8040814299311334,-2.6697996189507736,-8.718392632622642,-0.5514527060802871,0.9605061928437217,0.5980540320770869,0.013999132735128395,-2.1311072986079536,6.325921898817477,2.3181404042780667,3.4891873456443863,0.056866710741133655,8.453200059981315,1.4878647006523487,0.28263868004569015,2.333861417964709,-9.20786631451318,-4.989928916160668,5.514584215224317,-7.201118793615633,10.02086996039092,-5.703738304968767,-2.868249965216546,0.4624662927761176,-9.181262167553262,-2.1818378773404037,-2.401070908936989,-9.792757919734244,-0.8558655792358998,1.602517050244042,8.573373992638576,8.725095272993556,-2.906396207473546,-3.0815602377659506,-1.3192303395814102,0.006266569912907187,-2.0025791009790916,0.7505350631035852,-12.70885809507018,1.855931348941069,3.2117072344792383,7.562929831453678,0.31955829032050564,1.4074048695363244,-0.19248913192831255,7.920996797935389,10.113350255708289,1.54763251757184,-1.0712961012224635,-3.0135245823235897,-9.26525215841114,-2.991656059348876,-0.9114201065183406,-2.2145975249925574,-4.196622644051262,-1.0400631467910095,4.928663969203466,2.465039792903589,-1.0646637445755402,-13.741565532169142,-3.0562913682983783,-0.3359626710849828,-10.394219196474877,-1.092242785732559,-2.8272484881849165,-1.1621974839567004,-11.539759005897679,-3.304091914951483,-4.599478678434095,-0.3883703922975733,1.2355408751482706,0.9808348290967461,5.181719243295989,-1.9468293802383747,0.8935797041969165,5.574615983338342,-5.271246815537973,-0.8752072785505578,4.06185714376145,10.991383687101672,-7.077254374430649,0.9711042077354897,11.70116999973046,