{"biases":[[[10.030000194907188],[0.0],[11.720000073313713],[9.379999808967113],[5.810000021010637],[9.039999842643738],[-8.699999988079071],[1.7199999205768108],[-1.2100004702806473],[4.93999969959259],[-9.040000185370445],[-1.1200000196695328],[-9.230000406503677],[5.399999998509884],[-4.790000043809414],[0.04000005125999451],[0.9400000274181366],[-13.530000150203705],[-33.000000193715096],[-1.2300000190734863],[0.8700000047683716],[-4.81000018119812],[1.299999713897705],[4.319999992847443],[9.800000190734863]],[[19.659999892115593],[2.619999933987856],[7.409999996423721],[-9.859999798238277],[1.2000000476837158],[3.1900000125169754],[4.32999986410141],[3.599999973550439],[14.880000084638596],[-11.190000236034393]]],"layer_sizes":[784,25,10],"weights":[[[-0.6646981730473038,14.203450962538648,-5.7321411545067456,-2.7473891291992785,8.600200819776557,0.07168675007782799,-1.097764395743182,9.51752945090437,3.274489289693132,-8.39152633310104,-1.9272115677218862,-0.23257038556191373,2.1943184230927693,-0.008308862984279797,-2.5154301554503453,-3.007144798537267,5.806937150019287,-3.4345561518189855,0.019512539524668537,6.969319175343761,8.063438607678824,-1.7583337438668396,-5.693645382674374,15.317280335331667,0.5763227294712032,9.61007577290231,11.1617153291132,1.412464034262971,-2.391445813625657,-7.668389060199441,0.46165631709940813,-10.871301178471297,-4.9591157200894305,0.9246736615922942,-0.07886157145936451,4.239020172136597,1.1843521984311187,-0.012391122869943594,7.978792352066379,10.485873855547451,-2.225734961671611,-7.83327038630909,2.155432716340853,-4.1436536545775065,-0.15781053277387042,1.2342046971307084,9.729472576753494,0.05719477090191494,13.644325623972065,-0.11671579478387617,0.6438124741511171,-3.935911555988782,-1.1331971945264945,-0.20743945168153133,-4.721992515792967,7.8761555345268555,-2.2327097356652175,-1.598163283225372,2.3484918073238266,10.779582209758363,-0.0077827468773226105,0.022302412677587036,-1.4155603610849372,1.1338853607789925,-0.8495724759077682,-1.9562476333158436,5.721770719059885,-0.019239912168810602,-0.3834049229400942,-9.047608805643733,-5.469421422611493,-0.31440638248806335,0.4337431772922553,0.6717842606102464,-6.247583956859127,-7.047284677788172,1.7287646860968398,3.7478135168887516,-4.997243745414129,7.169684359595021,-15.115869866420493,-14.428363464625775,9.073746171601035,-8.498493879322034,8.749005029548885,2.8131434428940745,4.729608174623889,-10.33570256842475,1.885273472168291,10.0001412370416,-3.035050664299705,-0.04202936125054857,1.7985199198159518,-4.706956938585719,0.630071954809337,-9.684242720755346,1.0993602740100474,0.49866608586422245,7.985867217989846,-5.777540762499066,-1.254251182863106,-0.4133809409361944,-1.80450116346443,1.5011803875487901,1.2437704010312323,5.66961518454998,0.12837801741288257,-1.6978032678679071,-3.0632805635924925,-4.240652651417875,3.519694936724419,-0.5398475695995852,-7.86434162696521,10.983313444022919,5.97574304669096,0.8609598166811525,-4.58777173189344,1.06247129203141,-4.926859806383398,-12.972865955222215,-6.3503801452647695,8.840521000978809,-3.357142193021328,-3.8959671866425998,0.14727234847197956,8.81246211084117,0.7281752952698781,-6.517654103331683,3.7532391154513,2.201544917889779,-1.6214294060281946,-0.6140153719161392,-1.427721837052379,6.2443658415499,-6.966659591690487,1.9288081721966706,-5.097383655256697,0.702700404827165,-3.802050987867082,-3.942523124421142,12.541383252021422,-0.23008530636077199,1.078503115433698,-2.0243612319741002,-6.29276249676971,-0.8256363106310232,0.26835525598317506,4.657125952561252,2.2558299025130046,2.52091212831392,2.9071995736076035,3.4995456426440885,-6.110537459010063,2.911500263649635,-6.966608627843374,7.432332185322984,6.7911923296693875,-11.676567175152055,11.521155618676687,-7.0419241478099845,-8.475380987525046,-1.770104673952192,1.5802264492029252,-5.128326874577544,-10.536448891818456,2.204051916620773,-6.108660490137492,-9.195486926718804,-6.278191469037143,-2.0697202586685934,-0.6596232304020315,-3.4341454174740207,-3.0157433243703684,7.80304576621819,0.40823072497051527,-3.346057484381374,2.8048250922981137,1.5596627508238297,-4.013547091042373,0.37229836367231917,12.260768053376108,3.4267526453319808,-0.22624556498714504,6.895134379540101,9.546298729904784,1.1999906029874263,1.122842498348632,-8.974909281492524,-4.3886048081139,-0.5821452735432128,1.8576243988418888,0.3980191182041213,-1.7058978795305613,2.2630354612586028,-3.1666471487490098,-0.8612575431690983,-8.784613259273346,-8.542667272603563,-0.3083082245239943,4.008898162591317,-4.290923633573608,0.611870482396975,1.1906371655539627,5.532295014191617,8.281296075376822,-13.977423625946464,4.520963922828442,-2.6111943734362884,-4.155680056864375,-9.899914808435456,5.788094844736051,-1.8651959262348292,0.6773910296168337,6.727651599563964,-7.62933374619283,-0.1128041645624629,-0.38280503968221724,-1.6057225775230615,-0.1850392858476677,-3.698773760638236,-0.6470964766741458,-8.15344231426872,-8.013435838489757,-0.8924033208649078,2.329288930097195,-0.5768926553190448,-4.230461612489457,-1.2206929151418295,5.283372099393992,7.6132403316509905,7.787362136359583,2.505727136691528,2.709720249438062,-7.46833229577873,-1.6298119467295804,0.060067408426413726,0.008547457833698313,-9.287814351981986,0.8614045312930623,6.190481024223844,-6.519031577627953,-0.44912657135911993,-7.02829463021242,-5.331681674979999,2.3922073224566947,-0.7418567681943096,5.553037256054441,5.918810521177159,-7.75189812463003,2.024992476819384,-5.4352978842308755,-7.352151698725629,3.52456953953485,-0.017041102419460386,-1.5612398465519997,0.10665533415717754,5.609453393970535,-9.98154335348147,1.858142157731826,6.851340178887629,2.0364387221224587,7.581222011805394,4.54329880252099,-3.239090921402699,-0.6257401899921147,16.890251169205172,-2.5880514189501596,5.103259940179565,1.5877644732569518,1.65661139284322,1.5279750108243975,-2.6996245211753958,-5.191254772768062,9.144219385189889,-2.368209433308275,2.4858040373726347,1.6325880352312367,-0.7064903339935944,6.2042560087213445,9.317389613700623,-0.3495391320829675,-3.667688012300232,0.06243826904173444,14.231950494905227,-8.122941079540286,-8.36576713428361,-20.247493200105744,7.326425527420138,-20.81999311813764,-0.9395236474835046,-0.6681434494411749,-14.718225918147374,-10.180880933917537,-2.8174155073025844,9.940044618353301,-0.49520096168533656,2.256847034854381,8.00898686780796,-5.622506295843251,1.2968670396570867,3.36505912197104,-0.17902970460772138,11.00089885981296,-0.8129847773002492,8.629176629728816,-3.710520905374624,-1.6241916930208395,-6.2510134295304995,-1.0160568250895257,-2.2004550935027916,8.33137001378288,10.371679673060738,-0.00022274568597824285,2.192408697395965,5.3595714951899165,-0.15925030649208927,-8.802295542972454,-10.104613218817166,4.880758257728553,-3.5715178341074925,-5.952125616139117,-1.6136741112486905,-3.4726953048602907,16.393422911182448,-11.586993430662478,-1.2762490741126873,11.707210018795275,0.28200921699993853,0.8998004804292421,-3.8947939428896396,5.379621600513076,-1.1260255466695195,-2.9149462373265536,7.3861640988052555,0.706488967105301,4.1059177668038025,-10.113807261737614,7.827382008437972,2.7675092474762866,0.23531151755216584,-5.646919826449452,-9.031042564681854,0.042264014430743124,8.848593712982625,5.374751386214585,-0.8860319012773212,-4.780237942413122,-0.650683629115498,8.081357687341441,0.49883199207955287,-11.262409817184503,-8.224075101581061,-5.357559878154533,-4.7705283469873825,1.0340139195551683,-1.3408891214929168,0.13227590779187975,12.837800470885433,-0.3707434640433046,-0.8248690839116458,11.06709820942361,-2.2421891249993013,-4.026625341334298,-3.39334775502741,-5.713413488982554,-12.02529429521741,9.416129443650313,1.807055347722204,0.45255552013903566,7.160252997938707,3.320041008574282,-10.449507298882814,5.632877050177452,-2.08033658140562,0.535947302816254,8.927709969765978,-0.12485737101157557,3.855824239287351,1.8610066168114363,-3.91532569497139,-1.0520980666544877,10.02644934333289,-2.116676062463315,2.644446060719937,-9.950673744458784,0.005998424844941064,-8.247482776309013,3.4698961334438794,11.506214446810944,-2.4909095717642145,1.957487728594721,13.69214057757841,5.704971952503411,-2.2794410984614197,12.624639658901767,-0.0843847209717985,-1.126099078857568,2.218568709739251,1.1995607958317522,-1.8962052851496318,0.36797985242415343,0.1792389442562797,0.9952588088321979,1.8563156242153669,1.8669469709145887,2.3252751066904054,2.6940973197778475,-2.8020010794205996,0.05049021620541483,-1.0835461520736587,6.2045405163302085,-1.5656511764777423,-0.6102408735167951,6.382697120041511,0.9764689635694601,-0.6367896707214156,-9.826354835953948,-5.845950433375805,5.013342897426746,4.372047277583883,0.6724555446198655,-7.270776702429393,-5.275675035986227,-5.849175432774599,1.7602008910726838,-0.8398844595111323,1.395752849208102,1.7958927613617583,4.4724439452481155,-1.1425247559299117,-5.195808960780456,-0.3916799019407424,3.1790676572990115,3.28653272568194,7.117467650464507,-2.0351640341988393,-9.22044805460287,-5.131524749001692,6.040424963094161,-3.832420853242988,7.040242087570917,4.914557920213419,-14.349609526139455,-1.2608845211457391,-8.520676196514131,0.6357505740377685,-2.760983541449117,4.550693885680696,-3.097688375569478,0.5025085272372185,9.461682115545521,1.900728361851546,3.8419681934772045,0.5903920556739388,-4.855581978770735,-2.225036635084378,1.46430688329007,4.701017381975488,5.936482460255458,5.217290643568029,-2.229404363118298,1.697656096087985,-11.682731252653415,-0.03963594618856847,-0.9873382893041236,-7.716949504371093,5.040176667353825,-0.24115936189714593,8.148682515084563,-6.4723760556755945,0.6630237802442882,0.7459216540235898,-1.7043838435708984,-6.51113257541744,-8.893148480150249,4.810667157935991,3.347437091072773,-9.863613514988263,4.132032536202095,4.043648424996391,5.750414174387782,-2.3620020906736077,6.5983064103926505,0.2951776584494361,-4.731140675528364,-0.018893926046305243,5.3467664566378215,-0.5676407601542115,-5.426236027367057,6.186617295549505,-0.3464351580461458,-1.653868313749454,1.7953365892395579,1.809314187132283,1.1862880564418392,2.3354674523148238,3.7870163167672164,3.963925187698611,-3.4061964223485255,4.888381300391545,0.34128920177939825,-4.718584190212425,4.106541410665725,2.508842542000669,-0.07374456852809697,12.987288920783065,-7.644466397838363,-3.232108972141304,-4.097410380706448,-3.782744198834008,11.134605621770966,-1.0235392874968614,-2.9518708630466577,2.166947881237824,8.636479821617918,-0.30928186547826825,-4.8500822475468075,-0.20262951378136432,-0.42340267477829374,0.4437542204290319,22.461205336894334,2.4891655076069212,-10.51853578504562,-10.250051611815312,1.0988329071808087,9.667352013942718,18.55825117735565,1.028249636989457,-2.7092509994736025,0.6093454205590245,7.29894463618608,-4.667067003540078,1.5594451257244284,1.1716962145897791,12.978298006708922,8.303384676609024,4.368752612281833,-0.3353843489434444,0.45523845008975206,7.429987652061699,5.8837037402701675,1.8035176702669862,2.2582943421420394,-9.944532129070343,7.979192220565544,0.5518539838596074,-1.6531694212543102,-0.23981112877804645,-4.4577826022011315,-1.5768293810792322,1.5204722852025334,7.126013056366175,-2.1810164181167,1.3449901380443992,-8.734380864438373,20.792045818432534,-1.8242654428201404,3.2740190361199137,-4.64939356537664,-13.755389193121992,-1.6583085022598816,3.684759421067506,0.01868865061876117,1.9231704153306675,-8.4194317876087,-6.174030687003963,4.68186558470545,0.41753958374534417,-1.4254286254334874,-3.1783925372458555,-3.19041686903764,-12.106143789016585,-0.4801798638840957,3.3510809713740546,-1.5082976945897562,-0.05028973643742174,6.0957363741143835,1.279179727431774,4.295517857589115,-2.538483461163321,-4.723317982243911,-13.33150799145364,3.340364777523642,-2.8404236192766295,0.9651522394747571,2.1760557126183566,-7.954394121770321,-0.4675310722716741,-6.586320004660413,-3.865102754630037,-11.818402283847792,6.220893972595604,11.3800617416452,-0.38899441617444874,-10.721624441617603,2.5423949980440073,4.391750556054455,0.7984671835250244,-17.27648279253036,-0.7565983951515006,-2.2141632539871186,-4.327429825904516,-4.945114256805033,-1.159849961022871,1.220157583173612,-6.987340125306726,1.0248510187453248,10.74962519026555,2.0123094008120797,-9.748953016428377,-1.705442609875539,-7.1669381391632925,2.6269376920973997,0.931184898592583,4.990910625466398,0.7799290452830934,-8.017148196117896,-5.448615322842187,0.07020776097771764,1.933648582155283,4.981378566208948,2.4809419152535854,4.622403589151018,-17.8900882711969,0.8186353248657912,-1.8790784058417898,6.465318365426432,3.7550845624382405,-2.989064383151276,6.871288685301151,0.23283912092078063,-0.13828313912067003,-4.683543570205862,-1.631057865613915,6.867538890569936,9.846567449065228,5.9067979060469895,6.086507762584614,-5.720862007916079,0.48401750355438833,3.0616210807599606,-1.2864180465943906,10.722390888826224,1.30129952928757,7.1987722576151185,9.569710568317083,-1.2705320768347463,-5.384423148691935,-1.612483433143547,-4.500012063773544,10.971353444063578,6.937951796823145,-9.400169625006974,13.097091485324063,1.9354924592465237,1.033304075051219,6.481738571883798,1.4657152793029677,-1.373098782555342,-0.5614930469777235,1.14329894395185,0.8769364291336341,0.5404442499365749,1.6390455286300227,1.9629140549251725,-2.434321441991671,-3.300886781429353,-0.9723386307650531,16.405729298415256,-3.5758502026008836,5.718062969338315,0.7173329010091883,-0.6025631954595831,1.3493417451084881,-1.3136822734453018,-8.039899113789346,9.47889427225629,4.732039399444683,2.9778677987934117,-11.319942163979121,-0.4567820993065894,3.3508227197671907,-5.677092612374402,-7.610532450818235,7.0786272614632235,1.831569405240443,-1.7355731851188207,1.5362501580840675,-4.117262168756598,1.480706309339174,-1.003050596417772,7.21611309491094,2.1252409028969783,2.4850673421602067,-2.5975373318800754,10.71173506764699,-2.194274406569685,-4.485421152905262,1.4151790098784365,2.581016190192998,-3.103936300520666,0.1227440701551763,-10.261422223609866,12.49495374894115,4.048519584504227,-7.7204828391721385,1.0707421888998203,-12.111554924128427,-5.2468648065852985,2.5055389209592436,-9.10113920459203,-14.711674227732066,-3.4745631409613615,0.5112686260725763,4.7682683871368905,0.6761395463505604,-6.869937659293665,2.4751960221149947,-5.576321499117336,-1.344163997551325,2.420134945553051,-4.896914310482492,-7.027548759835588,12.767562994424386,-13.8890415733506,-1.3225298691813476,2.62636517881588,9.212447943371112,4.160420271034258,-1.106706645617548,0.47682803182582767,-6.349769741826559,10.11476145350416,-9.714076874197138,-15.918254671340897,-5.750816995585346,8.604287591127004,3.2933439103374154,1.2517794623332401,0.7129219112272971,2.2432496726515714,1.6818855679984077,-6.053677815996528,16.450469011182474,0.2371413059201677,-17.690136208514943,-3.6869088577210514,-0.9613298307641318,2.344237472319363,9.126426343468129,4.637854418657505,-11.827376808564704,-10.999841592674816,9.61868484822109,-2.3617890238078174,1.363707337733009,-0.24164552811312612,2.00759017632056,-10.830819669856325,1.7872291730069416,-1.4291791572349175,2.59908903418524,-1.570380636003816,0.8217742855300476,-2.925288720055002,-0.8840374873589365,27.0589799315114,3.3827584107047013,0.0014424842207896305,-16.11286687521199,3.2484809290145127,9.48931262563913,-6.512147484564288,-1.7316125452508793,3.434748871013263,2.1422953878979065,-1.6749037761960053,5.546877170132683,2.5446514654456607,18.420401660922998,-1.2241116474638458,-11.521258974909564,-1.4474257138840425,6.436360802860257],[1.0388158050122818,-1.776567293786126,-5.016627236543885,0.7606310147531785,-1.7577400040024607,-9.267646492331581,-0.9205345508091098,-0.42562652814820146,2.3089994894605055,5.728374452061792,-0.5856047135559361,2.452346639939604,11.297004011903251,-5.323891599704857,1.7623181396739174,7.257865631560787,-0.6000460501901921,0.13736345937907407,5.2139386443473565,-2.9613991569948594,-3.890466207044021,7.915613727964283,-4.471620031186509,9.747398236275949,-7.8430471126306855,-4.425065075421795,-6.711806107790034,-1.174309557817577,-7.5620473723867825,-17.028143955125547,0.9201785456939807,-2.7691987003648695,16.9191072237032,5.921545303327931,-10.20332046781612,-4.144614599698633,-0.1053133238947026,0.4353295390947203,10.720102919957192,7.311405682841818,-2.6660436937773895,8.90480201319905,-3.454293616986752,-10.701285533475584,-5.204534108626088,-5.495802391914679,-0.06367258714874424,10.931342201632964,8.44667627349782,3.7479468030861156,-6.962740577672989,-0.959987640415241,-10.188711303252981,-6.376215045119183,-1.7028970465062745,1.121589038822481,-1.3675991531171685,6.127629711099659,1.492293832682849,-0.19780066533536966,-1.9879295785448292,-0.9895558061761667,-1.4452283488183741,10.48931561746639,3.9059873306006256,0.3687761455041052,1.9957120115270808,1.1594943834445084,3.6618473258251907,6.744431519416376,-1.353849907844288,-1.3763344728051425,19.807401284823804,-6.9276503218074454,-6.015459360154343,1.350469005475213,-0.6914759014634418,5.680947965469153,-6.744839194576151,3.8083495174660356,4.849778375539149,1.9969924646719592,3.2807568389093427,0.6548799266032088,6.747273512575305,4.538610714390611,-0.5728312506298991,3.0254529795213063,2.336885786007548,-16.379451876922282,1.4711396223584545,4.371643907947195,-1.7133679841537033,-2.9352310474095744,-6.02675069160051,-12.713727938617087,-3.5926184467155178,10.629767201428963,1.5034510119893678,-1.2004067681934059,-7.473991047603857,1.0585045241856401,2.2911154262258075,2.204331007631864,2.514617805775984,-1.222891791470858,-9.519898433614326,-8.219918672410948,-10.288540206628223,-4.068025041643604,-12.0102503873623,3.9472580786279217,0.03156387845512032,-3.11820582514247,-6.792089617154821,18.946809982322467,-12.301992268984703,1.6434970109592149,3.839345871307748,-1.6871599678624696,-1.415618736299033,9.009153732056259,0.9913537208367607,-1.8837607289184313,-0.4112291723825914,-2.8441601866044812,-3.2827993344153987,2.6333626523708737,-0.7186336559751801,9.99738994376252,1.9614512078124624,4.52481044960885,-3.1481750839481033,4.127388152379611,1.3756583427155409,8.236045583843921,3.172408751135631,-7.725949484926765,-2.5217974096920526,-4.365498199562024,-2.5355302436205864,4.220602698864026,2.369688055963575,1.5418243609013984,2.0696515751080513,-9.432657843992896,3.4564066427250353,-2.8973329377423354,-1.2396166299442062,-3.025435807119123,-13.310637247876773,-6.484591655291002,-1.6214804102389149,-2.8602794392407227,-3.11754643407661,9.659525260924143,-1.5937037307111432,22.902053749768616,13.606163627097887,3.780934437879078,-10.184681228517393,-1.0195126048935426,5.442870804817563,8.383197613674744,0.16250650727267157,-2.228142234789546,6.775575595215484,8.576138290273654,-2.153439299891552,-9.247351186044487,13.631121571789095,6.513337864798581,0.045463161762766546,4.019061386690088,-4.415966913116898,0.9572661790384049,3.1018543063819766,-0.2581225626951983,-0.824748857168577,-16.3581740925587,-15.488032522664135,-5.833616023167417,-3.5912757086800493,2.2762444267906954,0.35944257527258855,-11.316777362778225,2.041159830619754,-1.2938800473387422,-3.7599651208438445,-4.079850504427708,-7.687158441788082,-0.3623709150427736,8.867167191616936,0.8172627891112441,-1.6046427808102806,5.055579477602829,-1.155123514218085,-0.01599784417389749,1.835005724497063,-0.8977209632398504,-3.609325736675287,-11.195091982107254,-3.5713519700883865,-4.843565362936167,-6.6702188598282035,8.094277353843653,-0.13247307449964296,11.25159536208288,-7.345030062943881,4.9502462239990805,13.784538835122667,-3.111172501445212,-1.1224068011915982,-1.4125223333625385,-1.9228589275605614,-1.196255574947026,9.516488396897586,-1.3509533249219121,-3.2992595901081296,1.5626044364165788,-1.1433034850898578,19.720092261100877,1.6467079387755184,0.7798655929782732,-8.108872193496797,4.487862200459902,1.632054277868857,11.487395573047445,3.086029856427283,-2.770790221082921,-7.247703058272698,-0.10325581108799824,-1.8802211195160798,0.7618134105193032,1.7691263129707768,-5.566167115944489,15.594181835683344,-3.551434793400543,0.9231848652791463,1.1092259696891147,2.9003262898494064,0.9188872479136876,1.5157921060582478,0.25077791965745044,-0.3397739807413155,-0.1538718291654626,-3.769732577338999,1.218150905696315,7.651477570146256,7.2387140134819115,-1.2291904639070221,0.5356801051744586,-0.027607042380216162,-6.228565615030789,-4.263973980410559,-3.168093483871773,2.57654285751994,10.145549595181514,-0.12399066165430868,-2.76864194741119,-0.7082060376179006,-10.460594428763265,0.8058703223530417,-1.7937456611623879,0.264475346127898,0.7778692333168176,3.770901128548512,-1.5198229820973284,-9.581519235136007,0.4139233772225757,0.7682540765036507,7.673822409175532,1.178895274063306,2.527071932858205,-3.6561004951770517,-2.68375059446026,2.277634310469204,1.564900257430029,7.120674010417034,-0.526064612711602,5.530757525522915,0.8438018117755133,-1.280938313221279,5.280298081663034,0.7797865752948319,-15.390995577781675,8.741848067353104,-8.870660737225865,0.3149453231017632,-4.058642905073766,0.5494482053309135,1.5095244790540683,-0.08288683299608637,-1.297804198349354,-1.0264747754707706,-2.58064121784591,-2.9437763338806455,10.767259461927742,2.161650633758673,2.46100986349774,6.500522317886911,-0.2585498215693336,10.274528314380143,-4.3298675840131065,-0.26478122838981544,-0.8182222284333553,13.860851696108117,-1.0153259003502808,1.664483480383744,-0.6813361992244875,3.801863337570924,-2.1196326456011674,-1.5170664481940062,-1.064006963413508,2.1314873726493864,9.462308389442123,-0.3055888259680808,-3.9743192109060708,10.01848993100424,-3.715276311390431,7.89235422601989,-14.467403576156709,2.7912968174784143,-1.1724347464514822,2.8870078233775915,5.885604653118136,-7.557283373482937,-7.9490419795233205,0.9714309518856044,-5.857100937585077,0.9160740162883609,7.045652045751726,-1.187293831175402,0.312851065008374,-2.0614447863816614,10.318996938368652,13.967088510568765,-3.2122563596788676,-7.19222788000873,-4.988800195758702,4.465273009400898,-0.5271101259381972,4.156032323547894,8.442254258996186,10.486957446270793,-3.4899846179833425,-14.817906499314699,4.827387757782757,-2.6207600602868237,-2.4694149920581623,-0.055585467932173005,-4.283133866650085,-0.22038697492932435,-0.5774595604894042,-1.320335085387665,-7.201174401560385,0.23764118123916056,2.077558455401997,0.12751269457046122,-13.664150958783285,5.83092257631818,1.8768368002279607,8.358221342166692,4.880292697095015,-1.3233110852983625,0.7336617657292952,2.065779553335396,2.379344443078626,-7.922040222656417,-1.7699186581247397,-1.93838646906427,2.6695351247044328,-5.733918495342644,0.591073387251422,-2.0578496829054482,-3.046514294440709,-3.612351113045532,-10.954146469720268,-0.46685162941569835,4.151975221524699,1.3805732674386424,7.200172401857619,-14.464623002986329,-1.7311118450902467,-4.493707884266112,-1.1761687112176507,-5.553261369874241,-1.7899524611179718,1.720038714133231,2.0316971411947344,5.746373371274844,-0.535377175536092,0.6115173232382676,4.814676543417047,-2.9475745169877197,-1.1967074668789224,-7.291628343783068,6.088122036997353,5.8609857009014155,0.4301305072893671,5.618885266875472,-6.1597476268663245,2.407016598092592,6.403432549429387,9.563604980767764,-10.86810060263145,-1.6738309066041337,-0.24678276796511966,2.4970400320165496,-9.060835588117682,12.95556783843292,-2.6806810537354893,3.5638917220253887,-5.820716099566274,-1.80618306275402,-0.7280478294683485,5.684343853059239,1.498966307221627,-0.3952461611593976,0.060779527102458264,-1.0184369154927486,4.326017855574246,-11.073730778313255,-1.5646888275498654,-1.2277061775719935,-1.8827590262687426,0.5167969520672591,-0.08504986110858859,-0.3162869611261838,-5.3395370709107635,-2.533109047109343,5.998561309299868,-2.612024869754307,-0.962407840646181,3.6483773892146063,10.056319724194301,10.728604414620458,-0.46994923068616934,0.26714522156782655,2.913862745900333,-6.275091104251562,-4.677308987121828,0.6939301290983962,3.761272686230973,-10.577138426064005,-6.537554034213386,-10.081460735371975,-1.9361476304009244,5.611224889952196,11.587179244460382,3.993177472710032,9.96595938011556,0.9199598712455836,6.370219564753983,9.427465798172424,6.3933629023261345,-0.39323389946089593,-3.59102687962425,2.130182371399699,9.201308037365663,9.052854118954997,0.1584837465413449,-1.2952380452614223,-7.339973222394833,3.3694841831010294,-2.438672106686863,0.8428482254000329,1.317682890479443,-0.72300335063586,3.0753388095692564,-3.8017932706176465,1.913708027255661,-2.0767980643179302,6.671174501278357,0.24019881306806015,-2.4644822072860713,2.5268640884634896,-9.105246888168592,1.0623363873954021,9.102400863437497,0.2548805669972172,7.653213074107898,12.260206289374974,-2.7145058706397363,-4.960760701549709,3.0397497046488127,-1.0680026167081027,2.1200663391456196,-3.0786163051475017,1.7761765867402586,-2.6573974537885423,4.637152580436177,1.7835544434704327,-2.347473960433862,3.2605994944100396,15.190548112451323,2.4404412660031753,-5.284396182287384,2.467013262679408,-1.013327071320739,-2.4792266864918684,-3.456946645699366,-3.3803606231497043,-6.059374684566771,-0.9354977984094983,7.523394226271355,6.210260435292375,-4.85431984421572,17.346938444241097,-0.9025302056461562,-0.5523251378879215,-1.35509446038966,-6.595385526368148,-8.518954926459243,5.179013825258409,1.1844748334760775,-4.856614957644462,13.21716552833357,7.941790988586461,-3.520576234241341,2.279905307541192,-2.1136505575322584,4.994384340200587,-7.006617054842565,-3.39591787232597,-0.535448655881891,8.280675892897515,2.4305802772758556,-0.8752479731196566,-1.18980769097031,0.29473968743545065,4.928912393425826,0.7997458881700233,-0.04921802957008781,4.325516401738926,12.89653806020646,-0.40046418234235803,-1.83912609138308,-3.027296674130341,12.698752619171417,-3.4968871892575395,0.15056827132723338,10.940270022241439,2.0216498032423345,0.7822662940513332,3.7556122099806344,-18.958547243603775,2.227571042278427,5.800804736967381,0.8278256092484553,3.6587879295424823,5.7499226996306465,3.8554064646849096,4.233744092655913,0.163608288717844,-10.482013087569946,9.573611497440735,-1.8772826255437138,16.402698003992,3.8860256564448905,2.130132323998959,-5.923022026922337,-5.344244548339681,-1.1502346173002467,-17.485234293162943,9.351725450744135,21.69662019308343,-4.4359824139044886,-3.706990828307691,-12.946778878876142,-10.62735766952172,0.48159612416037056,-2.5194982945941424,1.526025767621082,-1.562036743236388,-1.3528099877901467,-1.4053013328277206,-1.5738213164525265,3.8094739416636494,12.851881513684432,4.7543483373613284,0.015092027707517941,-5.735556023711742,-0.03037142580982044,1.3082045935554534,5.56426121594615,10.786421897080787,-0.4283476409656197,-0.08822920350520613,-0.17270424437866927,-0.0019329716557129895,0.20969331988682338,2.810257579572554,-1.4762664418248252,1.231139299767624,5.274416345386963,0.2023643492326217,-25.22554559432467,-2.0059415855992686,-4.371967999787697,2.84845293899608,-5.784639209882966,1.848017379624106,9.808118815976306,4.537274196591321,1.8824824994490967,4.446996890805374,-1.716828953169598,-1.7447129264579695,-1.4254557124864842,-5.203342725338912,-5.149939063902599,22.192321220738986,-6.6717740057245205,-8.24506858406409,9.651692456794322,-15.420501852962063,-7.039383463400119,9.95746820631527,0.14340408484683675,15.021849184199004,3.3225086839946076,-0.581208596667441,8.121850687401077,0.3457178547825097,2.766828459243293,-7.242091401927672,0.38049180276787625,-5.636164608838054,-2.3801711806762085,2.8797168170577514,2.28460933927974,8.376945461065958,13.596562196160171,2.3594285612511605,-1.3578156891109316,0.3247606240717793,0.9901784865355894,7.845515953924542,-2.068016454930333,-5.029525264929854,-6.763685889430852,-2.7982909669241245,1.5406762055779337,-10.823028988965866,7.452984280670229,-0.06104865911342938,-0.30115365256260807,-0.3194494416486573,-1.7044332662220103,-9.18881485396124,-5.931177083835893,1.3381590888293649,15.001267953118312,5.64115644255013,-6.800503448606652,3.475156317075684,-20.015734321527724,0.20753951398946036,4.031874282072913,-4.100628600539314,2.5530970458703415,-10.0388329985709,5.245489195157154,1.8557365582350345,4.21926276117233,4.580881855021392,-0.33517412817484526,-4.620515069435887,0.1396814619919038,3.2534446578222904,14.65440685282624,-0.1871071750510207,-0.6090715303282419,-0.22800951874331954,2.9367742997491098,0.5069902547394909,2.486156325224219,-1.4343911401228846,-2.072651900070537,-6.816849887925011,3.3306602741994755,2.8457641229539092,-11.245663092315139,-3.3425077823877256,-0.08923423547642646,-1.1113470842139153,-3.114621848816067,-0.7077262602577212,0.3344019265880997,-2.6955825845828896,7.4558840346452016,12.208890052723401,-4.042356766319689,-2.713097265063319,4.653732282360966,-0.7345188171508636,4.470108046647171,3.0392970440041296,-6.572310959915133,-2.196432586459128,-1.735813666722907,10.525418811093337,6.590063041833061,-1.569292433595301,-15.950794478273512,-0.6198655683087841,11.325782703647178,1.6487321166854199,2.148579659781096,-6.276309792317342,0.5757847811912098,-0.78694482619945,-2.425926021919449,-4.438680702188417,-0.708984997587077,1.4457842427205252,9.869617324184384,-0.2900479334858953,-2.7876287896051175,-6.955479496268843,-8.647401449212932,-0.5859424854935973,-1.2006332363563976,-1.179944071101031,-3.0310576635585718,-12.657404424550013,3.4258272582239178,4.882784823712598,-6.6763057060684465,-0.8463900550979635,8.66914470844904,5.648653459057427,-3.2653714507575895,5.976518137737672,-3.4186830491579725,6.204557709225545,0.34045904911539226,-4.03142489826069,1.7983785150877942,4.915184119259455,-0.1300544060531701,-2.1057645734531203,-2.4742816527051126,-5.282669127363118,1.8256531550408475,-1.4161718042364266,0.4309734140200378,-0.3603755280614628,1.0278890967436498,-9.964145297441377,-2.1385510849090523,2.209959161802021,0.7608247307480773,8.076141571805348,-2.087053573726057,-1.8364910589904209,-2.9250245391168397,1.748797127945356,1.6505873016052117,2.4506729174400386,-9.282122813209224,9.361022913649915,-4.873358434981031,-6.9731661457798655,-9.50934217320738,-2.1533776711478425,-0.9143438781709916,2.2660612909206206,-3.8242469308379476,5.546693953129487,1.0175580428479847,-4.161212033383542,3.276937497750112,-12.943329722211033,-0.6875425129401087,-7.495500387456641,3.410441900970376,7.1226252662109495,-5.552644718673381,3.6672675445506138,9.66048891640834,-0.09850872544795988,-10.59356700035409],[1.695545344701828,-2.554346712142523,-1.0568017117612396,1.4700728202314617,-5.298412882412366,-7.543559206129612,1.505511987978013,4.336114846987107,8.040752316032622,-3.883655042774512,0.8037772934613693,2.4044592334675063,-0.8511885785518731,3.0865247152278403,-0.07567067721693221,1.9292117405444935,-12.366638136742772,0.7405509840604809,7.311183932027554,1.7258402239981536,-0.728099673293101,-1.6754150316807965,-3.8895799525094557,0.7429480165046307,-2.515830184120185,-11.402865387390264,3.2606116212091525,-5.243502935568474,-5.905903695738742,5.945641677087509,3.8052501010760595,-6.762143763934461,-2.2234800450117893,8.182259701619904,-4.633730079340218,0.8823341005315544,-0.6612873702083922,-0.8077643713741258,-5.049044410866541,1.4080064709702222,4.546451277930321,-5.809496718662248,-3.008843123769153,-0.09249284262719676,2.733228159778371,2.099865547129377,5.887118531592576,5.870476915378831,-3.565165728022536,-0.6888793850775977,-2.206031308228466,-0.8633256635213734,-5.277262147870819,-3.147361648058398,7.419834424255807,0.7715792783351636,-1.2283105216919104,-6.949816108028468,6.407372793147966,9.076252869502504,0.6981979935569643,-2.384043319203384,-3.426246314151893,-0.8661204166699202,3.3680496810016827,3.288160504193113,12.016356018051887,3.0459019798287725,0.36768863469625845,2.045736132505861,-5.613329869959515,-6.511854619686801,-11.198540587365963,-3.9018166807515424,3.0287107701923004,2.2784885274338724,1.3585260990139383,1.8561239779639702,0.46240818498868025,5.3430375343313,-6.898188035465174,1.594187980601634,-1.7879308895707862,9.298635510146513,-1.5143557101607366,0.6788865453339267,5.9045011584510405,-7.103067803184794,-1.2054893789819991,0.10014874817678265,2.4805319500297283,-7.241744290211077,3.639216711189755,-9.696295841695163,5.173431453466651,1.4031357070098107,-6.376070387507454,2.3866919888795395,18.21098805772639,12.183853806814698,-0.2329539641669741,-2.2673439192925016,2.4821297109090774,0.018019706046575434,2.73459197979403,2.833376449397937,1.3865347057658806,15.511781013701626,8.33056133312639,-7.278354494599097,2.2640145901397775,11.190863708685622,-4.447691379790351,1.3896489578291102,7.82278673898117,2.3969952848563705,0.4747842388805301,-8.73606754839954,2.8358476440984077,-3.7054693668149197,-1.5637416001509952,-3.897168889421698,-3.914965368784649,-1.5776515464026044,-2.9252584856953048,8.091007574323726,9.56265257561145,5.961932526551668,-2.3386680780442166,0.7979437581443619,0.0412003143595161,-11.840848538096163,-1.3493906429180316,4.381490575493369,6.211755518509436,1.665158592380004,3.7795979642634454,-8.767435357804006,1.7040988175329304,-9.359268393138413,-1.4144522389333152,-3.842779502673837,2.0621151082818248,18.385371302309963,-3.4371075712628323,4.765252259140225,5.709509439306743,-2.214399433598693,-8.787826147072218,3.9236303962265238,-7.520760762550064,-3.739738532353324,4.900950213935705,-1.0436550525428943,-0.5144279855553886,2.551751981066111,-2.259966000246515,0.4249435438719289,-7.314304119742498,8.742203577098138,-15.117298695895826,8.170203651866137,5.129976239091603,11.923691484482344,-2.7061146544358605,1.4318197537928254,4.924318850764437,-3.677001024796461,13.589209253336907,2.045421224170599,5.201287601849248,-6.045086375092432,-6.690184709888893,-0.3633977998885507,6.939906592316112,4.301305414872058,-3.5951429511914608,-3.895415065458817,3.928876322556369,-2.331702563729329,4.332150453041317,-1.235047891150162,4.120283262889305,-2.3271854566170083,2.191021455385487,5.0193481666807855,-23.976152915242583,1.3462810360017425,2.333960555680035,-4.25202450468721,-6.30645560245913,-10.371155875037102,-4.976612205333608,8.517319849206759,8.531114213627559,-3.754974033245865,-10.421837513217271,-2.4361546234673894,-2.219124011676628,1.2554734632574613,-23.81283648427018,-7.756764758280276,-12.010922123578803,-1.7566371757143004,-2.816969362597922,10.363354939732238,-1.1194802453106547,1.0425886649972964,-5.473033809167657,5.393297353453615,1.2025401148459138,-11.209135802898722,-11.658187489632663,7.187562012988218,20.796626493924876,-0.27796407716758187,-9.26458927294399,0.5501281373251787,0.5409177434952346,-0.36466639532282374,7.057112764833587,-0.9013060533727663,-9.250036259057595,-29.22288274313564,-2.7083203848778914,-2.933542369393212,0.11173188511810483,4.404105484347537,-7.879041938947397,-0.08941653646368164,-1.5209244722278417,-5.034334559458911,-0.4537657165097771,2.047445089749963,-3.2222642108199366,-2.3368492713644793,7.856906375536333,-1.751592067334442,-4.1658954688329715,-3.3712988848030405,11.715349108324402,-8.352908932191351,-0.29844839202406825,-0.5591826094139574,-2.6186075519094216,-0.8763794002323366,7.96493885456937,-2.4570600772178204,-6.7733740762042896,1.0147177402734666,3.561480470389111,-6.53994983124986,-1.3279617083355664,-3.589845169779247,10.627525395736178,1.4489137070210842,-5.359772057910578,-13.96629974558242,-1.7151107851605931,-1.0703175297956546,-8.525083094832956,10.340929523919087,3.7821557956516783,3.56028170433445,-3.264477571940474,5.8996025373212255,5.2531266019054135,-5.2868220641537125,-1.593968292521601,3.467637242277724,0.25693133153421266,-0.7620052626476594,1.828292656334115,1.26407671671342,2.7580554455925568,0.5082770929419129,-1.3183343697558454,3.6163185205124955,3.899687466042346,-1.2671310985484379,-3.170385871833781,2.1566994538756994,-7.670205337638195,-0.9968319806463237,-13.288030478920128,5.002918410201977,17.575909886423048,-1.989734957645803,0.7977689538238486,5.829964176430609,-6.721281967317228,-9.515688808604507,-2.877530014274281,-1.954468282068866,-0.3987585005604337,-6.939167695715049,-7.514566500758641,-1.8463593215647445,-0.42889081899598125,5.645458933708958,-2.8355826200262078,-13.265403127313148,-1.909539997797637,-0.2511616056337731,-1.1786396978861056,4.673078637883595,3.5011715139517756,2.686945794288184,6.894414474710093,1.645654241659162,3.287246877069687,-4.392803263145714,2.1136645188104914,-1.2575893860405296,-6.756471693611498,-0.9112271350634655,9.861085000396693,-4.2832656674614125,2.492766674697478,-0.1083204597574543,0.594904367418867,0.16036832944769364,-2.180937278043663,-3.2267866510705243,-1.5795153629541006,-5.6623385544581595,-8.288043179155848,-6.311623220638742,-0.1944697057184953,-5.544951918194127,3.6928304650425647,7.976451391759223,-8.755913036517796,2.013729467186576,4.110506545194995,2.9531400473511424,-5.833538115526698,1.009219509731927,5.182170718752767,-9.276794565876077,-4.448163851181751,4.222242749438097,13.353367282192426,-2.6846083577269595,7.4461815770707815,7.765053459870487,-5.569225632367452,-4.173746998385235,-1.6085784271661243,0.11444675752128308,-3.0030193173492927,7.806781752989947,-1.3358280262078035,3.167900291510217,-1.8238861612564001,-0.18651663521282025,-8.167552323115512,-3.2588420636965587,-8.982857938781455,3.9954903077407766,2.768115666003306,8.949695659549963,-12.510517481860456,0.7216828921466191,1.1665351442945648,1.3403136028330418,-1.7638202823193234,-0.006162590901593656,9.968827984046001,5.340126643590739,11.290078004765551,2.1617886994480466,-2.4510819585197967,-0.8935315207418134,-1.661473475061638,0.34537338956229124,-1.2303199047161857,-1.4225407583379042,-7.02003178707939,-1.0545221173839765,1.3129626512185029,-0.705653333807069,-5.326675017757211,3.2221246761998494,4.1297683480497,-1.1288338606712789,-0.6366305597435449,-1.0926055527501681,9.618207075970028,-0.8157111501624315,-2.3797563415564134,-0.04236074327073021,-9.732440376831548,0.590969692563589,8.447192481797572,5.038270369722374,-10.540822924742987,-1.6075186723854678,5.575505757829961,4.591237538852308,0.018957132828550938,7.453682940056851,0.130618155299282,-3.6771689030013586,14.205876808619987,-2.7962212876757393,3.1613346297257934,-7.7731932371372565,7.461353009764742,-2.5246835799681584,-1.9728957831456126,-1.8938296328657456,-2.740383234002257,-0.13313595575809956,-1.4229091386073116,6.857251998752275,-9.463270333489753,2.4445934515722705,-13.937477574668183,-1.9253890094347461,-21.0502915901978,-0.46523732782793226,7.060350246570929,0.7026775051119093,-2.7827761792180965,7.614602363868632,-3.2288957500407527,6.48828965914379,5.222499125923811,-6.893112404843946,-3.53131947331162,2.1409432302401283,-0.5079875809450192,7.480614568596851,-15.60324138269845,8.211375500597885,-2.957438034096492,6.998251915915555,-3.4023983458703664,-5.789502339616979,0.5185889588149859,5.928098311354014,8.07762120334948,9.261775263275409,23.813340222481422,-2.9248651692526613,8.337040276453521,0.7942523665886942,1.0913623851041265,-2.522264100475253,-6.663658968122835,-1.6852218481319325,-9.218137461244755,0.697303509584329,-2.0663651576714543,-0.8202464111869529,8.1724151315155,11.114071079830698,0.5721844602639754,17.01062265492804,11.765252318522892,-1.5120487741122406,8.061428902981781,-7.717600303709897,8.101311868224279,5.3127157206248565,-4.573269413896751,6.359381798645306,4.846946452828293,2.9829123678860645,5.411115999805806,2.0237506930809563,0.7130653870033843,-0.5872071519944227,-1.870967979935261,17.589551631037928,9.820227757563364,0.43391065290165054,1.075200726506762,-0.6959521048776227,-4.029932559941075,1.622799930636285,-4.249576514498482,0.7067436361574078,-5.165433691459768,2.1030577271516293,1.4092989462736043,-0.5111714527343665,15.721892541678955,-5.549766573689364,-4.8255502685385965,4.928473895642871,6.5597358693250705,-0.5656731982407974,7.409816938729011,2.5960022928027024,-2.1069787502606,-0.5131181605610149,1.4465768764122129,1.8215082167295602,-0.6505925432800839,-0.7362193052762718,2.149958975288434,-2.601931983563829,8.488449979870953,-1.0637985697951824,0.44606518762706693,-1.0435506950868234,-11.674966453736308,-2.368477146291479,1.8705964180639842,1.7585166362586908,-0.08914376172148819,4.785931538063687,-8.981414045680328,0.13186632007879134,-3.2581372520909966,-4.569277480707682,4.804257003403951,-8.170613407743295,6.060723051809816,-0.5032184214605808,0.8471715637965356,-5.167005896614616,8.087112243819004,2.7629759746204394,5.829130541160481,8.932543659414105,8.798082479810294,0.4265956494785378,-1.095402425893779,-0.3259894523759368,0.5378061706607355,-3.512719860894629,0.18442415431904458,-2.3788052567953812,1.3527251742066326,-1.412035025142774,9.747653902665848,-5.3018528054284175,21.837342269072025,-6.037087710709102,-9.999839272609233,0.9416063782706958,-0.44681173420981546,-1.2330856661325256,-13.208587788659777,-7.453034510417718,-9.881338758888187,-9.527289277900435,0.27351167871757376,0.9637799452992575,-3.6627290611491867,2.078692259957461,5.465270453680965,-4.424865544577525,2.285324357542895,-8.110774894561276,8.349404105206341,2.655728286180808,-5.11779104213144,23.307277406317944,-7.176422334235054,-3.1117414432463155,2.440051783698505,-8.31297639955717,-0.030655960285324135,1.8752691291887849,-3.032045691520592,-6.8971904341266645,2.420351314948065,-1.794768578031713,-2.6581029627772224,-3.794864613338404,-1.3610093901000586,-4.369746543918913,2.589502187766498,-1.864249348003863,0.8122569759239628,1.4807008021809684,-6.9761276706497695,-3.8453182845735725,-7.789828251223589,-3.056687898188886,-2.3786194839885155,1.356261120242559,-0.708420270076475,7.48803476296413,3.083416962579006,1.217386613894094,2.7718426616518963,-5.29812900044103,-0.5852036993373586,0.6261429578174513,1.5907770621227617,-4.679493243073278,1.410545768063399,-21.410148524328335,0.01541629083360263,-0.12220325162091616,16.439977585442062,-0.2106575145848153,-4.427842468626458,1.9510735646384125,5.532106036608311,1.6328099538072078,12.907819376199736,2.114339223145342,-1.9951573490861882,-0.46199511141735583,-2.7821546824629304,-7.138724557563192,3.501748925477263,-0.6463130597769758,-1.9943301813902907,0.9307463070121837,1.8542527744923156,10.051782884796134,-0.08782184332206144,-0.31082627172273647,-1.1364293581346994,14.494491506022221,-0.03433892306835551,-0.8175294158877657,-0.23445725439973364,11.773095496579009,1.2198831475047198,-6.332951364358822,-0.39523612599452007,9.435066073699321,1.4971231859765557,-11.70203735170188,-7.818910757847828,-0.44518636539358525,1.485784668488948,3.0865017541469424,-7.289524446364432,-2.1741467628303717,-2.687623199858832,-5.888533586521674,2.189214039217056,-7.839196023008563,6.309895961534048,-2.6860354458740474,2.6535845400142835,7.944894543797105,0.03580399370042808,6.4897625735867805,0.5590303985291554,5.49756502228693,17.68595920762477,2.38633903785864,3.1736501769244545,-17.791179535919657,-1.7310097756506,-8.292079004562703,7.818269486290205,-2.0268740249353696,0.4491362217574678,-4.748166637214913,-3.372742152245452,-15.231556082736276,5.925663308320042,-1.1161723880155294,-1.5505648966114354,7.777088326104732,2.4787740735920027,8.466346324561258,-2.6634824955607606,10.168152804332546,7.0617883567008075,-0.20884399570374887,-3.3571297846276815,0.14227695479064117,1.739539311354596,2.089276569590342,-14.378574870674402,2.0650942066274602,5.095549569669978,-1.7304948419032375,0.1570890117602992,8.977818571927635,-11.959045459117716,0.6930324416902589,-4.245561244529428,-6.047059347064233,-4.497953566871915,5.175008421888071,-8.830576191265681,3.066447353452545,-2.734969295555354,-8.542802712488607,-5.54783635767566,-5.032600034769706,3.8400400635725984,-8.16009001270924,18.38093598169446,-14.292299639614509,-16.85215571171959,-8.369604786334927,6.163913856864241,-8.211722011437026,-8.942792173253238,-5.642879255047513,4.061922015241009,17.76050321145732,-7.57716422573351,1.0422343847768079,2.275713028797774,3.0941722444973907,-0.7564819624598896,7.985797109648218,-7.996942605594061,-0.1226901764538979,-4.340029240032692,8.058668718678332,-13.34089268699168,1.214571559403828,1.5991427414097155,-21.831306687834935,0.22334041521146575,1.7547977427572778,6.615347620499312,-1.0124343769135011,-1.1479471669041792,-2.4143840049348246,0.8633022902641849,-1.9431831528219394,-5.205822131278784,-1.9186498948062432,-1.3493379456756416,-6.431051544820522,-1.5255575000249177,-1.6713053603392378,1.1278275852044815,-0.8985741937427618,-2.460431888127759,1.1935253656827036,-10.158269246700188,-0.2787721326522017,-5.244915611674861,-17.363501074875032,-7.078471538464795,11.758218573277244,-0.711092001671751,-0.43976713902120457,-0.12094933253188578,1.672893566654399,9.090480926617886,3.5367374050869147,-2.438465891718099,-6.270066643676142,-9.193605146059962,3.5644035210063825,-1.5399063140960554,-2.434136907594722,1.8837424392783608,-1.4528454804079471,2.6288497934518196,-2.429680680655814,1.9092198676562042,-1.5675402105895175,-4.905593283608129,-1.3206622261792067,0.9561330608159273,-1.7558601905937974,2.882631763633268,-1.1298144848335911,-5.124068073970991,1.1691432060373366,-1.2592532627391324,-0.6606105459390146,-0.9096605113945699,-8.58176682668634,-0.04070414296928157,-4.443500266035314,2.1307292306894943,0.9963206694150772,5.714786903488509,-3.0608940686384205,6.780036609585384,1.7258651982614466,1.7789881797744003,-5.367601191161153],[0.28387074775107146,0.23177627188818528,-0.8138579164641929,-7.869336709630538,2.2672613112151425,-4.175892303575907,-9.78377112527411,-12.211113569938561,10.160520267208842,0.39781439070141433,-5.615364386969979,-2.2266979638455036,-3.9392854501350527,-1.4394502472434043,1.2684639937262943,5.115938225986955,-1.8342847736913335,-3.861999453891835,-11.387719976553274,3.028022637910953,-0.3556579599718699,-6.250723256286178,0.2598829926361965,-7.467426448647416,-10.65018858332615,1.566242200484703,11.06850098822437,1.4306712746469066,0.3133417769677651,3.110823504805637,9.060920424166497,6.3465535952859575,0.6517329115969743,2.90620401051116,-15.171081823677719,6.145358473906588,-11.322251231041047,-9.262914266832619,21.629674916449634,10.714963033698705,1.4177983590303234,-3.406542261577736,-1.729083527732624,1.7355740400976631,0.48848910245734023,3.9175960560905145,13.726686476380124,13.422614769961458,-0.7421265807692721,8.203703332751903,1.7363391558031478,1.7456617028370038,6.324982406109005,3.8649797268450667,3.046774621914555,-6.237750724428919,12.535088076062808,-1.4008924803659442,-0.22674849658601248,2.881833403462185,12.108517525493424,2.0416861512363127,-4.389908130859553,-2.17600144870897,2.912096769584725,-3.528802402471081,2.6192972673927173,-6.323439639320676,0.4236373131600881,0.511134716899528,-6.285355968977958,6.989856493540383,5.9474527745848516,-2.1685014797786626,-0.5359970798509052,0.7004830076080563,-1.5719119559531851,-0.36183228005426793,6.524268217326686,2.9650903218617763,-5.564942150654105,0.6779454291823843,2.1845234977262926,3.3510380799695474,-0.981506315655806,-7.5711840623692135,2.0462552840428954,-4.318022478273797,7.768407595400538,-2.367086864178486,12.47108735749182,1.6293147637806997,-0.3011701673816267,-0.23880775758076345,-0.9557857947684119,-2.7424737575578124,-9.498212330811052,-1.8221004425768936,-4.603228079227103,-6.128572120709241,-1.9903736365298208,1.6852423985904754,-1.9117489689226401,-10.596257601995482,3.254260304317266,6.120079525133561,6.040342053132439,7.625537757388284,-1.9803224469966203,1.323340142126634,2.616209989532022,-6.6716419931463244,-5.803009451669632,-12.429458217220699,7.818250082579306,0.249501248688071,4.482677444062837,-0.2645981868138745,-9.406013458725814,-6.065685884138706,-2.7022414469193903,-7.971319303534969,-0.6749873960050419,-2.1306230679836586,-7.5858864436212965,-2.3570221496303887,2.3386173390810816,-6.745729313783882,8.74094116884222,-2.318484196272651,-3.279714146389648,-1.872073963254144,19.062816976839756,1.095156482580429,9.348861962514572,6.727443667445341,-1.4165642634671918,-1.8520533093031912,7.336814824441621,-2.1356222602332036,-1.3140814952058468,2.461244727333815,7.983452563613221,-0.6769270806597474,-1.3357405536472278,0.4812164985756394,-5.01120043738218,-0.5373995169899828,-8.278340316828608,6.852349345166088,-9.531824162900254,7.261914979562571,2.3183957202472043,5.537602148716815,13.58256965196586,0.9298182550171745,3.653497943475479,-13.028234349804215,-7.504707422377687,-2.408323668577135,-7.915659781054007,8.345040257729275,1.2463184355639572,0.8491554412784477,12.835212752078762,-9.231009561613615,14.13809028176146,3.6286992845496164,0.43158953712723225,0.5251728677392262,-8.580891522161604,3.3756892082962935,-4.91421190593657,-0.8286902612415548,-1.2552387687938946,1.0705315541214517,-1.280328280463045,-3.226860043164862,3.645538522021559,-0.3769990400775929,-1.6547243663599034,-8.152299574110627,-1.0646084601691164,-5.307130576999127,0.09520258332097598,3.6473802484251525,1.5952813798035055,-0.8806047136922088,3.784901099711246,12.735437396213447,-1.3593478539734174,-9.758436119660134,2.8132687054813115,0.984353349433267,5.717306803236076,0.21887539797124497,-3.5516733553958195,-4.073752488343792,-0.12159260668153049,-2.3704495901013374,-8.574336807734532,-4.844981126429063,-7.148025304585243,10.93979480964563,0.6773940180571714,3.1136341115406623,-1.9925400715492751,1.4565524933098242,-10.745971125212186,-9.922507970523363,-2.1948836660780664,-3.4299003339656777,-4.564627495911484,-0.2196817209875721,-6.5937799224529385,7.402842800310388,1.2940509751711298,-0.7688848629350105,-4.0472532119982585,4.714992566741804,-2.602732617788662,-6.887114585727627,-0.05772182388399505,2.034114582041669,15.993675109910967,21.311726166130022,-4.647756004974505,2.2264416514138965,2.98158729377759,-0.3370670866605132,-2.4887899317264432,-2.1534550463457776,8.812453925066368,-3.7817507722929333,-3.6338454862559786,6.5640658763687245,5.386081132810225,5.222473506033213,2.7939184359989753,1.3268732682959072,1.576704676926445,-2.468582398065424,2.807102107675464,2.4683820236363077,2.2119733933546435,-1.720229778066566,-0.8024639319248128,-3.7274335985904834,-1.346361847305595,3.290216518434014,2.5465336742721663,0.5348972756472077,1.3115772939346986,-0.8936131923618573,-0.9677185277799509,7.716981568218035,-2.22017115467061,-2.2379058427606515,-4.149905231913976,2.7324003283359466,-3.2370651868472793,-3.515620664296255,5.128166771329958,4.646286850920771,1.6553146229952576,-0.8400042831390325,0.5469555335003752,-8.127477394121586,-0.7240988968955783,2.8925282733069406,-7.677993876348431,-5.481417180636365,-5.09583000654087,1.0093028029070628,13.31204192425269,1.9166598126034646,8.349261926158084,1.8057762849752708,-17.220858360569522,-0.48831465269608787,3.473813388873915,0.21327161507046366,-3.0563322677686044,-5.375623486192889,-7.038054430805678,-5.32652068779024,0.6537803487823841,-0.4404338149363609,0.008935338030083173,2.321577399250338,-8.813125494541495,-2.700583599306465,3.3207363680749147,2.070189010936896,-3.7121500416934294,0.7093586659468255,4.515681369137992,5.8900711287733944,-1.1989228063141373,-3.79444398992189,4.819550406370641,-7.749235334552732,1.9308793642914672,0.29553500645972997,1.2434305042381737,4.04965515751253,-7.6680589962828645,-0.7624316236927848,-1.2637835367131958,-2.70097596990561,1.2795200896217696,2.556882338510257,0.9045185797525717,-3.3538085728106246,-12.292652035838929,-0.0886265601367664,8.795948198946165,-10.784153124584432,-2.960226906369043,-6.681622349628663,1.9574645922792895,5.940206294021426,-2.5377534962977557,1.9941269655170237,5.672242984173771,-8.112728204169475,7.636142442076354,-0.47512304305949926,0.840680529786428,-0.03753463406924251,0.721155224980822,5.345915766644492,0.3839375113040733,6.160606513550295,-0.22152273098101743,1.6949635233522704,-1.304761579255615,1.0581611194352185,-1.470031487978726,8.51079602111478,0.9616446546908564,1.3071157229896697,1.0783538296405761,-5.422171016415519,-0.6835235534013278,-20.488999080356805,0.6867055323645526,-5.244328028737115,6.6752795846483375,5.04501101699791,-5.649978479900466,-10.985089617204249,7.305570316950156,-9.568061653214425,0.7635241260201986,-2.35694062465714,-0.7609103078827424,-9.762106602759253,-2.885837297594343,-9.747457518225563,3.0994196322668985,-1.667295991955112,1.0482065254577155,-5.485291720478052,0.8436300741261574,-3.2779194485109695,-0.7514068836095138,-11.567879032724791,-3.9868258430487815,1.003096889731448,-6.790132174663833,5.384008578126876,-3.8610258706810168,1.054450085784266,-2.3119616128608165,0.5826558611627067,-3.091779940069971,-0.7061991463045728,-1.6376204890392918,-8.580874495950086,4.795632813154655,-1.595755375039225,1.174344419545499,-8.048329642255556,-1.7196618627990872,1.1287469964541073,11.24474708075967,-3.8862319140941635,-0.4148846047211558,6.946651498188446,1.5189089321634854,7.6454301465968815,0.2006919454554021,-2.836922212515436,0.18868658741313205,-0.851455587007009,8.437874654593305,-19.18387472134536,11.582956579930725,-2.7854974565596926,-4.449638665422288,-11.366228917078338,5.752097662360846,-2.9654171867516883,10.047695999736813,-15.21496079012389,-4.860069306681949,0.5008618420979635,-1.7877484773064953,-6.704801909479355,5.491952302542105,6.827780252659357,1.8921992493900153,1.2772501960281104,2.97198381942399,1.31175320611609,13.875910548443166,-1.572828413725033,1.2206442166396094,1.165251644773409,-7.718184561327787,5.017927433403282,3.2966094981346403,1.8583225440123405,7.633787139269242,8.855818461014625,-1.255428874197373,14.525252358271953,9.096928230015912,-0.5773730059793939,-1.3911596299255247,11.525296080611788,-2.0714075269609378,4.747921941214635,4.732277955102342,1.919848072396186,-14.621943971166644,-6.951124508100587,-3.315191439909958,13.936716533809934,-2.5510518587948807,3.7593300962526173,-11.84579039557772,-0.40286768842118104,-10.01741142170694,-6.478798780693785,4.150022005955875,-0.783887936524172,-3.31632735974609,1.8508549063831343,0.9359860641138207,-2.05983806725637,-5.018920313565527,6.587905919940555,-0.4270760049296598,0.05737357328028375,0.09009922708155749,-2.6780862809832797,-2.706287136607691,-4.815127900167176,2.8684325076316104,-9.460152349690873,6.880684901328825,-4.082427204826031,-7.290681140344561,8.659360174009105,-6.560728062237606,1.8605125404998804,-0.614790407077989,0.6145544671143933,-4.376091975739941,4.096398790657809,-1.6110384594975806,-14.274969850659822,-3.5720795326145445,5.022142935119927,12.119741381133776,-2.2503389932852733,-1.5116232972476205,15.481501778192722,-5.046726070176555,-9.288988284017826,-10.55182457325032,7.865970243129526,3.9231671367837606,1.2412425280728465,3.724816605658629,-1.494192627509463,-1.5805386010856068,-1.5328115397228994,-1.76826439140051,2.6078688991977708,-1.2481568590255918,-10.126907627138843,1.227463629340763,2.6740737187472625,-1.0086993759902452,9.383213009384114,-0.9408300618437013,-0.34747239737499674,-0.4513900095696877,2.137748974083761,4.470725165740366,5.690152612745621,-6.011529233052004,-3.6298259006175746,-0.970652619535207,-1.770708646628652,-18.21218075989828,0.16219872592477436,-0.6303986505562964,6.522319465699706,-0.21763975870274876,0.36150982273200455,8.779289753747546,0.6327451709452134,2.183751413517432,3.7857169864543185,-5.002301863734078,-5.039469422267394,2.7095432674357482,-2.943043844994592,-2.8028463793795133,10.348110257358549,-8.144176303915938,0.30553058889885615,-13.932491697461938,-11.187013867326645,0.6955870498928864,-0.30310524151849383,9.374599589327268,-0.7744604916748168,3.3138792662772736,1.8203647163640817,-1.8080523437650355,-0.11951893157091531,2.1420420411066967,5.401553031284404,3.2151370169365556,-0.6304314911170845,1.9808896618851435,-0.9016277678452624,-14.206689409071426,-11.84346129449371,4.98109408604321,2.847256183359221,3.008509621081842,4.223887781323003,7.014041561396725,-3.818954981832879,10.083919820781006,-2.7236092393699014,-7.8537650923048234,-7.960997173921742,2.2511031203625196,5.398717700409845,1.7037787961062514,1.699826582917944,-1.2367788999211968,-2.145230487699044,-0.5743109861191451,2.0197558874960544,-0.8758916209060232,-1.8781564000322546,7.585134798731438,10.20381494914767,1.2098410944004048,-1.3113635117756381,-1.17926610519977,-4.3227647219275305,2.9466005723098156,-1.986118888767229,0.34377111518353054,-2.5406880346605822,3.4277920662471684,-2.064689448101544,-5.7379565267145525,-0.07719196693934727,-6.90592523179673,-1.694946421955465,-6.6093736035510595,2.3244786411001384,3.6075871740057304,-0.6186947301760158,1.4551883791662177,-5.193279519443623,-5.76222353320383,-1.3025430063173018,0.4655999255430181,0.08742453951519241,-1.6222945342566648,-0.035940485417026435,12.291479523187887,2.4956863668418645,1.0794489641702265,10.237127119928049,2.4923228258361503,-2.4906258467152513,2.6453954275443374,1.050742780549983,-7.530498188904738,-1.1232619346502566,6.49546524150193,2.075209334799352,-2.431724287672799,-0.20142807456127235,-1.947501268232168,-4.6352883560020475,-1.5301891181312328,-1.6393548401117721,-6.3195308786526585,0.422868325606979,-4.217419883238552,-2.568183908957929,1.900194693131303,9.09540589735838,-11.287037684937763,-3.386298335111936,4.466906798176679,-2.862130446762989,0.59699069584719,-4.0700143174774155,-0.331890497334974,-2.557222523907353,1.4364567671401742,1.998366911628926,-2.512190945747645,-8.462445728260299,-0.30991805985890486,-3.4741401791506794,-10.550477839415604,2.417844978532139,-0.3691907451417298,-2.8302456392304096,0.22940572846340979,-9.190833790022559,-0.14464276123801056,2.266904658456016,-0.8765722977739899,2.9873412474044807,-8.870200293362375,-17.691520360634648,-9.066108854808636,2.245726442926246,-1.2041536116414446,-8.07384246816627,0.2556326762095573,-10.682798584074412,9.754326648900523,-4.6570695904846175,0.607520510130394,1.0922461104652463,4.194939577626682,2.663234046339114,6.309703469954193,-4.5187121821480645,0.015957780559814005,0.1260543014158365,-1.4794999382143725,8.586841661787359,1.399997183856934,0.6146956356033115,17.10794599237959,1.540315234974397,1.7119831227539077,-0.5966156007825352,-14.106910642610902,0.49662409067251956,1.4247283232483656,0.18272969914695114,-0.34305061838978207,8.375885403734154,0.6018410767323705,0.9828826660798824,4.871608585722607,1.8554612523149507,-0.8641027906629792,1.7675213903181914,1.9115811145609056,-7.088282873970774,-2.028516626116029,10.142552627715238,-3.590703498958878,7.885003091039641,2.7744647241110276,5.6978517899677055,8.753271471387237,-3.9779376298795217,-0.456422635732624,2.853431087783236,-0.6126763270821503,-0.5413207509226706,-10.450046219957912,-13.65141816460832,-14.81345065378048,6.740959154334197,-1.7522969076653458,5.400502791070612,5.951700964138886,-0.556935465641359,-0.2839617543717172,0.284452913408332,-2.944894650545723,-2.4441123795681086,5.5807004697106795,5.926893164190641,1.4600137103139985,-1.5828120007471025,-0.2851474986282708,-0.9659362535174347,5.145514446565388,3.54594369464918,1.4112783463593983,0.5781288562931424,-4.048047098195665,1.0714864872617784,7.29377476980861,-5.206056655631068,-0.7342559653136647,-2.2691596690653038,1.7780107928022444,3.0733850797850883,1.066973885722272,4.041344847132127,2.2283957575188396,-0.2720330149051052,8.925454682905318,-1.0566279376454912,2.9446489645095006,4.3995957617356325,7.2130926631048045,-4.233914336326442,-12.640769069996264,3.1244026548036827,8.546239420710467,0.3554093705456003,-9.145100791335251,-1.6497067168738153,2.4631795276727804,-4.807600927285941,11.54814894511339,0.8476290537475354,-1.659300049528675,-0.6228604138759273,0.5216072713756983,5.6768715116041815,-9.710036299424672,-2.624564472445301,-4.641823154487872,-0.1017600234598639,-5.906909563695366,-4.0301899891090205,-1.4925291415560882,-1.1119860047622798,-2.756886506092079,2.4049572733669065,0.526797388058851,-3.2972332005039577,-0.31287289279427527,1.4254811090966109,2.7335093090729474,10.108844037700852,-3.6683934500634225,-0.08335411695677086,-0.9056232829114732,-5.3147131748240435,0.19984423555895975,8.918104324421787,-4.109140776421963,0.1384064162712535,-0.5452243056771359,1.4052385816903266,-0.6157421675947979,-3.0816070995639087,4.797874012349121,-13.06816842262215,1.1782740870781998,2.7673144221259074,9.869435670645181,0.56763420885415,-0.8290314233486837,-0.7638112481352954,-8.48475443140391,0.7092737019217554],[0.0026369698338264413,-0.6540131315582425,-0.8116089213992637,1.2417939213929536,4.5378528617922544,-1.4849173876148445,2.791107360494932,8.211363020266568,5.342721488441426,-2.8312495881290385,0.8901304160600523,-1.5018035396246865,-2.395781129145088,7.724826342373568,-0.055850315216136925,8.793971719283944,8.612919644621435,-0.1243226681788912,0.8201729195303407,-7.032425538840105,1.6940493531054495,1.574774355807328,-2.5833498722459582,-2.3625299634453976,-5.3592701704300385,-6.18402868061379,3.91231035636756,-2.3488452262507202,6.493165207563992,-9.853891563754004,-3.3422048440092813,-0.9029653434510844,-0.21269147502128338,-3.4441383766847498,-6.61285746549704,5.42472713033804,-0.12519547311714252,5.983064719281532,-1.0001425848363077,1.7180170001459798,1.1641141721994843,-0.6270213856484248,-2.3191443258987947,5.471791815416054,-0.721306991054206,-1.2476697711669233,-0.6743172638595147,-1.6664899152693133,-4.334895664725428,0.8359432454631515,-2.581239707503096,4.177831078143312,-3.1630038376178122,4.503787538132997,3.7185654777518202,14.126409959560284,-4.049041998766212,-0.9361756820971101,-3.1935611574000786,3.7240747844046167,-4.052583895920601,-7.894419802599167,-0.6959889946254726,6.556466808072678,2.6638328628566317,-2.9632753484305154,-5.990729910088108,0.22010729365374787,0.9817483151790327,2.2501231947836677,-0.10543310240821346,-0.42423406691319965,-7.811925392153276,-0.9095598091639641,-2.1798049868383407,-9.68650509165794,12.679514615575524,0.9820358513244045,-1.945480185400902,0.9936413961135396,0.8673960512279213,1.0318568112928936,-5.511922937491445,12.348903607186775,0.10743937202318787,-6.027356814272672,-0.9198740714076413,-2.5326929887192224,9.997086064046421,4.161940026734582,2.885563801752496,5.265878813266836,-4.088525707677936,1.0931154864289565,-0.3080785415568321,-8.518331401177832,0.7865241355937833,-1.6839887769669266,0.3855088578989015,9.480446567625744,12.555922010215557,1.4481404985272128,-0.20266803304755565,2.2490845377450803,3.7317487013668282,-11.871533182436073,-0.2846501698968449,-5.617589698491878,11.51329120822847,13.721122625529816,-0.3722270059039601,-1.2624927528832086,1.4952657661132172,-0.5348080974519944,-0.7734564303467879,-2.7839736323181823,-2.560589928179868,1.7973519335155306,4.758177069368383,0.1682118744735006,-7.1044133980067485,-1.2024863727097364,-1.826938584613306,-5.2770404653857135,-4.820878639086287,1.7376865557407175,-5.648266842286418,-12.102145745233834,-15.281704893310831,-7.043502582514223,-0.05479162003487126,-0.8613895574749599,-2.2338761763378585,2.1934110806238825,-4.295106917773577,-6.459474575155843,-7.981479854717669,8.195751272650341,1.5804924052156022,2.004192532457677,0.3205354122513935,10.219103403549855,-2.9560844736956393,-3.3239456059764576,4.94302204627386,-0.8596994725785432,-5.413291805964327,-5.3560431063481255,-9.450113511536237,5.039114287248572,-0.7474579572125908,0.3756601667774808,1.0400777269509796,-2.364792773134626,-9.07170781611308,4.579954628434832,0.2733478259284927,2.6734824773716763,6.517775006558569,0.45377244241422643,-1.008633473645008,-3.7528565932182865,2.6040487882004495,2.8047495199275523,5.012902728007375,0.40295725876600885,1.3258647374150572,0.832691799379569,-0.45854192194849663,1.1588376653139727,-3.371867974738196,-12.964061140049768,-1.454337292868566,-8.108810034848556,-4.539923128383162,13.983257731832266,-6.3325204341373125,3.5488990974993224,-6.020921185681926,1.5489879740536416,-3.346789778742316,-0.26590257684745344,-0.9553160660830731,-1.915663805336827,3.762835112797383,-1.6939864791141261,3.6844568349061335,1.1204896301986134,2.3774007742865497,0.20714690515552858,0.8226940831026566,-9.41053093117341,1.48145034211552,-0.6492677625971317,-1.057292694358714,-8.17404365817337,0.548614230556514,-1.1623267604778316,2.0385622446837433,13.489081542014691,-3.551511247995809,-7.868454276365664,2.0706387211240247,-0.8344622310003298,13.032513630123034,-6.904554301457215,8.051902493259545,-0.16179842363132324,8.169981835745784,1.5116864409117372,10.904643800374119,-1.0012252323056252,11.724882634428383,8.696091432592585,4.6130593601139465,0.9120648069596362,-7.451885672525153,-5.267125922068689,-14.675721807343852,1.1524713559515762,4.723753666271887,-3.022637423817086,1.3471008110231586,1.3225747667699064,4.079939017657788,-3.1011256096642965,-4.747535381663633,-0.3181810043799125,2.5155879948763085,0.7370979588151099,4.370200118243881,0.7412351725919653,-0.04245398103977194,6.382846391597248,16.196041021959637,13.041182886888691,-1.6118562604250237,2.9039304640070602,2.111112610428184,1.0891907374440124,-4.435597449498579,-13.243376508381196,2.404728130281751,-7.667295656096481,-1.0850147412470486,-1.3750922236502026,-0.888859132463387,4.628143807199118,10.527965031384017,1.7851265433366141,6.684061311938258,-3.7038651465834933,2.9098219015840963,1.9238501749059758,-0.16807018156384346,-1.7169305029895554,8.404234685714389,1.5888335917323086,-2.3440595485937803,-9.242892121223395,-3.357954684210681,-0.7957706546224349,-19.052453381703224,-1.1167528452843893,2.3138169786144283,2.78940658662113,-3.783392555139768,4.590313020509886,-7.654228741735966,-11.080933775825123,0.13747609614751255,-10.485394933139169,-12.045570997330005,-9.097594880941784,8.90188144644614,4.849388374982185,-3.6624126872758325,-2.25921993352285,-3.913440821103478,4.77191206344325,0.44619122759109864,-1.0993049798560524,-2.096918935058308,-2.1816138803765455,-0.7710205563190582,-5.654188883564409,-11.257268928540597,1.324654948280525,-1.2600811860100585,-6.738032635419945,-5.822921318884832,1.0295781597678157,14.550531088231482,-6.313322499358211,-26.73733138278176,-6.255557559400388,2.0538869010746232,2.5476487491734647,-3.3800483204332163,-8.696407192878226,-0.5040575127286098,-2.01519355489745,1.315289766788049,-6.479408940234009,-1.3374288821164024,-1.088304602982395,1.2394121265472533,-7.878387846714309,-2.076351401090529,-2.9012585806081845,-0.18900962478011174,0.1049785689228031,2.243136766052287,-7.389199093228736,-1.5558971074865955,-3.4988156516113067,0.8562141299231107,-0.8226247574514716,7.29880489085876,0.22927179014488352,-3.5232046150262555,1.9172240377594014,4.194032636731734,2.2254537685583387,-2.3452733173553186,-1.4391515567638848,0.12201307821844683,0.20828269439672376,-0.7950538221471497,-8.490201959077174,-5.434830835976241,12.446837759121507,0.8974727499172044,6.613649996653876,2.3944214855841817,3.9587747222524126,-7.670687231499465,1.496112714574703,0.7127596192183807,9.172282594157608,2.4919179788963968,-3.058989046435186,1.2336674124822897,7.3170927353461055,3.8071081723749596,4.845640696840356,11.66916994404708,1.3539054377038473,7.471395800023261,3.083990161846029,-10.494484228077823,-16.897943682973565,5.720588609326712,-3.003266586791171,-1.0482702212359056,0.6202895822232868,-1.6732398948981886,-1.6372795678692995,-1.7835248589791615,-4.66275535968278,-0.47809068644528807,-3.248269265945536,-7.842147919147864,15.505575089607706,-5.292672690345287,-0.9062579121981349,-8.0043430834861,-1.2787253996870636,-11.4689066900851,5.444198443976319,7.8177161610085,0.14083035128234725,0.8379927315589653,-10.048833253933838,1.3369729638529768,0.9515187241442176,-0.24407731359555507,3.9198815717076734,1.3368454897302873,2.182353517253917,-0.9135392784660707,1.612380008064473,7.248155216361329,-5.444152183677499,4.081517736857792,-0.8096995683677939,-0.12044651392559735,-9.766181940139752,1.0541304343820241,7.920219405840724,0.37195256484699085,-8.422019785388029,3.5334962615286436,-0.19544394627783657,-2.17546927843091,0.4173443566659536,-1.5790943804308402,2.919418350338531,-0.41006253777260193,5.717153045369662,2.546664760336623,4.880971241213915,3.3383582476969664,1.7541343148382893,-1.2624645627927458,0.9454239302825269,1.0544310182598644,-5.141215943727779,-3.2049305052408865,-6.6033153467339405,-1.6732455100841257,-6.864503533208763,2.6899815896267514,-1.8601446393184693,-5.252178617505365,-6.188404084213385,-1.616671003303666,-1.7726221913474778,-4.072830915789528,1.8449010149941512,1.5229386464066463,1.6096781266798939,-1.6876447436051543,0.08298236479017995,18.061105447638184,1.0811036581087587,-1.5879766940924624,-1.4003477487900067,0.6169784741834345,3.837839676964057,2.8113349551520344,-0.16469804868274585,-10.798095824134162,2.370450192451557,-2.482642005276043,16.819391299468702,-11.209420609830884,0.12244352728503083,2.210359874718639,1.1539354870380898,-0.70996380108367,-1.5849929256782662,-1.0431729058749415,0.6760411696823361,0.6313632084766303,-10.7100765125983,9.26603013311265,7.031866027020081,2.2457027565021592,2.157316389495514,9.61685436177872,-3.910484438605944,-0.6013856380584035,10.787943877565027,-4.32091209632872,11.072434053056682,-14.104351717579716,-3.6329106285276658,1.9037726065943659,-0.6846332932366583,11.039567273774738,-0.48776308261788515,10.852522696909311,2.1139144626402793,1.5144085366139377,-18.955103272768447,7.3657769600678975,-4.147410841892855,6.132848689939743,-0.23580164046409524,-1.2905212649341662,-4.323012251309016,-1.2104575667682551,-8.8502180538961,-5.461666511777244,3.072291273706148,-12.675598554137,-1.5455364687202835,-0.6371574896361734,7.0744996184287245,-1.752040078003096,2.3371954858170225,1.0176570916191636,6.199750092734302,-12.734463623051393,-4.347882018548275,-1.1919516567272925,-26.73013081793977,12.8801725986836,-3.0923146181579355,-5.968336193056043,-0.9584176354773137,5.4199161619833625,-1.5434391663103768,13.76001747665298,-4.693853127957036,-0.6377295634279279,0.19339384206207044,-1.6790106014657824,6.396272680539609,5.425306042501806,-8.811423756618638,5.6906882519657955,2.1808099431505448,2.283654298509067,-7.848177696576952,-0.14510468423506295,-3.583755624458545,-0.5981336506661143,3.163081355291135,-2.8364283373002124,-1.181085565411101,7.362365054030727,-3.7950634537725767,-6.3922771526617375,-6.8927387153952235,3.745232472852143,-3.7114654338726103,-6.290039123015111,2.5839805199879597,-4.428431058955479,-18.71596999654007,0.7872347597214746,1.434702866933611,-7.204933923556698,6.206839143815731,-3.2271260129545567,1.0648798355619518,1.3884633649503444,-2.776077449889465,-0.21178527248064283,7.017453151284089,-0.4733980752315974,1.8843131286208945,1.0696927890154364,4.354826190719667,8.52151989572664,-8.249809498705538,9.324242769913694,-11.044259605661995,-2.0794004711454246,4.07744112152867,4.922531053255519,-0.5745781164182978,-3.9250130378957273,1.8558497687407964,6.70732754806449,-22.91769385947073,-8.684233642352535,-2.352729080199226,1.6220525314734822,5.943780052353763,2.0380446015823237,4.093534877728735,0.4403055205314924,-0.512165952612622,-3.324588432590701,11.6742197754368,0.6938301878363351,-0.39171596976519274,2.4820546467074953,-0.10276674236324279,2.8555155874487044,2.0234568578106495,0.17971453983952168,0.9687804594435931,-5.894607248943691,0.4722462852152336,-0.8026477143525768,-4.262050364080969,-1.8589975560366803,9.269442674573053,-2.0408948072017274,-0.9725089873055965,-4.643228141745379,-11.318228697975483,0.2533215231486638,0.7366824521684047,-5.421116997257343,6.498688137243318,0.308427384065426,-5.786736996380583,19.785415411754727,-1.3479897582512153,3.3937973449837417,7.690889749506932,8.37621223695667,-0.409440831209269,0.712897186676277,5.6336069541411264,-3.3737069116513267,-1.3251948418241521,-0.29597024978517217,-4.561949312805192,7.868275135168975,4.209573705040668,-0.8958481898371276,1.551700024124922,-6.645298038330294,3.633676285506696,-10.227119422579294,5.200816254518864,-16.492110132816165,2.620942788311938,-4.132857678643894,-24.57445787318119,-1.762086780756547,0.3661938056477604,-6.6176579826299005,6.317664878355142,-2.421231965160864,10.123750165680384,-4.590939741576838,3.236848007355189,-9.346821575034596,-4.6613199486734045,-1.518752760010873,0.8917615388065347,-3.604936290006018,1.8094828553232118,-3.881524335030219,-3.598696971745193,3.3972389380997905,1.269839036088968,3.1829593232036384,-1.037518731271379,-3.324140048439779,8.786581240217338,6.1921375801317495,-0.2563005308200792,-13.833313218521386,-1.4875166743045773,5.866312527137468,-1.5233633792272787,2.148555492906151,2.763843307399039,-1.4669659397270056,4.180080804170994,9.128748667615126,-8.541839988585627,-13.079251837532894,-3.537623298395526,0.8477936834781489,6.385065547999671,8.912268110574384,3.764176858449194,-9.17053268241608,1.011646547809215,-5.50613029510922,13.345564309974648,-1.0992136285106693,-9.981561044206337,-3.862920828883796,-1.1226152346040765,-1.249096398590248,-0.8627716064323254,-7.566957056976567,2.6803655621559423,-2.13578958390845,0.29778172574799877,-2.91418287499814,2.6975098157444553,1.946167204557693,10.891120117221774,-3.7010095722720746,-4.475770369815871,-0.19915598426514147,4.5172566093543844,0.31954281147052477,1.5646338654862908,-2.067835975204063,-3.5560569502147725,-4.705955410286317,-3.110456000804019,0.8847887711940794,-0.9366956521571659,-0.7421232952291807,0.7269161052119539,-2.3430163067964194,-2.455118038405033,-0.41815977575526353,-3.360308135731488,2.6215331415831,-7.818801724614716,0.9054916433862503,-1.133827508392431,-0.01347690577370958,4.444519314082115,-0.7261608049794361,0.21801852707196567,8.80679536235711,-5.427532373952566,-3.159930484578745,-14.750778388256578,-9.803902627636418,-4.072150507171235,1.8864651188965114,3.7291372692303266,3.321181844138672,0.17302763824585232,-0.1941805943148516,-2.598972499235731,-2.0698522888544124,-8.405606639238037,0.5718584460550986,3.0733313055245888,1.5967727086366041,-13.8846572888223,-3.7646089071376725,-0.9655754588269865,-6.216324241950975,-13.406245427440895,-4.079055555792651,3.085117960904474,2.7830661248661754,0.7704878690879126,-3.9846801276977253,15.037593330449685,-3.7924249507312484,-2.297836545330035,-0.62401611287354,-0.29254226056897714,-18.207628742086285,6.845134646655696,-4.9998025645000155,0.3091282523886316,-10.184078534421534,6.714874679901523,-3.864493341461447,11.22144529885971,-4.962259145476565,-10.677856797522598,-1.4000245027451994,0.24669348234299848,-1.030479941521234,7.251705327642931,3.574694452436,3.2262204345069567,-0.7825751736113077,4.352666566343666,0.8681752909670424,-4.398292671623079,13.983256605976178,1.4788010430691274,11.677133936003647,-14.887404959122366,-6.590881301076512,-0.6079300838577312,-3.4290030832422875,5.915644492058937,-0.49681722123322913,6.781474757588207,8.674899688081824,10.234583804956745,-2.6422362628300275,-0.8870337637765211,-6.832486463523061,-10.997694074105539,2.247159701522605,-8.113551711797047,-0.11851529566701852,1.1156539366732203,2.741158565727085,1.618438255379306,4.240452460355403,2.798014885431268,-0.09169217213482916,-9.765502473219572,-1.0963694055132274,-1.5416009870738838,1.0017207231925926,-1.4857751601171083,-19.003941558624994,0.9490891891127632,3.7371824338982984,-15.672761941535741,-7.835902355115515,-1.814356325282354,-3.587766464730656,0.7583859892551192,-5.392235872161438,0.13071113068657725,-3.501258443902618,-6.70262690364828],[1.9643725684583788,-10.18229935172436,1.1186799770784135,-2.3628713739576037,7.7885333518242295,-2.685808630371307,-8.96073058265441,0.11381566400336873,8.730448725819155,-0.5920577318384286,-0.37017387694660964,-2.168497521209882,-2.881732763659305,1.4739973361148893,3.130856615794872,-4.181137947865522,-4.256073258792187,-7.869808770313861,1.725080052963882,0.5851384262488182,0.3266559759867018,-0.26313547470711685,8.617931933992203,3.655082221154319,-5.005808822672836,-10.58528704437294,-8.790502901303354,-2.1804055500313746,0.5338205977941626,-1.3841543241160892,-1.6300411353050417,-2.7205980046044704,11.746474261391317,-1.3431373614441666,-5.635614002876746,6.77616058292057,-13.477029589305488,1.5031322404833807,0.384213685219711,-3.284965926514929,-5.5494070904375,5.626580616915342,0.3697166852106194,-0.40600958891055405,-2.584656261177225,-2.972850874376223,1.8687157393131146,5.242243561434837,-11.763313076922419,-0.28382412238901894,5.128981128394912,-1.0821387673354472,-6.7594180081939514,2.936476044353479,6.1672876503247,1.9135186685356873,2.9516770098009726,-8.312421935390304,-9.17393470016315,7.837972951839525,1.351867420997081,-4.399475229344279,0.8674830697051412,9.904979996237023,-1.1141408668664234,6.452725380580563,-9.766947039724071,-1.83007598914209,-2.8887637980382808,-0.6601626258002928,3.951819472758724,-7.1427905296621095,1.8198353924977517,10.564259301976783,9.350093439542587,-2.683616570068306,3.0407524579048415,-4.385130881631516,-2.2960032821224594,0.7761376803972129,-2.204075422105782,2.174926576576026,-1.5074699075141247,0.02450521466346072,-8.233024128590266,4.00932687827699,-0.09286080894463444,0.5273204697191041,-0.023252102029161503,7.110659778001224,4.900367781033598,-0.06145508224758123,2.065516033354573,3.6622319593103914,-1.603041501571651,-4.558683711085865,-6.694503099080828,-6.879785223927773,0.5880689629175613,7.53858641922916,-2.932561966352425,-9.434566800324712,-1.455547217009229,-1.2351366872630416,-8.151253074691072,0.8599249075120073,5.595941501601137,4.462513855078772,11.395821225001164,-1.1588649806955775,11.358633463088733,-4.585066271899147,2.263493352290548,0.21862301035447795,-15.575584128872851,0.7211268123298065,1.187906294235008,4.263972977646031,11.144809754074423,2.3122967466481694,-1.7284211793234894,-0.6765337115066772,-0.07508614441041428,-0.26191236399681506,6.230693938621053,3.7306858709112882,3.3661460045250724,8.070998878576763,-1.104201112059715,-4.58375912979199,4.435805115673053,-0.6040478426482594,0.4252457726302983,3.5568611622963853,-11.161311607844327,0.4005590941862177,-13.502899406502978,13.126159868008324,-0.24950756638312144,2.82154849504139,-3.5841310364886896,-0.5651797127545208,-1.0080604051092532,-6.38352873444963,1.922683440474359,7.029771317829934,-5.633538817570271,1.991990327819023,0.5513812778004576,6.970017972415288,1.3488463004661009,7.5429825289574275,-4.723849848870091,1.028210798930153,11.033043683716306,-0.32687010856622134,-1.1475809234694943,1.022603073787275,0.18660756726339367,15.28930928607337,-6.290482418254864,-0.21809187787971734,1.6039870500681048,-1.9653733981921917,0.7571884337012496,17.331237370099643,1.2512536550542255,1.3106544986031725,-7.602713198845947,2.3219192686743595,-1.5705199602625812,1.3105261741314553,-0.8237577371579003,6.5113745378701635,2.6178059443784676,-0.31756487506286435,-5.155674100059622,-4.54702040903943,-6.851815653339743,6.258477938816204,2.6930309418724283,-0.2662975045465452,11.138385963622616,3.0772042571708043,-3.946358163243888,-8.65937619746455,-4.558145791404716,-1.361579922782381,2.4805384808781232,-2.396531557105794,-2.3583951722238297,3.1064936914962127,-1.3785614530318782,7.717416250991864,-6.42690684050964,-0.00410920022871647,1.2810867229799616,1.6246855747676023,2.579550271390086,1.512636500214951,1.2045169574076922,-6.659284906035122,4.973266373363824,3.4044407049530463,4.042604422601563,-9.382378881632636,-1.937426434390297,-0.6868502084314785,10.146171991938346,-7.686740492316138,-3.2413367119123477,0.05472531880559739,2.460880663903633,11.588310462172302,1.1083102960894142,-1.6624377678245734,-0.5959895359354981,4.055619339594462,2.56252687319059,-18.626073673792988,-13.030465519488988,3.2194586238519287,0.01379855713137168,6.674412526154733,1.389000612077657,-0.3124885956355343,-2.0201659172299014,-8.257744486182768,-6.221262842560183,1.8038637987636463,-2.9020056953272166,-2.8271919332164064,-2.15709910525703,5.625075761151954,8.555687680186622,1.5178427148844817,1.1604729486514327,-2.002595695774084,5.770077191890454,6.1523667061023675,3.202032832573039,-3.8815361854329176,-1.0893387547630158,8.782807064808818,10.869357222189878,-1.364832104006004,0.18960781547335592,-9.89832832558465,-4.2552136761140655,-14.085767446078147,-1.530887545121951,0.055815260160318514,-0.0060529103099946635,2.0722979018930126,-10.231637118482922,-0.39510768369894755,-12.191525429676217,-4.195831614958519,-6.741132750383017,6.840376158809784,1.6291992868194112,0.21273602265000802,1.7156763244767286,-3.604307062804116,-6.495075800423903,3.2440826183424982,24.94801960786076,-0.36751003360453516,4.7789158070830595,4.268594119795223,-4.108984866486333,-1.7779525757752568,0.41839285081452116,0.22834627014733,0.3440006657760325,7.253873133331286,-5.873628344991927,5.0247826499695405,-3.5721681870867705,-3.4926553899957375,-1.8657094161082544,11.722418675067244,7.008856790908173,5.750957810975449,-7.647366074235801,-1.4921570904871366,1.635884025110737,1.8690856208482178,0.09822890949446285,3.0710412139976992,1.0342783689491126,-18.288489003780796,-7.08218783853683,-2.5470779561976085,3.5827506986947544,9.535740882802681,-5.1992988421752315,1.482632951273839,-14.43067761417138,0.33077642346768743,1.7864637118087847,-4.555847020954305,1.0981407376841696,-1.1442493655313397,-2.333794129251949,-0.4264726300804552,-8.30594318778889,-10.245681590195602,0.8004125423340902,-7.566857484177797,-9.196892723601739,2.7221415118367993,15.95276384697468,0.08255033004140089,-4.868316112461031,-5.725153107358353,2.304793066493089,8.383808005569197,-8.517854519295234,21.941053709697478,1.56368082276065,-8.153299626365005,-1.480711751646339,0.524603062244021,-10.111083539541156,14.145685275778225,-0.6897352999422314,-1.0130880072882222,3.3331468337621546,11.497290545120896,-12.109260442842714,-4.081182818376298,4.827841085761832,2.3057334118500665,-6.464547153625924,8.153395553593356,-8.205755890024484,8.348989083933668,12.9399846201905,-13.31103400883055,11.023343757447925,-0.3816366452123512,6.9036092913490865,-7.168924690918772,-3.421655054684684,1.2366096930055046,1.1213594588587315,-0.33636058525805596,2.9072757195585868,-8.062933405000958,8.556598210099695,-1.156244014229007,-7.201772963320331,2.8274516526859808,-7.3441158280786425,-9.89692257753408,6.278831121141538,2.3270885628373916,15.952381132380609,9.053885121823209,0.07099029158708145,3.46994365519098,-2.2453404143711437,-4.215087730814128,2.80474059252549,-6.253174815009556,0.9912068161837012,0.3032360938473915,2.2645989137380296,-8.3422306798136,-11.466664850701234,1.6083671561301625,0.5330094319603544,8.782819806973674,-1.0586545637375453,-9.002784985265908,-1.2865640654418078,3.169439596992291,0.16363446895079692,-1.5679191143349627,-2.1693781805946495,-11.341104688520456,-3.404504091725607,-4.81223909945257,-3.4127857348659814,0.7978840548586135,0.2664833043273096,-2.8615525732696856,0.1945623152164102,3.1730602269090147,-3.6717563576247567,-4.3585471203737365,-3.0169878265657273,2.786878738820826,8.6490056972761,-17.184577609002318,-11.143776154484938,-5.995420931784697,3.133402877813351,-9.640708341356131,5.649253414518594,0.0679771075996154,-3.2456608442756205,0.845358775396547,0.0210809149037664,-0.1422151903486067,-5.377828298989814,2.032759051492731,-0.38379750695015247,-20.88388175161961,4.37075189715792,-2.012352970042351,15.9274697360155,0.3247479546831389,6.6621675382059955,5.254879483076065,-3.9905319535777153,0.47809956032472645,1.230088472411989,-6.647373602919021,-2.300068549312284,4.3086840407095135,-1.6013503691402153,8.753841517877795,-5.09539481662517,-10.68442511092544,-4.732714060701985,-0.658405125189596,-0.027627314815941828,21.2542905485869,9.336157586268524,-10.687549817389797,-1.412415438493865,1.5680898943495087,6.951346536455187,16.80431815379928,-0.06631152603438117,3.028625055533052,-3.3676354805320075,-4.298742858841518,-1.201215129331718,-1.5439848968761938,14.048248020133615,0.7822180815559383,-16.744617647989802,-0.9559400505505748,-0.6027177465265801,12.219325107415987,-3.2652779878587896,1.2188132380187584,-4.822867566856866,-0.8481348452802315,-0.3979477948753236,-2.3882726065992608,-3.8442413425478534,-10.994837068920038,-1.8277890661276066,4.351629684356681,-1.0863733438102936,20.0281879894334,2.930071696927438,1.864752575967846,6.447607537172472,6.2414428311865136,0.7352213363289357,3.9452497335445953,-1.1268219623231497,5.173917584690965,-9.78780551477021,3.6523079439757375,-2.044583576801319,8.053413043654308,0.1590446888982916,2.9205528992748953,5.034480751367921,4.719116758145965,-2.203908623856687,-4.875678117987847,-14.063941959989648,-1.7161650010942586,-9.614538348666594,8.00669819513234,0.06194487478067778,-2.5313440461107932,-5.8541489627438885,-2.216035395644397,-7.044983878388683,3.965155511909642,-0.7408341449406701,0.22728178642888475,-5.3319147659485155,2.0501878512082228,3.6150627491424085,2.039238889199091,0.7091330690670201,-0.32167842373942623,-4.4577271173346364,1.1519718750347208,-6.005784392172032,-5.368758815229247,2.310839088786667,-1.9373449644060226,-7.297954827976216,0.8268083650791794,1.890499842295311,-9.922393812154713,-6.894403516278794,10.33207362801034,4.473472246187411,-1.5966429255593693,6.668169796958413,-0.33790161254116347,-7.156835495096129,3.9267604611058444,2.169107719592877,6.78590857819696,15.517394923352924,17.459209898648137,-4.604168048464741,4.641233734966183,-10.674230023131228,-9.585822545351629,0.890358869829748,3.311314972398577,-9.164018369540127,0.8160379191473293,-5.32911339486928,-6.659652371199329,9.73647996194497,2.308147589075805,1.1064689539653167,3.578881452147842,-5.01610263124133,3.202486149167951,2.2672843426319003,0.9129013387893857,-0.8601553621648059,6.764353259944363,-1.3259138376599968,-5.7881146556592675,-0.43405151035585643,11.357182920485197,-8.98462356060341,-3.1264072512637933,-21.970285358318304,-7.8919852725282205,-8.10448325535744,-1.802710472036925,0.1764613017771397,6.016256599877205,-2.7854062127699613,-1.4794878059213623,-0.6167809087786184,0.2100541243817271,-1.6457566230280443,0.5248698508879324,7.4374935892182386,5.822434731351365,-3.1924607370790525,1.7954963689317474,0.8388872257697162,16.299222815858812,-5.978858989173311,0.6673301403790857,2.4497024904698135,0.25365432328911486,4.091049757135357,-3.6297491993819606,9.033861125946373,0.07316514385901551,0.11554831022771506,5.122346396144376,11.121808819369372,-2.911685142498296,-5.2088990032598685,1.6600449131014159,0.9275135303346785,1.7114434226805866,0.5006644179930735,-14.478480395831165,-0.47451765008799757,-5.215394407117829,6.653727035599228,-2.999868740335944,-0.2165475825086136,6.163704523918564,14.136052959983436,2.8417048068538318,-6.3910726392997175,1.8037606738551653,-0.386088670663045,-1.9833901969942338,-7.6500410702732164,9.403594540960892,7.019149528784412,-8.544873704694714,3.720420887641893,1.0232738877934995,-1.483437509370227,-14.4632780953409,1.6603683701331464,8.042473106980927,0.24334550338164118,-3.1144598844607208,-8.426050890985852,3.6121201456046066,1.1859516552949536,1.1228634340763861,2.6965335086243463,-12.115853253172824,0.1004158882380588,-2.7041716017939113,7.43712069517688,1.227883783311239,0.8832737833567104,-1.4966300761026567,1.5434005232598877,1.9312753605607713,-6.684767612222933,-1.210035188428514,6.5487732862756305,7.058343143985161,-4.806653261523879,-1.5708783658591061,0.27421713613661103,1.9093787160763291,0.8219095220010941,-0.9126219567533422,0.4211668668807693,6.350702511350947,1.3914727286537711,-0.9343808201057668,1.4439347773002496,-10.951792086846249,-4.053040278893456,5.903219068762462,-7.623304593420042,-0.7851370131711102,-13.463218082008162,-1.6259661348186216,0.9091423281262484,8.23025705695288,3.1823296545901036,-1.1385118043856415,-7.881642334693099,2.462544601066047,-1.9918937047344087,-1.6662791026332506,-1.9943382077052205,-7.327575994465484,-0.15789986384407695,-1.7897169542045677,-2.0451159381708925,3.346443789289365,-4.924577679642419,2.8293916226714217,-11.167571468271696,8.528276491576388,0.3963739353117166,-7.795834310750369,0.12150873266649043,2.0583308099949416,-6.23612525348131,17.761594424851122,0.044627419562433435,0.5514227635810127,0.3314282720945042,2.5664465942280437,1.1459952968653604,3.521558292275662,2.655971535491893,-1.3433559658167848,0.09888084883919346,0.6802178992143872,6.202860764824174,-9.576971466863895,-1.674220766470224,1.4810082620012712,18.576315133049462,-1.7662437258059793,5.614499483861641,0.7115611718620949,-0.18265985835177478,-12.462741525834037,-10.287023414517328,-1.8490199975488064,0.08221957024078086,-1.3558940877244579,-0.591923928193929,-7.286266115178625,-16.989900931613963,3.774902616115962,-2.5310105680221255,-2.245683492219335,-14.642775570709093,0.2523200574055673,1.373115457388321,0.581427816790729,0.17360826128918738,-1.74380997240717,-1.9186164570491564,7.53298561899231,0.5697215027104416,-2.2575327461395074,-0.6111239988156061,7.455098781715892,1.1164844620846268,-5.543547127588314,8.947100951634983,-1.898863285768564,-1.0588422381734517,-2.130297975637348,1.8317582613851746,-0.03564020127025702,0.9879173584034937,1.4236042295503282,-3.78550604763443,2.819582450056301,0.5634341805437844,0.5494750832471864,0.27155991787884526,-5.289328071672578,-8.802127505381833,-1.3343614625921596,-7.053386644646301,1.3084542473461416,-9.922197150084406,2.140356397266877,-2.2326039185015056,0.8787151096881225,1.8659155589890133,-0.9051758319332075,2.9921133790563488,-1.304124494041297,9.479147111558042,-0.8222525135383958,6.710049047258286,9.275575903182858,0.5947188927892433,-0.09228208399244275,0.27621152022584894,1.7143125525225535,1.7035692222684098,-8.575704468672424,1.822588410295967,-23.24504331906946,-3.1161321857501076,-2.325377051159377,-17.890998070920823,-4.114926174924433,-0.9676140271925123,1.6706960484217217,-1.7035697821156137,1.3092022072645304,18.379501871930266,1.2612909932510552,5.4502589045913865,2.4908659262159465,-4.834942044109887,-3.0089564742094024,1.4997194094314308,6.996432660491731,5.696282112566858,-8.018201066330553,-1.533464498879988,7.690141546619499,-0.15539072343289045,2.290904178259365,-1.8493199747389135,-3.7700503346690866,-1.7581624116714167,3.392964068480099,-10.042947129984373,-1.4946896883126128,-9.42810623566824,-13.167276090139993,6.269193526342276,3.2441949950082005,-2.783600301142979,6.3986603805167475,-0.9663647973291489,-1.0964171903996207,2.519629063746205,0.791719656855369],[4.144846622076924,4.289148710507115,-7.940653173441554,-5.107278650197619,10.250715256230436,0.6007677455791971,-0.8843273334842601,0.9419912454982765,-11.574985686137909,-0.020271924245024442,-0.46348431038895077,-1.3225109436241558,-9.063062410119798,2.4526165513549567,23.343096996143007,0.2570256941851452,11.890164543775915,2.170484844840261,-8.001567601059882,-0.7974119707718543,-6.511605143017112,5.543258341754058,-2.689457189118456,0.2899064651250778,-12.830831700464676,-5.262317537007942,3.524183402135405,-8.63330751079706,10.7859481295589,6.888598960946899,0.07340042969294336,-8.49957815881825,-1.6745985334324942,0.8958384884203319,4.150923206390646,1.8880918440861651,0.3273920989582022,1.3088528910641921,1.139396095599106,2.233632206201468,-5.375193335074233,-3.3610241657542046,13.500802825812062,-0.27117234705296195,-2.802135454222978,-7.058305685318002,-0.6455568596215131,-1.1988504706657919,-3.376463130969684,-5.6603683941685015,1.661772003998126,0.01013001522042778,-1.3054626343317293,10.334548674319803,-6.259414955163863,-1.0954319451693062,-3.770761786483587,-8.057157767506464,-1.0169726101768335,-0.826183080504296,13.165084422437177,0.44376985411033276,-0.4830745472647435,-2.415358568999297,-3.509982490024944,-0.9247665345006446,-0.2435690241028543,-0.8353141152120099,0.9827794318011106,-7.817140009214178,1.5094056359953765,0.22620690556267653,-3.919643883800699,-8.850536528241676,3.7102934301299015,4.674836672873394,-2.5695400952413845,-0.2684367185676997,-2.4790662298733945,-3.1829581641137534,3.5945722188604856,-10.21737601247479,-7.299547032693585,10.962908407141269,1.5724875016867985,-0.6986756625692119,3.06118895758814,0.5898542636900578,-5.440885304911295,-1.372967057016004,-3.949108531016899,-2.5477220518765993,2.353519520781828,-10.543419586103402,-10.295334908079338,0.6206420046872663,-0.8086920767236969,13.162188228491985,10.231806567723972,1.7996130295235022,-2.933302403456843,7.501364382166276,-3.9195910011190858,-4.250508770528338,-0.7409284496694668,-0.6081808434007723,12.017343414404955,9.175988223388657,-10.670738276301677,0.00064185974733455,3.37143693962208,0.319531729117792,5.69563182002773,-15.770475323197005,4.866514416140336,-6.395475613048243,-0.3203400849156248,-2.4826177953819037,-6.041167233475612,5.583204268969438,0.9101477728208427,-5.468951590618701,-3.2270427897488596,0.5134257373561131,-0.9509975200982378,-3.679124637660942,-1.5727930788592366,0.9122484149645533,-1.8730102756563827,1.281028223651656,10.306154297946408,0.4479977870832732,0.6389617444892094,-7.305507114488842,-3.3374418886176356,4.470654579930197,-0.8398436333253256,-4.516483540581442,-1.3211931509664885,2.1460656949399457,1.7683619045272991,-6.530786137533845,-8.872334736978482,15.948806640233695,-3.4819639163071074,2.137342754110003,-1.276075862250978,-7.676949845688512,5.4047031607431215,4.491661419515076,4.7385660163488685,-5.0213447287062785,-0.692829355295359,3.709576511388274,1.5249876217281697,-5.793466529821181,-1.5563754881430367,9.082938687138416,-8.541198516883584,3.0809011153566,3.2987587260954565,3.930950686277,5.895712880147352,-1.9434425851990742,-0.28427904703731754,-1.0652680563044603,-9.443483591600234,3.284676228983622,9.421392916209713,-7.093229815105817,-0.7568959708448344,-7.161046785988346,7.4984708614927715,-2.4658155886974273,10.2407660079827,-0.5061796005690685,-0.7805173247962218,1.9471923654447136,1.3910238303779325,5.920523030858938,-1.8515232293909158,3.567729316136897,-1.1704516271852348,-0.830614526072472,-2.4221452093957336,2.0724901598292407,1.2325029980873992,3.356746199846348,-7.616437836581224,-0.31947690652143057,-12.662104864446947,-5.414688377044697,0.7179284282963416,-0.27161268849151554,2.3087214982480586,-8.143322856281351,-3.4989201550514233,-0.7050944178045206,-0.6823898663514378,-0.1799684377002615,1.0192039070107248,1.1178122490971623,5.288070480738716,-1.8235062225025462,-5.214561366262429,-8.733106473816832,17.76321612632525,0.46199736052327944,-6.675238119105654,-7.834671821879814,-3.3489880877908407,-5.341777219632459,-5.515059536998048,7.31131942482778,0.9989985456404573,2.3710468003137057,1.7500229145919421,0.9146009264544124,-11.540313482057034,-6.547409309469118,5.2780126958867,-19.823590489185296,3.2728091248645192,1.2466580432943979,-2.3359570838102446,-1.5618514181934935,5.656275839839379,-5.936684156710265,-2.3167667619994536,-0.7737873501943466,4.382734750703813,-1.8471813037584783,-15.744445026709435,-7.6515246447830005,-8.527085640313876,-1.0117100863552448,9.241903158451658,-8.379034236030616,-0.6698575193812393,2.3566180388795157,1.407068542924754,-10.61241570273019,3.3615261330820765,3.727694986935422,-9.71651340407744,2.3257078058968865,1.5080007306100938,-1.6070762604647242,-0.10458814231205249,-8.30448673845942,-5.689461354916354,-4.736864387606484,-3.385719300076561,1.2773974596703297,1.4076434493203331,0.7179097758111265,-2.3016135041415895,-8.903258531379121,-2.7581463103972514,-1.7091409771924146,2.306425366458283,-13.526483140367176,10.509208931339936,1.7568054023755049,0.7934935512366914,-0.3047516444522733,-13.21737409958694,1.5301250872223586,-2.5515320900666523,-11.855647802868113,-1.0620748728171518,-1.7032970778311025,5.02375275907503,-2.4658004724156672,-0.9714574331831534,2.227792123849931,2.320029355254908,-1.4330038870679662,-1.927816518917385,3.705413612851152,-2.8262897524592647,-1.5044239775984372,1.6729103376793684,-0.644844987546153,-1.7515272166782374,-0.2899207496148981,-10.827437685088533,3.0107164931044093,20.054704589713552,-1.5836434392959715,-0.42585342298863194,9.587636398808506,5.043414596674168,4.730800259798226,1.4567340818460126,-4.9723746967482985,5.963650178449027,0.14232671220194593,3.6671642940188782,6.578190949362568,9.413778903042518,-0.3436008494762035,0.6420296862699755,-5.576396437993585,-10.465762066126215,0.5698837791123892,1.0934220757316764,-4.561555239454938,-7.5075212455015095,-8.282570825460121,6.253793649204221,3.2200440033413855,-7.417412329526513,19.34796313261574,14.655973711118127,5.871975794874066,-0.2725300695559606,5.152071566099929,-0.34179178385923836,3.1406869957829198,0.4201072046994434,-8.869566302860076,-0.04162530734133807,11.171494052791898,13.746213715245137,-10.796539475615667,5.15824641765667,-6.57475234540826,-6.167530436558802,1.7790640885755402,-1.2170433380376993,0.08976925729688379,10.651080435553666,-2.7341839870508817,1.410388074216704,-14.068527112734559,-9.223165779818876,-1.4331885462026803,-2.7380947217222955,-10.944925332216787,5.69874142254211,-2.630348106916175,-2.2915382653842133,-1.0273688277617832,3.3734421043241936,-12.913054890351118,-9.515090655608352,-4.338401884371972,0.8387695223271328,-1.609139679863627,-2.1788015163761596,-1.8880911215887028,-2.45918589244339,-0.16698240800814057,-2.2876180689242096,10.481139226701881,2.1157235800686367,7.1171451316180185,4.146220453310116,-1.7059443962056058,6.930025118462316,5.590248969019639,2.1989192855859105,4.777773471860033,6.011879293130059,1.608349311353742,-1.3095177039102133,0.06352720683016155,2.5594774323931686,-5.5810077312005255,2.513497244009397,0.5361381102638584,3.2049061286053533,-1.3939452357984385,8.656665099464696,0.7446888364853685,4.788453774940959,-0.8057450396061836,2.4622030830814383,4.123010804187481,1.1058404501938566,2.4722980470080937,-1.3775027798387285,-5.94822641005365,5.9424160276016105,0.5996340439674448,15.242779190468024,2.7003322073898,-9.158516022225479,-5.619484182970779,-15.561584163742666,0.20421212937800565,-11.21697438406709,-3.3189145818965695,-4.122594137316711,-1.9397721026721682,1.0455984016151634,-1.0981814881018923,4.304629504048198,8.31516762225414,5.091823762408964,-5.046661237846358,1.7793445247966857,0.5738270087464217,1.4479327962452277,-3.688159216916957,-1.9625531876244318,-1.5754864731234384,10.921577658698393,0.23295860284891723,-4.1620248461643845,-9.571798719668436,-4.0697283471279215,10.708562123209049,-3.3340814683761293,-2.6697996189507736,-8.168392635602874,-1.781452710252612,1.2105061928437217,-0.011945937524544314,-0.69600085325778,-0.9311073105288825,6.325921898817477,2.848140398019579,3.8791873313392715,0.3168666918911648,9.133200007529227,2.0978647149574634,-0.5873613172721008,1.9138614310777307,-9.417866320995184,-5.019928887550439,4.294584246218732,-7.321118790933424,9.230869938933248,-5.223738315697603,-1.1682500069397972,0.47246629814053565,-9.451262178282098,-2.721837898798076,-2.2910709244341967,-9.35275792211843,-1.1758655720833424,1.5625170883910147,8.573373992638576,8.725095272993556,-3.0663961703696545,-2.721560238361997,-0.44923035343949014,0.27626658064174325,-1.8225790938265343,0.7505350631035852,-12.70885809507018,1.855931348941069,3.2117072344792383,7.532929860063907,-0.4104417287529807,1.027404874304696,0.917510867475641,7.920996797935389,9.543350233058524,0.9276325314299199,-0.47129607738060564,-4.013524522718945,-9.26525215841114,-2.991656059348876,-1.8014200922132257,-3.28459751784,-5.276622657164284,-1.0100631306977554,5.8586639763560235,0.7850398304545152,-0.7646637326546113,-12.751565522632399,-3.0562913682983783,-0.26596267078695957,-10.514219201243248,-0.3022428238795316,-2.477248494145381,-0.10219751137483701,-10.31975897728745,-2.2340919072028793,-4.009478704660139,0.3116296255838201,2.4155408524985056,1.7508348100232598,5.481719257079563,-2.8468294011000004,0.6635796851234301,6.224615989298806,-5.731246822019978,-0.6552073095449731,2.9218571580665644,11.991383687101672,-6.52725436250972,0.5411041912697065,10.661170037877433,