{"biases":[[[11.200000166893005],[0.0],[12.360000059008598],[9.849999822676182],[5.02000005915761],[9.299999836832285],[-7.719999969005585],[2.1199999265372753],[-1.1500004716217518],[5.089999675750732],[-7.950000179931521],[-0.06000002101063728],[-8.190000399947166],[4.900000035762787],[-5.110000027343631],[0.7400000393390656],[0.8400000222027302],[-12.380000159144402],[-32.57000018656254],[-0.46000003814697266],[1.5399999916553497],[-5.260000180453062],[2.7399997115135193],[3.949999997392297],[10.580000162124634]],[[18.42999992147088],[3.159999979659915],[9.020000101998448],[-12.909999780356884],[1.1300000548362732],[1.07999999076128],[3.3999998718500137],[5.079999992623925],[13.000000089406967],[-10.600000211969018]]],"layer_sizes":[784,25,10],"weights":[[[-0.4746981754314896,14.893450945253301,-5.59214116881186,-1.9773891482727648,8.920200812624,0.07168675007782799,-1.0677643721993473,8.76752945090437,3.274489289693132,-9.151526323564298,1.402788475193458,0.027429604901343108,2.1943184230927693,0.0016911367922027853,-2.345430153662206,-3.007144798537267,6.3369371437607995,-1.5845561875817724,-0.5804874843171893,6.299319173555622,8.063438607678824,-3.108333737906375,-6.00364538505856,14.897280333543527,0.5563227485446895,10.790075750252544,11.911715338426426,0.4524640557206432,-3.731445832103097,-8.538389064967813,0.8216563314045229,-10.641301129595488,-4.879115706976409,0.36467365175752786,-0.07886157145936451,4.429020169752412,0.8043522031994903,-0.012391122869943594,9.048792404518466,10.775873847202801,-3.1957349306771956,-6.753270402998391,2.695432737798525,-4.38365366411425,0.8021894457684575,1.0742047305093094,10.699472575561401,0.06719476136517177,12.194325635892994,-0.11671579478387617,1.0838124717669313,-3.9559115592670375,-0.24319720883160922,-0.20743945168153133,-4.971992515792967,7.356155553600342,-2.3727097213601027,-1.8881632748807218,2.508491807472838,9.759582184128366,-1.1977827146908144,-0.19769758613032007,-0.9855603539323798,1.073885362120097,-0.3595724812721862,-1.43624765238933,5.821770742901743,0.9507601164414189,-1.3634049420135805,-8.637608809220012,-6.109421438108701,-1.394406380699924,0.723743168947605,0.6717842606102464,-5.877583952090755,-7.347284645005617,2.418764683712654,3.917813518676891,-4.997243745414129,7.729684361979206,-15.00586986701654,-14.308363467307984,7.963746157295921,-8.328493877533894,8.239005039085628,2.133143435741517,3.7096081638950533,-9.355702540038038,2.0352734781287554,10.8301412203523,-2.775050673836448,-1.242029379131942,1.7985199198159518,-6.076956958255252,0.6000719834195665,-10.35424276724697,-0.20063973791088152,1.3386660596381788,7.315867201300545,-5.777540762499066,-1.4142511643856661,-0.31338094317136855,-1.80450116346443,1.2311803991716959,1.8937703771893744,5.659615164284401,0.7483779923789318,-1.1478032559469782,-4.903280567168771,-3.540652663338804,2.5796949391086046,-0.5398475695995852,-8.294341634117767,9.013313475017334,5.97574304669096,1.2909598163831293,-5.667771700302978,2.5724712526923446,-4.376859794462469,-14.092865900385942,-6.200380109501983,8.840521000978809,-3.897142214479,-4.455967189026786,-0.772727668217321,8.592462112033262,0.4481752940777852,-6.327654105715869,3.7532391154513,1.1615449560367517,-2.021429411988659,-4.054015339729631,-1.337721840926681,8.204365864795712,-6.966659591690487,2.328808170706554,-4.8673836510843715,1.5927004203243726,-4.502051005748475,-3.942523124421142,11.681383237716307,0.2899147043680641,0.2585031225862553,-2.0243612319741002,-6.452762522995753,-1.1156363097369535,-1.2516447249433387,2.8571259257391617,2.2558299025130046,1.4809121068562479,2.9071995736076035,3.8395456387697866,-4.310537447089134,3.6915002350394057,-5.666608630823606,7.432332185322984,6.6711923323515965,-11.28656718945717,10.371155612716223,-6.441924123968127,-7.185380966067374,-3.0001046632233557,0.890226451587111,-3.598326843583129,-9.876448873042992,2.374051918408912,-6.848660499674235,-9.425486930891129,-5.638191483342258,-1.5297202372109213,0.550376718337974,-3.7041453984005344,-3.2857433350992045,6.003045761747842,0.9882307380835371,-1.8560575046469534,2.474825079185092,2.499662748439644,-4.013547091042373,-0.15770160771745134,13.150768039070993,3.096752632218959,0.35375444812587675,7.205134391237513,10.046298729904784,0.3199906189316688,0.5428425150379326,-8.084909282759122,-3.1786048295715723,0.14785473062911236,1.2776244155311893,1.6080190967464492,-1.7058978795305613,2.3030354529139525,-3.1666471487490098,-1.4912575384007267,-9.614613242584046,-8.012667301213792,-0.3083082245239943,4.758898192393639,-4.290923633573608,-0.6881294997216316,0.4806371870116348,6.342295016575803,9.741296113523795,-12.797423618793907,4.330963925212628,-3.3211943519786162,-4.145680036598796,-9.119914837045686,5.788094844736051,-1.205195929811108,0.6773910296168337,7.447651628174193,-8.369333725927252,-0.1128041645624629,-0.8528050384901243,-1.7457225445914952,-0.055039290616039294,-5.8287737558698645,-1.5770964540243808,-5.683442255856168,-8.233435867099987,-0.7224033265273491,2.329288930097195,-0.6368926539779403,-3.1804616005685284,0.019307124197236014,4.853372122043757,5.7632403078091325,7.787362136359583,3.1857271457067307,2.50972024645783,-7.238332291606405,-1.469811950305859,0.360067424072633,0.008547457833698313,-9.287814351981986,0.8614045312930623,5.910481030482332,-8.679031618755157,-0.9991265739668231,-6.548294640941256,-5.321681675203516,1.7022073248408804,-2.011856749120823,4.663037270359556,6.558810491970883,-7.881898119861658,1.554992478011477,-4.605297900920176,-7.942151672499584,2.744569523441596,2.2129588868517036,-2.4712398131733986,0.48665532938880596,5.219453408275649,-9.741543343944727,1.858142157731826,4.671340171735071,2.0364387221224587,7.891222001151064,5.083298823978662,-3.239090921402699,0.25425982014067494,16.510251173973543,-4.288051421930392,4.913259942563751,1.437764474747068,2.216611395227406,-0.23202500944118176,-1.5696245259437673,-4.821254753098529,10.074219392342446,-2.368209433308275,3.205804015691445,2.312588042383794,-0.7064903339935944,7.824255961335652,9.317389613700623,0.6804608691091254,-5.26768803614209,-0.2675617440712874,14.321950498481506,-7.0429410664272645,-8.845767123554774,-20.607493192059117,8.286425505962466,-21.279993066877644,-1.769523630794204,-0.6681434494411749,-14.718225918147374,-9.690880916930213,-3.4874155314424655,10.630044615969116,-0.8352009652616152,0.8868470151848484,7.138986863039589,-5.742506241006978,0.326867070651502,4.115059136872201,1.0509702958393135,10.710898838355288,-1.1329847999500142,8.629176629728816,-2.8705208775839584,-1.7141916965971182,-6.391013422675965,-0.996056844163012,-2.4904551000593025,7.951370018551252,10.661679664716088,-1.310222748070164,3.042408721237823,5.529571498840701,2.8707496797988425,-9.322295523898967,-9.374613229546002,3.520758235972858,-4.991517850796793,-7.082125611370746,0.2063258815987521,-3.5726953063504068,16.74342287541966,-11.206993375826205,-0.3062490455024578,11.707210018795275,0.04200922236435656,0.7198004732766847,-3.8947939428896396,5.039621596936797,-1.8260255347485905,-3.8249462784537585,7.346164107149906,1.496488988562973,5.6559177787247314,-10.113807261737614,8.267382028405528,3.4775092260186145,0.23531151755216584,-6.386919835986195,-10.521042514613953,-0.14773598318507108,9.138593704637975,4.954751376975865,-0.5360318923366245,-4.190237923935682,-0.4506836708387494,7.71135768257307,0.5988319563167659,-12.702409814800317,-8.224075101581061,-5.867559883518951,-5.290528337227122,0.9840139076342393,0.2591109023489411,0.5222758934867651,12.64780047326962,0.5492565377448347,0.5151309196646329,11.487098235426137,-2.4121891118862795,-4.136625340738251,-3.4233477562195027,-4.033413459478255,-12.02529429521741,9.956129435305662,1.3370553340131357,-0.0674444794139295,7.160252997938707,2.6500409918849814,-9.909507307227464,6.5228770246964665,-2.070336576041202,0.535947302816254,7.727710011489229,-0.15485737220366846,3.9458242391383394,1.091006665687245,-3.8753256958654596,-2.4320980916884385,9.846449336180333,-0.12667611253121658,3.254446104827374,-7.620673761148085,0.04599842395087139,-8.247482776309013,2.1098961191387646,14.256214446810944,-2.330909575340493,2.0674877279986745,13.932140557312831,4.154971940582482,-5.02944109846142,12.624639658901767,-0.20438472574017008,-1.126099078857568,2.5585687151781746,1.1995607958317522,-3.1562053054152113,0.6479798834185687,1.559238939487908,0.8452588326740558,1.1163156146786237,0.6069469506490095,2.555275066159247,3.2340973412355196,-2.132001062731299,0.05049021620541483,-1.543546160418309,6.2045405163302085,-0.44565116425879014,-0.8702408714306326,4.642697149620316,0.27646897549038907,-0.7567896754897872,-10.326354824778077,-6.435950451853245,4.923342893850467,4.372047277583883,1.6624555541566086,-8.110776676203349,-5.8056750073759975,-6.5991754625769214,2.37020092027896,-2.659884430006833,2.335752846823916,2.015892789971988,6.8424439053130035,-1.152524753843749,-5.305808960184409,0.31832007660158546,3.6790676572990115,4.276532735218684,6.547467657617064,-2.0351640341988393,-9.330448054006824,-6.321524746617507,5.5004249416364885,-2.7424208273149677,8.330242079226267,4.514557914252954,-13.629609512430386,-1.2108845390271326,-9.28067620187855,0.28575056509707175,-3.2909835128388876,4.140693874355813,-4.0376884327899365,0.5025085272372185,9.151682113161336,1.680728363043639,4.5319681761918575,-0.23960792763676064,-5.1855819918837565,-1.6150366580321665,1.46430688329007,4.111017398888306,7.016482428664996,5.107290651614656,-2.3994044096099207,2.887656093703799,-11.482731264574344,0.5503640275853878,-1.4773383286431891,-7.716949504371093,5.250176660797314,0.0788406309502967,10.328682507335959,-7.472376070576756,-0.42697624568373227,0.8859216471690556,-2.024383896022986,-5.601132549191396,-8.30314848029926,5.290667162108316,3.347437091072773,-11.093613474457104,5.162032537394188,4.793648395194069,6.340414148161738,-3.212002084713143,5.978306435426601,1.6651776445913562,-4.731140675528364,-0.8488939093570047,5.3467664566378215,0.1823592398457885,-7.036236041672172,5.896617288992994,-0.14643515506591354,-1.253868337591312,0.9753365963921152,1.689314189814492,0.48628806836276817,1.1354674344334303,4.627016290541173,4.823925216904887,-3.696196414003875,3.488381324233403,0.34128920177939825,-4.9085841878282395,3.186541434954618,3.888842561446684,-0.18374456793205052,14.667288927935623,-7.274466393069991,-3.232108972141304,-4.877410411700863,-3.6427442131391228,11.024605607465851,0.15646068985337358,-1.6018708690071222,2.7769478918176485,8.08647981714757,-0.7092818416364104,-6.450082241586343,-0.5026295257022932,0.1965973393033036,0.4437542204290319,21.121205333318056,2.4891655076069212,-10.51853578504562,-10.820051589761594,1.1088329069572913,8.297352009174347,17.68825117631257,1.8682496182139938,-3.8092509637108156,-0.010654569308185868,7.228944639613347,-5.587067020229378,1.5594451257244284,0.8016962098214075,12.418297981972994,7.9433846623039095,4.998752607513461,0.644615670130042,0.8052384608930939,6.189987635074376,7.733703719408542,1.233517669968963,3.348294330817157,-9.944532129070343,8.319192224141823,-1.068146020908764,-2.2731694856273266,-0.7398111474044979,-2.287782585511831,-1.2368293775029535,0.16047230815032165,7.52601306232664,-2.201016428845536,0.9949901514554442,-9.504380845364887,20.18204580412742,-0.9542654380517688,1.884019020622706,-4.31939357834065,-15.605389194612108,-1.3283085189491821,3.12475941868332,0.3686886372077161,2.263170418906946,-8.409431787832217,-7.3840306953486134,4.68186558470545,1.9375395646718578,-0.9454286361623234,-4.138392515788183,-2.94041686903764,-12.136143760406355,-0.7301798638840957,3.74108095706894,-0.7582976945897562,0.9397102730993214,6.385736365769733,1.409179767366886,3.6655178623574862,-2.538483461163321,-4.033317925023452,-16.11150799823367,2.4103648150745682,-3.5404236073557005,2.665152227553828,2.676055720068937,-7.824394126538692,-1.3975310794242315,-7.39632002194576,-3.7451027498616654,-11.018402264476283,5.670893960674675,12.51006175922857,-0.25899439859107853,-10.901624418967838,2.642395021885865,4.731750559630734,-1.0715328137927664,-15.996482821140589,-0.8065983958965587,-2.054163227761075,-4.467429826500562,-5.445114264255613,-2.009849925260084,-0.9298423929845301,-8.457340116664053,1.014851028282068,10.039625226624384,0.4023094163092873,-12.06895300927582,-3.4754426355055363,-6.386938167773522,2.0469377087867002,0.29118491289769777,4.580910629042677,0.23992902382542125,-7.517148196117896,-6.388615350260324,-0.06979224148097396,1.3436485785790042,4.981378566208948,1.6909419235982357,4.222403553388231,-18.13008826583248,0.9286353242697447,-0.49907841061016134,8.085318370194804,3.7550845624382405,-1.869064348580582,4.9212887568267245,0.06283916383612487,-0.13828313912067003,-5.243543572590048,-1.1210578267218843,6.917538902490865,8.95656743356802,6.546797891741875,6.816507781658101,-5.430861986458407,-0.10598250002189036,3.0616210807599606,-1.86641802990509,10.632390885249945,2.061299519750827,8.108772239137679,8.979710564740804,-0.8505320713213167,-5.8144231558444925,-2.2724834295672682,-2.780012035163314,9.881353421860847,6.127951794438959,-8.940169616662324,14.877091486516155,1.2554924520939663,1.2633040941247053,6.511738573075891,0.12571524592436667,-0.8430988111655715,-0.5214930478717932,0.5732989511044073,0.6869364315178199,0.9204442600693645,1.6390455286300227,1.9429140553722073,-0.00432144601498452,-5.340886817788187,-1.2523386319571461,16.645729307952,-2.91585017637484,5.778062967997211,0.8473328962408168,1.3374368319585535,1.5893417397440701,-1.723682269869023,-8.359899106636789,9.47889427225629,4.732039399444683,3.647867815482712,-11.419942163606592,-1.676782127916819,3.2708227550829427,-5.267092586148358,-7.730532459311897,6.538627240005551,0.36156937849285864,-3.4655731743899847,0.6762501437789528,-4.9572621425305545,1.4507063100097262,-1.003050596417772,7.21611309491094,4.235240887399771,2.3550673469285783,-2.897537328899843,11.061735102664718,-2.194274406569685,-5.785421135023869,0.34517901703099385,3.011016227147878,-1.5839362599895077,-0.32725595890208803,-10.20142222122568,13.774953742682662,4.048519584504227,-7.330482853477253,1.5907421735516243,-12.111554924128427,-4.686864819102274,2.7555389209592436,-7.951139198631566,-15.271674230116252,-2.60456313619299,1.781268644251993,2.418268370745613,1.1861395070114948,-7.8499376783671515,2.0551960352280165,-4.8563214835456225,-1.5941640273536475,0.9601349558348522,-3.9269142818722624,-5.3575487729486095,13.597562977735086,-13.359041542356184,-2.1225298811022766,2.326365166894951,9.932447971981341,3.230420263881701,-1.6367066170073186,0.5868280312297812,-5.429769725137258,9.854761463040903,-9.644076881349696,-15.278254685646012,-5.390816981280231,9.814287629273977,3.3933439118275315,1.2517794623332401,0.9629218814249747,2.2432496726515714,1.6618855684454426,-6.963677782617927,17.870469035322355,-0.2828586675557654,-17.150136246661916,-5.016908870834073,-2.131329806475239,2.344237472319363,10.106426362541615,2.9678544019682045,-14.907376791875404,-11.389841548567379,8.058684845836904,-4.431788986852938,2.493707318063476,0.1383544671185023,1.6675901727442812,-12.550819668664232,1.6572291535609263,-2.199179175414334,0.30908904252989045,-0.9403806705745099,0.8217742855300476,-4.795288769526858,-0.9840374478708593,28.79897991124582,2.662758382094472,-1.758557565847112,-15.872866880576407,2.7084809448097436,10.389312601797272,-8.04214748575638,-0.9616125643243656,4.604748857900241,2.482295391474185,-1.1149037887129807,5.546877170132683,2.0946514773665896,18.88040166926765,-0.19411161646943054,-11.911258990406772,-1.3074257281891573,7.766360815973279],[1.6388158288541397,-4.076567305707055,-4.666627223877898,0.7606310147531785,-2.177740020691761,-9.717646487861233,0.06946545872763332,0.724373477812263,2.3089994894605055,4.838374455191036,-0.8356047135559361,1.5023466518605328,11.297004011903251,-3.5138915973206712,3.1323181146399666,5.647865617255672,-1.080046039461356,-0.24263658055603798,6.343938669381307,-2.4013991546106737,-3.5804662344621576,7.915613727964283,-5.111620046683717,9.90739823269967,-7.8430471126306855,-6.025065039659008,-6.711806107790034,-0.08430953934013719,-7.512047371641724,-17.048143962129092,0.9701785576149097,-0.6491987104976591,17.71910723562413,5.3915452723335155,-10.403320470796352,-5.734614647978395,0.4946866701448329,-0.8046704704420229,10.580102904459984,6.631405675689261,-3.016043687816925,9.254802007238586,-4.074293591952801,-10.991285525130934,-4.924534077631673,-5.4858023716491,0.7463274301366027,9.41134222070645,7.496676285418749,3.067946781032397,-6.962740577672989,-1.7599876374350087,-9.118711280603216,-6.376215045119183,-2.4328970599918254,2.9615890274975984,-2.257599168614376,5.477629734941517,1.2422938028805266,-0.19780066533536966,-1.1879295666239003,-0.3495558055801202,-2.0952283249765165,9.579315591240347,4.59598732821644,-0.2812238306540369,3.0357120031824305,2.8994943929812518,4.421847331189609,6.744431519416376,-1.353849907844288,-4.256334408432126,19.81740125666061,-7.167650331344189,-5.495459379227829,1.810468984017541,-0.6914759014634418,3.9709479869268254,-8.454839143316157,3.378349510313478,4.369778386267985,1.9969924646719592,3.2807568389093427,-0.7451200793572557,8.787273474428332,3.778610723927354,-1.4728312267880412,3.0254529795213063,4.4468858152138235,-15.519451862617167,0.371139628318919,4.221643901986731,-1.8533679847497497,-1.9852310593305034,-5.286750711866089,-13.563727962458945,-5.242618411697789,10.63976719189222,1.733451016161693,-2.800406795760554,-7.9639910571406,-0.1414954359537537,3.2811154059602283,3.4743309885583775,2.65461780264674,-1.7828917938550437,-10.829898435998512,-7.419918682841761,-10.898540220933338,-3.448025033149942,-12.210250405243693,3.9172580774358288,0.5615638796472132,-3.9382058179899126,-4.762089653215631,18.22680999841572,-12.371992261832146,-0.42650302659171135,4.8493458766721655,-1.7571599681604928,-0.42561872676228973,8.069153704638122,0.8513537202407142,-1.0037606740821579,-0.8812291711904985,-1.954160200909596,-4.082799346336328,4.283362628529016,-1.1686336738565735,9.707389952107171,1.3014511815864187,4.52481044960885,-3.258175083352057,2.837388130921939,1.9456583355629835,8.28604558458898,4.312408736830516,-8.865949500423973,-3.7717974096920526,-4.365498199562024,-1.975530271038723,5.060602762044949,2.7996880035114877,1.5418243609013984,2.6596515488820076,-9.432657843992896,4.116406624247595,-3.247332931781871,-1.2396166299442062,-2.1354358214242377,-13.310637247876773,-6.484591655291002,-1.6214804102389149,-2.8602794392407227,-2.9575464227517276,10.099525258539957,-5.483703776010673,21.35205379745233,15.516163593719286,3.2709344474158213,-10.234681229262451,-0.469512622774936,7.162870773823148,8.94319761605893,0.22250650965685737,-2.848142217206176,6.775575595215484,8.716138335573184,-0.9934392885666696,-8.627351181276115,13.321121578718135,5.713337897581136,0.4954631498418376,4.019061386690088,-4.5459669381508485,0.9572661790384049,3.341854256314075,-1.08812257580822,-0.09474882319392952,-16.3581740925587,-16.338032546505993,-5.733616029127881,-2.5912757086800493,2.7362444351353457,-0.6905574329230502,-11.566777362778225,1.5811598222751035,-0.1138800401861848,-4.489965111977654,-4.009850496679104,-10.177158428973083,-0.3623709150427736,9.867167191616936,0.18726277897845445,-2.474642785578652,3.7955794927275077,-0.9251234951445986,0.704002184436332,0.28500574982903704,-0.3277209703924078,-4.519325733099008,-12.565091986875625,-3.941351974856758,-6.923565342521576,-5.610218872345179,8.944277332982027,1.1175268956980347,11.391595362678926,-7.345030062943881,4.9502462239990805,13.274538814857088,-3.4511725050214905,-1.1224068011915982,-1.2925223136930057,-2.4728589394814904,-2.106255556469586,9.336488389745028,-2.1709533177693547,-3.179259585339758,-0.01739560649876548,-2.073303492242415,19.720092261100877,3.206707941159704,1.089865584186588,-7.688872191708658,6.277862251719896,1.632054277868857,11.487395573047445,2.606029867156119,-2.730790249916668,-7.747703058272698,-0.043255868308457235,-1.5602211266686372,-0.04818656206256022,1.7691263129707768,-5.136167119967802,14.274181842835901,-2.691434775370138,0.69318484620566,0.30922594286702454,2.6803262910414993,1.268887241953223,1.8857921108266193,0.25077791965745044,0.30022600122827947,-0.9738718406393567,-3.7997325748058017,1.408150888410968,7.651477570146256,8.588713977719124,1.1108095098669342,0.6256801385530597,0.4523929468909478,-6.228565615030789,-5.283973961337073,-3.168093483871773,3.056542876593426,11.115549623791743,-1.3639906413887295,-4.008641986750256,-0.7082060376179006,-10.160594431743498,1.0158703157965308,-1.7937456611623879,-1.885524689634889,-0.17213075476225348,2.8809012024582716,-3.9598229797131426,-9.381519232155775,0.7339233700700183,0.8682540705431863,8.363822395615475,1.178895274063306,3.067071924513555,-3.1561004951770517,-3.553750629030954,2.277634310469204,2.4249002717351438,7.120674010417034,-0.5560646120410497,4.540757515986172,1.9338018116265019,-1.280938313221279,6.040298042323968,0.8097865746242796,-15.180995576887605,9.58184804112706,-7.910660728881215,-1.7350547186214882,-4.428642919155363,-0.03055177797978592,2.1395244742856967,-0.04288683016486572,-1.4978042013295862,-1.0264747754707706,-2.4906412142696315,-2.7337763553383176,10.067259488749832,2.5116506277982085,2.9710098856259646,5.000522317886911,-0.10854979698241762,10.564528306035493,-4.719867569707992,-0.26478122838981544,0.3817777745468769,13.83085169677867,-1.0153259003502808,0.8244835010218523,0.6086637626285398,2.0418633247559255,-2.43963263844861,-2.757066427928427,-1.7740069605822875,2.1314873726493864,9.622308393316425,-0.745588823583895,-4.264319217462582,11.948489953057958,-3.455276320927174,8.882354220655472,-15.157403603574846,2.7912968174784143,-2.0524347416831104,2.67700780013178,5.885604653118136,-7.647283377059216,-7.48904197117867,1.2014309560579295,-4.327100966195307,0.9160740162883609,5.965652062441027,-1.1172938383279594,-0.22714892664697572,-2.0614447863816614,9.628996940752838,12.557088543947366,-2.8822563465658457,-6.192227902360472,-6.188800154035451,5.345273004632526,0.032889861544827426,4.156032323547894,10.142254278740225,10.256957442098468,-2.759984598909856,-14.447906494546327,5.6573878006981015,-3.410760033315722,-1.8594149777530475,-0.055585467932173005,-4.8931338809552,-1.080386989234439,-0.5774595604894042,-2.080335075850922,-7.0611744009643385,0.1376411853369799,2.527558447206358,0.3175126959115657,-12.254150962359564,5.930922577808296,1.6968367930754034,9.308221330245763,4.610292656563857,-0.3933110781458051,1.1536617824185957,1.0157795339638866,2.829344431157697,-7.652040211927581,-2.7599186229579993,-1.93838646906427,3.5895350966902497,-6.053918488190087,0.6610733875494452,-1.6778497472784646,-3.9165142992090805,-4.442351096356232,-10.24414649117794,0.08314836387877911,3.5919752191405134,2.0505732766773623,7.340172402453666,-14.464623002986329,-2.331111868932105,-5.923707891418669,0.08383127924560618,-5.873261347820522,-2.159952447259892,1.720038714133231,1.1216971149686907,5.606373385579959,1.264622836384837,1.3115173113173386,4.094676514806817,-4.2575745193719055,-0.8767074740314795,-7.291628343783068,6.088122036997353,5.6109857009014155,0.9801304894079736,6.228885251378264,-5.359747637297137,-0.142983413828337,7.023432539296597,9.313604980767764,-11.378100600545288,-1.8138309370025025,-0.8367827566402372,2.7870400534742217,-8.150835561891638,12.295567812206876,-3.3306810298936314,4.413891745867247,-6.38071610195046,-3.106183074674949,2.8819521848367664,5.684343853059239,0.8689662821876762,-1.4052461665238156,1.2807795352235911,-0.5084369343427175,3.4960178424612245,-11.683730755365467,-0.29468878701870693,-0.6177061632668788,-2.522759011963628,0.38679695683563065,0.2549501126653677,0.20371301980032985,-6.249537097136807,-1.8731090208832994,6.488561318836611,-4.162024859323495,-2.3724078668722246,3.418377385042281,10.326319734923137,12.058604397931157,-1.1299492569122132,-2.2228547879689167,1.3538627435161472,-8.785091115203915,-4.17730901692415,0.6939301290983962,4.1512726942775995,-12.977138454376211,-7.657554038981758,-10.081460735371975,-3.5061476679518506,6.451224863726153,11.147179291548051,4.223177476882357,9.24595935150533,0.48995990134592926,6.320219552833054,8.947465779098938,4.17336293332055,-0.39323389946089593,-4.17102686293495,3.3401824095466717,8.96130802782892,8.482854103755813,0.2784837513097165,-0.7452380631428157,-7.339973222394833,3.629484173564286,-2.5386721305287208,0.4928482313604974,0.3076829018788314,-0.72300335063586,3.0753388095692564,-3.7417932682334607,1.5337080320240326,-1.886798066702116,5.681174506642775,-0.40980119289240435,-4.254482228743743,1.9968641170737191,-9.105246888168592,1.11233638441517,9.282400863139474,0.6048805573114624,7.273213063975108,13.830206332513836,-2.7645058713847943,-5.970760677111804,2.5497496802109083,-0.4480026417420535,1.5400663558349201,-3.408616288458201,1.9961765855481657,-2.867397491935515,5.277152584757514,2.21355445062299,-2.437473993812463,3.2605994944100396,14.580548098146208,1.5404412898450333,-6.2743961918241276,1.817013286521266,-0.9833270719912912,-2.4792266864918684,-3.456946645699366,-2.950360615997147,-5.869374686950957,-1.3054978069031602,8.253394245344841,6.210260435292375,-5.1743198370631625,18.936938418015053,-0.9025302056461562,-0.5723250890121128,-1.3950944594955903,-4.875385497757918,-8.458954924075057,6.569013870557939,0.12447483481718202,-3.056614945723533,13.367165534294035,7.881790989927565,-3.9405762211283193,4.219905269766748,-1.1036505372666792,4.994384340200587,-6.5266170506702395,-2.3159178890152705,-0.6454486552858445,7.6306758664479535,2.020580288302715,0.24475203164871484,-0.7198076884371125,0.29473968743545065,4.338912389849547,1.1597458801233964,0.5307820170705466,2.635516404123112,13.736538033980416,-0.40046418234235803,-1.4091260842305227,-0.9072966693619695,12.698752619171417,-3.7168871880654466,0.11056827222130305,10.410270050851668,1.2916497841688481,-0.01773368806727338,1.2456121599127332,-17.058547207840988,2.2075710390001717,5.590804669018086,1.4878256056721766,4.448787958450735,4.6599226550761745,3.8554064646849096,3.9037441000319877,-0.4263916850561123,-10.202013056575531,9.80361150161306,-1.8772826255437138,16.912697994455257,3.296025667769773,-0.36986773560568587,-6.053022007252804,-4.964244553108053,0.619765363626267,-17.37523429375899,8.321725471903784,21.69662019308343,-4.4359824139044886,-4.36699079492909,-10.33677889437335,-10.62735766952172,-0.4484038680910256,-2.5194982945941424,0.6560257628527104,-1.0520367527731311,-2.332810006863633,-0.22530129587284087,-0.023821304531597587,3.8094739416636494,13.1518815107042,4.194348364779465,-0.3749079579873673,-5.645556018272818,0.6996285932636659,1.258204551832202,5.844261217138243,10.786421897080787,-1.2683476296407372,-1.3382292035052061,-0.2727042086158824,-1.301932983576642,0.4296933335958917,2.1802575247362808,-1.406266441526802,0.7911393021518098,4.814416366844635,0.34236434982866815,-25.045545587172114,-1.685941592751826,-4.421967959554562,3.268452925883058,-4.7346392612919725,1.848017379624106,10.528118844586535,3.2072741983794604,1.062482506601654,5.2669969283563,-2.456828962706341,-0.6247129216895979,-1.5954557291757847,-5.073342730107283,-4.949939060922366,22.192321220738986,-6.271774014665217,-8.635068569758975,9.661692506862224,-13.960501885595606,-6.629383466976398,9.287468189625969,0.3734040964697425,15.941849180399208,3.982508680418329,-0.9212086002437196,8.231850671903869,-0.024282149985861867,2.556828480700965,-5.462091400735579,1.4704918361464774,-5.266164604069682,-2.8001711675631866,2.1197168265944946,2.2546093306370665,7.44694544646282,13.536562197501276,2.3594285612511605,-1.7878156664611664,-0.6052394017072296,0.17017849368814675,8.065515937831288,-2.778016433472661,-4.599525287579619,-5.5836859269817785,-3.948290972884589,0.39067618471630805,-10.823028988965866,7.4429842808937465,-0.631048651960872,-0.16115364451598102,-0.6394494642984223,-1.7044332662220103,-9.18881485396124,-5.931177083835893,1.8181590781005288,15.401267951628196,6.131156463262744,-5.32050348168723,3.475156317075684,-19.885734326296095,-0.3724604693212391,4.411874277304541,-3.9306285838500132,2.9630970124917404,-10.0388329985709,4.175489202309711,1.6657365606192203,4.849262726601636,5.030881843100463,-0.33517412817484526,-4.220515063475423,1.1396814619919038,3.6734446447092686,15.48440683613694,0.11289279961700527,-0.029071547017542443,-0.75800949013309,2.9367742997491098,1.3369902380501903,2.246156256082831,-1.5443911395268382,-2.1326518987294323,-7.016849905806405,2.5406602527418034,3.6357641444115814,-11.765663073241653,-3.1625077752351682,-1.0192342426289838,-0.9413470488981632,-3.2046218523923455,0.432273725437164,0.3344019265880997,-2.2355826060405617,7.025884027492644,12.398890072690957,-4.032356766543207,-3.963097265063319,4.653732282360966,-1.144518813574585,6.080108060952286,3.0392970440041296,-6.54231095872304,-2.196432586459128,-0.775813688180579,10.075418823014266,6.590063041833061,-1.569292433595301,-17.690794517612577,-0.6198655683087841,11.23578270379619,1.7487321256261166,2.818579691371558,-5.6463097970857135,1.855784812185625,-0.026944820835032024,-2.455926023111542,-3.058680706956789,-1.2889849846230668,1.3157842400383162,9.439617317031827,-1.2900479334858952,-3.2076287764920957,-5.495479458121871,-6.887401458749675,-0.07594246522801806,-1.2006332363563976,-0.2599440506864401,-2.5410576540218286,-11.29740444004722,2.995827269697812,5.852784792718182,-6.346305672466328,0.9236099258285502,9.319144714409504,5.65865345883391,-2.8253714531417753,6.776518149658601,-4.158683058694716,6.284557707437406,1.2704590562679496,-4.061424795144655,1.1583785591952314,4.915184119259455,0.15994560050334083,-2.1057645734531203,-3.1742817003888284,-5.282669127363118,2.175653149080383,-2.086171820925727,0.27097337289283296,0.009624487882779698,1.507889100915975,-9.974145287904634,-1.258551089677424,3.3499591474969064,0.700824733951827,8.066141611144413,-2.087053573726057,-1.8364910589904209,-1.8350245653428834,2.1487971339058207,1.090587299221026,2.580672912671667,-10.032122813209224,9.071022936895726,-4.243358439749403,-7.853166141011494,-9.289342129695989,-1.7933776568427278,-0.5543438638658769,2.146061286152249,-3.8242469308379476,6.196693959089951,0.5175580428479847,-3.801212004177266,3.6269375029655184,-13.173329711482197,0.12245747454291589,-8.105500401761756,2.6004418911356098,7.1226252662109495,-6.162644732978496,3.9172675445506138,9.430488927137176,-0.21850872276575087,-10.943566979492465],[2.145545332780899,-3.0743466930690366,-1.0568017117612396,0.9300728304387571,-6.118412875259809,-7.543559206129612,1.505511987978013,4.206114851755479,8.280752310668204,-3.323655047840907,0.003777290853666071,1.4644592060493697,-0.1611886107383813,4.05652474383807,-0.9756706533750743,2.689211751496847,-12.03663812362975,0.35055099836559567,7.311183932027554,0.8658402208689098,-0.8180996470670574,-0.6354150251242856,-4.099579945952945,2.0429480284255597,-0.195830135393388,-12.292865402887472,3.6206116150251706,-4.2535029260317305,-5.3059037315015285,6.175641696160995,3.8052501010760595,-9.482143703137723,-0.813480048588068,8.252259724269669,-2.1437300698034747,1.0523340874185325,-0.6612873702083922,-1.3577643683938936,-3.2890444204032843,0.27800644593627144,4.066451273757996,-5.219496729987131,-3.9988431295806057,0.41750716273722127,3.063228187792554,2.449865526267751,4.667118584938733,3.610476895113252,-4.885165698518237,-0.18887938507759772,-0.9460313177652093,-0.12332565398463025,-4.467262156662504,-0.6673616289849118,7.419834424255807,2.201579281762431,-0.6483105383812109,-7.189816100801405,5.577372809837266,8.796252858997185,0.3481979995174288,-2.384043319203384,-1.7362462904590465,0.9738796465110032,3.508049681597729,2.958160491080091,11.966356006130958,4.2759020063528395,0.07768864304090872,1.2357361301216754,-5.713329869586986,-4.77185463622709,-11.198540587365963,-5.201816692672471,4.558710801186716,1.4284885557460787,2.3285261276241678,1.6161239833283882,1.4024081826044945,3.4130375029643556,-7.598188023544245,2.044187968680705,-2.7579309181810157,9.298635510146513,-2.3443557232737584,1.9088865346050907,6.234501171564062,-6.103067803184794,-1.3554893849424636,0.32014871718236737,1.800531957778332,-6.901744256832476,3.639216711189755,-10.45629583215842,6.7834314677717655,0.41313569747306755,-6.376070387507454,2.246691973382332,18.380988014811045,11.903853805622605,-0.4729539588025561,-2.177343915716223,3.2821296837144582,-0.9219803511738835,3.1845919976754233,2.6733764529742157,-2.4834652692001686,14.691781020854183,7.2005613229936,-7.1783544856584,2.124014589543731,11.910863737295852,-4.837691372935817,0.9396489548488782,6.802786700312657,0.38699526459079125,0.9647842372414024,-7.236067548399539,2.8358476440984077,-3.035469387378522,-2.103741621608667,-5.447168901342627,-1.9949654116999933,-0.9876515428263257,-2.6652584747429513,7.4510075886288405,9.192652570843078,6.171932519995157,-1.7586680947335172,-0.10205621801378018,0.40120029886230846,-10.950848552401277,-1.72939063814966,3.2114905588040683,5.9417555077806,2.5351585971483757,3.089597966647631,-10.087435387904351,1.2540988294538593,-8.639268364528183,-1.4844522317807578,-2.5727795105714524,0.9221151225869395,17.625371311846706,-4.007107549209113,4.975252252583714,5.749509438412673,-2.464399433598693,-5.917826142303847,4.913630405763267,-7.520760762550064,-4.859738507319373,5.550950197544427,-2.033655032277315,0.40557203113391194,3.2617519596084388,-2.259966000246515,0.8149435295668142,-6.924304074442968,8.142203583058603,-15.177298698280012,7.490203659614741,4.399976220018116,11.923691484482344,-3.3061146782777184,1.5318197552829416,4.624318838843508,-3.3170010104913463,14.48920922949505,1.0454211943682767,5.201287601849248,-5.575086376284525,-7.100184706312614,-0.773397796312272,6.459906593731723,4.091305451230891,-4.14514296311239,-3.895415065458817,4.768876296330325,-2.9517025684977005,3.832150453041317,-1.115047893832371,3.9402832557367473,-3.137185459001194,2.8810214530013014,4.6193481905226434,-23.8261529167327,1.8162810348096496,2.593960546143292,-7.172024463634511,-5.616455604843316,-11.281155901263146,-4.396612222022909,8.517319849206759,9.191114239853603,-3.9149740296695863,-8.771837477454484,-3.496154625851575,-1.6391240283659285,0.2454734578930433,-24.302836538510405,-7.606764752319812,-12.820922155765311,-1.1166371900194152,-2.5169693506769932,11.053354937348052,-1.059480242926469,0.2925886649972964,-6.333033823472772,5.023297348685244,1.2025401148459138,-11.649135793063955,-11.38818750498086,7.037561977225431,21.386626504951735,1.232035939372707,-9.27458930066015,0.8301281385172716,1.2109177750856963,-2.6846664626760726,7.057112764833587,0.38869396808490586,-9.35003626054771,-28.84288274790401,-2.9683203753411482,-2.933542369393212,0.11173188511810483,4.404105484347537,-6.909041910337168,-0.8494165269269385,-1.9209244781883061,-4.284334566909491,-0.6237657182979164,1.7274450969025206,-2.3222641750571498,-1.5368492445423891,7.79690640295447,-1.3515920464728164,-4.905895448567392,-2.4712989086448984,11.715349108324402,-7.342908926826933,-0.29844839202406825,-0.5591826019633768,-1.708607514507507,-0.7063793984441973,7.424938833111698,-3.3570600533759625,-7.0033740654754535,1.2747177605390458,4.311480470389111,-5.829949837806371,-1.3279617083355664,-4.259845186468548,12.11752539037176,2.2489137189420134,-6.169772045393603,-11.49629971697219,-3.055110818539194,-1.8403175107221683,-8.96508309244877,10.340929523919087,3.972155789542202,3.7502817168514255,-3.264477571940474,7.059602533744947,4.313126604289599,-4.486822031743687,0.2160317098625848,4.217637219925982,0.3969313731084524,-0.7620052626476594,1.8482926558870802,1.26407671671342,4.408055421750699,0.2782770887695878,-0.58833436185823,3.5463185202144722,5.049687494354552,-0.6271311128535526,-4.470385868853549,0.546699469372907,-7.9302053877060965,-2.4168320122367852,-13.1580304836885,4.342918383975933,18.295909900132116,-2.8097349504932456,1.627768937134548,5.319964185967352,-5.901281974469786,-9.58568880890253,-4.3775300142742815,-2.6244683136593276,-0.3987585005604337,-7.939167664050082,-7.1645665067191056,-1.8463593215647445,0.8911091738514614,5.645458933708958,-2.8355826200262078,-13.265403127313148,-2.5995399954134513,1.538838415823899,-1.4486396788126192,3.9630786481653963,3.5011715139517756,3.2069457901158587,7.854414460703001,0.5256542368907904,2.9972469077660797,-5.0828032533109475,1.4136645307314204,-1.5275893967693657,-7.256471693611498,-1.8012271207583508,10.00108500099274,-4.693265663885134,2.542766673579891,-0.1683204770428013,0.5249043671208438,-0.6796316443262627,-2.2109372773731106,-3.736786641533781,-1.4895153519272413,-6.492338535906214,-8.288043179155848,-6.311623220638742,-1.1844697152552386,-4.794951925644708,3.6928304650425647,7.8864513881829446,-9.085913049630818,1.2137294552656472,1.8005065130084867,3.1831400068199844,-5.4535380904927475,0.7292194787375117,5.382170706831838,-8.80679456706817,-2.6381638785998875,4.242242748991062,14.543367309610563,-2.6646083469981234,8.086181562765667,7.765053459870487,-5.109225624022802,-4.173746998385235,-0.3585783973638019,-1.3255532400945311,-3.0030193173492927,7.806781752989947,-2.3058280548180328,3.817900267668359,-1.8238861612564001,-0.18651663521282025,-8.167552323115512,-2.7088420368744686,-9.562857922092155,3.935490309081881,2.768115666003306,9.239695666106474,-11.590517465171155,0.7216828921466191,0.7265351317775894,-1.2496863709409145,-1.933820299008624,0.9438373971774774,10.418827972125072,5.340126643590739,12.090078005510609,1.2117886815666532,-2.4010819577747387,-0.8635315214123657,-0.46147351678488935,0.34537338956229124,-0.6503199214054862,-1.1625407529734861,-6.350031798329766,0.5054778850002093,0.7929626702919892,-0.705653333807069,-5.786675026101861,3.2221246761998494,4.249768352818071,1.4011660958173304,-0.6366305597435449,-1.0926055527501681,10.508207061664914,0.43428884983756855,-2.3797563415564134,0.7276392376557834,-9.732440376831548,1.1509696949477748,8.9971924937185,5.118270353033074,-10.540822924742987,-1.7275186771538396,5.935505682728109,4.591237538852308,1.008957142365294,7.1936829197912715,0.7406181696043967,-4.437168923266938,13.52587680146743,-3.2262212948282967,3.1613346297257934,-7.573193226706444,6.151353022281717,-1.7846835704314152,-1.4728957831456126,-2.943829600083191,-2.740383234002257,0.7768640704679441,-1.7729091326468471,6.937251982062975,-9.753270325145103,1.5645934265383197,-13.567477569899811,-2.0553890046663748,-20.980291537745714,-1.2552373213459271,6.310350246570929,1.7026775051119092,-2.4927761577604244,7.614602363868632,-2.2988957428881953,6.548289661527976,6.052499139036833,-7.693112386962553,-3.3813194673511555,2.6809432516978005,-1.0879875642557186,7.660614575749408,-15.60324138269845,6.111375476756027,-2.957438034096492,7.068251908762997,-1.582398343709698,-5.789502339616979,-0.4514110064653085,6.598098313142153,8.207621198581109,9.581775256122851,22.853340243939094,-2.6448651829617296,9.267040283606079,-0.035747616722005215,2.341362414906449,-3.512264110011996,-6.663658968122835,-1.6852218481319325,-9.61813746720522,1.4673035054120038,-0.7963651171402959,-1.5402464397971825,8.362415188735959,12.59407103929954,1.1121844593699057,16.33062264777548,11.765252318522892,-1.5120487741122406,7.851428924439453,-7.717600303709897,8.101311868224279,4.402715739102296,-4.493269415684891,6.359381798645306,5.366946448655968,0.49291233599757955,4.881116028416035,3.1137507115583962,1.5630654108452422,-0.36720715318651564,-1.8209679978166546,18.2095516358063,9.820227757563364,0.43391065290165054,1.6452007268047852,-0.6959521048776227,-3.3799325837829333,1.6027999348086102,-2.5395764763515096,0.16674361469973564,-5.165433691459768,1.8130577354962796,0.5992989438894185,0.21882856633911985,16.08189255598407,-5.629766557000064,-5.465550282173159,5.2284739075638,6.5597358693250705,0.054326806527574156,6.119816976875984,1.1460022730586639,-2.906978762181529,0.016881810828755617,1.8365768621070981,1.9815082168785718,-0.08059252063031885,-0.35621931004464336,2.48995894906239,-1.6619320157503372,6.838449996262231,-1.7937985888686687,1.1460652055084604,-3.0235507141603097,-11.674966453736308,-3.758477131986364,1.8705964180639842,2.008516636258691,0.43085627880967037,4.375931511837643,-8.981414045680328,0.13186632007879134,-3.9981372616277397,-4.309277490244425,3.844256965256978,-8.170613407743295,6.100723050915747,-0.923218408347559,1.297171581677929,-4.39700588588578,8.717112239050632,2.982976003230669,5.579130541160481,9.862543666566662,11.078082466101225,-0.24340435230960145,-1.4554024252977324,-1.5559894714494231,0.5378061706607355,-3.032719871623465,0.36442413166927956,-3.2188052305693375,0.48272516943826105,-1.412035025142774,9.697653903783435,-6.151852829270275,22.087342269072025,-6.347087713093288,-10.359839227309703,-0.16839363603441893,-0.496811716328422,-2.6930856931036273,-14.178587817270007,-6.513034542604226,-8.041338755311909,-8.307289279092528,0.5835116289476954,2.433779914304842,-3.9427290623412796,2.088692250420718,6.035270461429569,-4.754865557690547,2.285324357542895,-8.360774894561276,7.569404133816571,0.7157283034661548,-6.967791065973298,22.497277403933758,-8.076422310393196,-3.1117414432463155,1.8100517884668768,-7.352976398663101,0.6293440361383972,2.7352691434938996,-2.6020456843680346,-6.577190381674577,2.7703513089876006,-1.794768578031713,-2.3881029669495475,-4.65486463136881,-0.5910094091735449,-4.369746543918913,2.0995021782297547,-1.4942493506860721,2.042256972645707,3.7007008009888755,-6.9761276706497695,-3.8453182845735725,-7.359828244071031,-4.526687896996793,-2.908619514982931,2.1762611130900016,-0.708420270076475,6.628034748659015,2.9134169607908666,0.5973866389280449,4.011842641386317,-6.198128980324462,0.2547962744365977,-0.2038570813726026,1.1307770090746279,-4.619493240689092,2.1205457764080493,-22.46014850644694,0.4454163128873212,-0.7722032277790583,16.909977573074098,-0.5806574597485421,-5.157842457897622,2.201073568363703,6.402106019024941,2.6128099542542427,12.267819330900206,0.20433916711697586,-2.1451573550466527,-1.8519951120134022,-2.0821546832079885,-9.008724532529241,3.7917489171326126,0.15368695214395311,-3.0543301837744767,0.9307463070121837,1.8542527744923156,10.971782901485435,0.13217815548584566,1.2091737092037773,-1.2664293533663278,14.074491519135243,0.12566104355304342,-1.6975294297458456,-0.23445725439973364,12.44309551326831,1.6198831534651843,-8.032951352437893,-0.39523612599452007,8.715066089792575,1.8571232002816704,-11.172037350509788,-8.468910763808292,-0.8651863522805634,0.47578467802569113,3.2065017291129916,-7.699524442788153,-2.0741467389885138,-3.2776231736327883,-4.4385335835414415,3.139214027296127,-7.869196022338011,5.959895947005416,-2.2160354470661403,2.033584550147073,8.814894548565476,0.03580399370042808,6.369762572543699,0.33903039972124827,5.287565028843441,19.195959198088026,3.1163390569321265,1.4736501813948029,-17.581179542476168,-1.3010097684980426,-7.55207899502596,7.748269485992182,-2.0268740249353696,0.009136227866943902,-5.228166626486077,-3.6827421546296377,-15.181556081991218,5.095663325009342,-1.7061723617894857,-1.0005648846905064,8.097088318952174,0.8187740771682814,8.466346324561258,-2.723482494219656,10.758152815359406,6.261788344779879,-1.3788440235689203,-3.137129756017452,0.8022769810166849,2.039539323275525,1.3592765505168556,-14.40857487000385,2.0650942066274602,1.7155495446360272,-2.750494822829751,-0.23291097393458604,9.247818552854149,-10.239045430507487,1.623032419040494,-3.7655612552582642,-4.69705938282702,-4.497953566871915,5.045008381952959,-9.400576184113124,3.066447353452545,-2.8049692735016354,-8.102802714872793,-5.307836348138917,-4.052600030597381,4.760040110064221,-8.16009001270924,18.01093597692609,-15.402299668820785,-17.232155706951218,-8.839604775829608,6.923913847327498,-8.081722016205397,-9.14279217623347,-5.092879272928906,4.351922006896359,17.84050320966918,-6.047164194739095,1.0422343847768079,2.275713028797774,4.214172249265762,-1.3964819593306457,7.325797083422175,-7.036942627051733,0.26730980924098735,-3.9600292448010634,8.14866872225461,-12.510892662702787,1.214571559403828,1.99914274737018,-21.831306687834935,-0.03665957525179109,2.304797754678207,7.005347621095359,-0.6024343804897798,-1.0179471716725508,-2.114384022816218,1.853302299800928,-1.313183157590311,-4.565822113918931,-2.478649897190429,-1.3193379444835487,-6.731051556741451,-1.235557508369568,-0.9713053722601668,1.1278275852044815,-0.8685742223529913,-1.6304319048170597,1.1935253656827036,-10.188269218089959,-0.2687721738539124,-6.434915609290675,-17.923501077259218,-8.368471500317822,12.708218561356315,-1.2210920517396526,1.5602328460776342,1.8390507056150869,2.5028935499650986,9.790480929598118,2.6467374193920294,-1.8984658702604267,-6.640066633543352,-8.773605121920081,3.874403471236504,-2.249906292638383,-2.934136892693561,0.9637424449408021,-1.932845469679111,3.498849798220191,-1.7796807044976721,1.3792198962664337,-1.4275402397957935,-5.745593257382085,0.5893377776950952,1.3961330286294191,-3.175860147678453,2.3226317537985017,-1.3798144848335911,-5.274068076206166,1.1691432060373366,-1.0692532651233182,0.33938940935750184,0.47033951363938087,-9.171766800460297,1.7492958784883905,-3.3635002827246145,1.6107292497629806,0.7263206884885636,4.784786896335952,-0.9608940298954014,6.780036609585384,2.555865181572146,1.6089881630850997,-6.057601188776967],[-0.10612923794381379,0.5517762647356279,-1.6238579188483788,-6.869336709630538,3.0172612963139813,-4.2058923029053545,-9.303771136002947,-12.201113579475305,8.520520281513956,0.477814388913275,-5.31536437504905,-1.6166979942438724,-3.429285459671796,-1.4394502472434043,0.808463985381644,4.365938225986955,-2.944284787996448,-1.72199946819695,-11.387719976553274,2.428022614069095,-0.4256579602698931,-6.810723258670364,0.6598829911460804,-7.127426504675782,-8.500188607168008,3.286242184391449,11.258500985840184,0.45067125557342025,0.8433417483575356,0.6808235572577246,9.060920424166497,6.066553594093865,1.2817329068286027,2.016204024816275,-15.451081824869812,6.145358473906588,-11.672251254882905,-9.262914266832619,21.18967491883382,10.65496303503981,1.4177983590303234,-3.4965422651540146,-0.9290835493393077,0.9855740233338568,0.728489095230277,3.1575960954295805,16.23668646684338,14.092614779200177,-2.492126580769272,8.47370334348074,0.9063391650418677,1.9356616930022374,6.324982406109005,3.654979725950997,4.026774640988041,-6.237750724428919,12.475088081129202,-0.9608924678489688,0.6532514762938741,2.111833422535671,12.108517525493424,3.4516861029565504,-5.629908170198618,-2.2360014510931556,3.7820967743530964,-3.9988024012789882,2.7992972745452747,-6.323439639320676,-0.3563626582296824,-1.0588652759479147,-5.715355972405225,6.3798564792352686,5.617452791274152,-2.7785014940837773,-1.7259970476643969,1.8504829837661982,-2.7319119374757452,0.9281677097384367,6.614268220902964,1.9550903313985195,-4.934942215027121,0.6779454291823843,2.1845234977262926,2.4010380918904763,-2.471506325192549,-6.8011840814427,2.5362552935796385,-3.498022485426354,6.238407646362509,-2.627086854641743,12.47108735749182,2.4393147363625634,0.4288298218895372,-0.23880775758076345,-1.3357857900000403,-4.302473730139676,-10.618212320678262,-1.592100483108052,-5.093228088763846,-5.7185721317361,-2.420373643682378,0.4952423711723388,-2.9017489784593833,-10.916257594842925,3.254260304317266,6.120079525133561,4.640342069523716,7.625537757388284,0.17967747492129504,1.0133401397424482,2.436209973066239,-6.401641982417488,-5.803009451669632,-12.399458217891251,7.588250078406981,-0.8704987411791394,4.72267745359958,0.3254017869600818,-8.906013458725814,-6.065685884138706,-2.522241439766833,-7.941319302342876,0.3150125837293789,-0.5106230725285128,-8.57588645315804,-1.2970221267571063,2.3386173390810816,-6.745729313783882,8.680941170183324,-2.4284842105777655,-5.4497141481777875,-1.7220739554310345,17.382816969687198,0.7951564706595,8.238861948209458,7.267443688903013,-4.1965642944616075,-2.4120533414896994,8.086814824441621,-1.6756222667897145,0.09591851611903568,2.7412447210753275,10.12345260891275,-0.9769270925806763,-0.6257405751048999,-0.5287834918876174,-3.7312004659924094,-1.5773995235464937,-8.278340316828608,6.852349345166088,-7.961824170052811,7.031915020093729,1.698395719204123,6.347602151101001,13.412569650177721,-0.5201817777653801,3.3434979336407125,-12.548234360533051,-7.504707422377687,-1.1583236983794576,-9.18565976198052,7.955040242232068,0.4163184522532577,0.9691554609479804,12.205212756847134,-8.241009552076871,14.13809028176146,3.878699284549617,-0.9484104581043962,1.7151728653550404,-7.180891546003462,2.5856891868386214,-3.924211896399827,-1.5986902198163266,0.814761224053548,1.620531595844703,-1.280328280463045,-4.136860069390906,3.645538522021559,-0.23699905438270763,-0.03472439884443479,-9.292299559805512,-1.6846084574869074,-5.977130593688427,-0.0547974226394885,3.3873802579618957,2.255281376227227,-0.6506047095198837,3.784901099711246,11.915437403366004,-1.7193478682785321,-9.218436128004784,2.8132687054813115,0.4443533279755949,3.81730678237445,0.7988753812819445,-3.5516733553958195,-4.073752488343792,0.7984073802054477,-1.6404495896543025,-8.574336807734532,-5.264981135667783,-7.148025304585243,11.459794790572143,1.6273940061362424,3.173634113924848,-1.0325400930069473,1.7865525064228462,-10.64597112372207,-10.2825080146308,-2.524883649388766,-3.5199003375419564,-5.214627472069626,-1.2096816932714123,-7.223779917684567,6.112842838457361,0.4540509715948513,-0.7688848629350105,-3.327253183388029,4.094992554522852,-0.8427326422265664,-6.877114585951144,-0.05772182388399505,2.6341145686306238,16.093675103950503,22.001726163745836,-4.427755991265436,1.2764416633348254,4.941587272319918,-1.4770670723553985,-0.6987899102687711,-2.4934550499220562,8.812453925066368,-3.71175077199491,-3.50384549102435,6.924065883223259,6.2960811441351074,4.982473511397631,2.6839184812985053,2.5868732885614865,1.786704670369934,-4.568582362302637,3.757102095754535,4.988382004562821,0.5619733724930178,-2.3602297637614513,-0.4224639217920232,-4.03743361587583,0.20363810501068924,3.5802165100893637,1.4965336921535597,1.5248973038104023,0.5315773225449281,-0.8936131923618573,0.1622814525505163,8.626981594444079,-3.5201711963938616,-0.5679058409725122,-4.149905231913976,2.172400325951761,-2.8570652363191344,-4.355620638070212,5.158166770659406,4.926286852112864,2.235314626795054,-1.3200042724101966,0.3669555375236887,-7.607477368491589,-0.37409887305372047,3.3625282423125253,-9.677993921051915,-5.961417169907529,-5.09583000654087,1.0093028029070628,13.31204192425269,3.1466597608964353,8.419261926456107,0.6557763088171287,-17.110858405869052,0.4316853341908903,2.793813337017874,1.6032716305676713,-3.0563322677686044,-6.3356234647352165,-8.528054440342421,-5.796520686598147,0.7837803440140125,-0.7104338107640358,-0.6910646798513103,2.321577399250338,-8.743125494243472,-2.700583599306465,2.400736351385614,2.730189014811198,-3.5821500762641234,1.589358661178454,4.515681369137992,5.500071113276187,-0.47892282240739137,-3.3744440030349114,4.949550405327559,-8.17923534170529,2.3708793619072814,-0.20446500099085063,1.2434305042381737,3.6196551801622947,-8.168058988832284,-0.262431638593946,-1.173783533136917,-2.3009759639451457,-0.9804799008414873,2.0968823301656068,0.9045185797525717,-2.3738085537371383,-12.292652035838929,-0.0886265601367664,10.385948172720122,-10.784153124584432,-4.120226902792764,-6.681622349628663,0.6274645940674288,6.650206272563754,-2.567753467687526,2.644126971477488,6.712242946026798,-9.082728232779704,8.796142408697753,0.31487697839817286,0.28068051250108106,-0.03753463406924251,0.721155224980822,4.555915763813271,0.1439375166684913,6.840606520702853,-0.7215227309810175,2.8949635114313415,-1.4547615759028538,0.638161102745918,-0.7600315094363981,8.270796026479198,0.6216446511145777,1.487115730142227,1.1683538332168548,-7.432170947274131,-1.6335235414803988,-20.748999070820062,1.3467055585905963,-6.034328050194787,6.365279582264152,5.505011025342561,-6.0499784858609305,-10.77508961631018,9.0455703264869,-9.568061653214425,2.273524125796681,-2.2169406240610936,-0.6609103138432069,-9.412106608719718,-2.885837297594343,-10.337457491999519,2.929419630478759,-1.0372959967234836,-0.5317935249082093,-4.635291726438516,0.8436300741261574,-3.8079194608789333,-0.8414068871857925,-11.267879050606185,-4.726825852585525,0.533096890923541,-7.910132149629882,6.944008573060481,-1.7310258978011301,0.5944500774396158,-2.3119616128608165,0.8026558599706138,-2.6117799806011295,-1.1561991641859661,-2.1776204955958027,-7.920874499526365,3.785632792889076,-1.7857553726550393,0.024344413585034586,-7.348329654176485,-2.289661870547691,1.1287469964541073,10.49474708075967,-2.5762319117099777,-0.44488460405060354,5.146651486267517,1.1889089190504636,7.6454301465968815,-0.4193080593129695,-2.836922212515436,-0.18131341735523954,-0.9214556096567739,7.537874678435163,-18.473874742803034,11.80295654893631,-2.1654974555166113,-4.449638665422288,-11.206228920654617,5.872097659678637,-2.9654171867516883,9.12769599981132,-14.334960794892261,-4.450069280455906,1.680861826898779,-0.7377484653855664,-6.704801909479355,5.351952301946058,6.097780233585871,2.0821992470058293,2.0472501769546243,3.8619838013935848,0.4617532120765544,13.56591054605898,-1.6928284147681143,1.7806442264743758,1.4452516459655018,-7.5381845541752295,5.087927426250725,4.326609499326733,2.2983225192764127,7.193787143516073,8.975818458332416,-2.0954288479713292,15.285252350597855,9.546928262798467,-1.7673730333975306,-0.6811596215808744,11.97529606869086,-1.1714075210004733,5.747921941214635,5.3322779789442,1.1398481010064154,-14.921943983087573,-6.991124507206517,-3.1151914369297256,13.936716533809934,-0.8010518289925583,4.179330083139595,-10.715790400346092,-0.40286768842118104,-9.127411391308572,-5.86879876638867,4.150022005955875,-0.783887936524172,-3.31632735974609,1.8508549063831343,0.9859860648588787,-1.6198380696405557,-5.018920313565527,6.487905918450439,-0.6370759983731489,0.23737358043284112,-1.4199007279914415,-2.7980862783010707,-1.3962871044211829,-3.4751278667885748,2.9784325126234994,-8.100152380089241,5.130684921817922,-3.222427190520916,-8.270681159418046,8.869360167452594,-6.63072806998621,1.4105125300690675,0.03520956908015305,0.4445544504250928,-5.7260919697794765,5.436398779332927,-0.7310384642659522,-13.814969842315172,-2.0220795802982603,4.222142923198998,12.939741373981219,-2.2503389932852733,0.08837666698959268,15.211501827068531,-5.666726074944926,-9.888988307859684,-10.55182457325032,7.165970255050455,3.7531671498967825,1.2412425280728465,3.724816605658629,-2.1841926549275996,-0.9605386112183965,-1.8028115299626388,-1.4182643675586522,1.6878688825084702,-1.2481568590255918,-9.896907667670002,3.4174636567588994,2.6740737187472625,-1.0386993343414996,10.893213029649694,-0.45083007093340965,-0.34747239737499674,0.8186100160603096,2.5477489705074823,2.980725120813365,6.91015264135585,-7.591529262928832,-3.6598259018096675,-0.760652614915847,-0.740708645436559,-18.062180724135494,0.16219872592477436,0.1496013208334741,6.082319486710343,-0.23763975825571393,0.9715098370371194,8.81928979010638,0.5327451694550973,1.703751424246268,5.325716993010829,-5.002301863734078,-6.729469419883208,2.609543265945632,-2.7930438241329663,-3.1028463913004423,10.348110257358549,-8.33417627172943,1.3255305698253699,-12.992491684944962,-11.187013867326645,0.16558707850311594,-1.0331052307896578,9.5745995923075,-0.01446050121155995,4.823879256740531,2.8403646898400146,-2.4580523497255,0.6904810708132705,2.1420420411066967,6.091553025174928,4.805137050315157,-0.7104314911915903,1.7208896602460158,-0.7516277916871204,-13.896689414137821,-10.383461226544416,4.501094096772046,2.377256124946669,3.548509642539514,3.033887783707189,5.87404157570184,-5.1089549883893906,11.083919820781006,-2.10360923460153,-8.07376509111273,-7.520997176305928,2.3411031239387983,4.528717710542635,0.6337788162973248,1.8798265900705013,-1.1467788963449181,-2.165230487252009,0.2756890377227128,2.6297558906252982,0.8341083576363046,-1.358156419105741,7.285134786810509,11.063814963452785,2.229841105129241,-1.2413635189281953,-1.3692661028155841,-4.162764725503809,2.9466005723098156,-1.9961188885437116,0.34377111518353054,-2.250688050455813,3.86779203406066,-2.0346894171071286,-5.897956493335951,0.8328080592866964,-5.6559252615990525,-1.084946452353834,-6.629373603104025,2.4944786428882777,5.017587200231774,-0.48869473308174227,3.355188385126682,-5.193279519443623,-6.032223543932666,-1.722543030457183,0.1855999243509252,0.07742454905193563,-3.122294534256665,-0.11594048362888709,11.261479495918762,2.4956863668418645,1.0794489641702265,9.99712716999595,3.762322806762664,-2.9006258431389726,2.525395437677127,0.8007427805499829,-7.270498146287416,-1.6232619570019984,6.20546524984658,2.075209334799352,-2.7317242977310827,-0.2214280852901084,0.12249872461527467,-4.465288339312747,-2.170189092650247,-0.539354875874559,-7.589530889381495,2.0528683208386074,-1.5674198474757652,-2.568183908957929,1.4901946967075816,8.205405881861171,-11.287037684937763,-3.216298363126119,2.8369067731427284,-1.8321304753732184,-0.3030093101132745,-3.730014313901137,-0.531890485414045,-2.557222523907353,0.29645679634645017,1.3683668567926528,-2.982190944555552,-7.062445752102157,-0.8299180705877409,-4.044140171998122,-13.590477860873277,3.3878449326365625,-0.23919074991010136,-2.3402456296936665,0.3994057451527103,-9.190833790022559,0.22535724353036102,2.876904672761131,-0.8765722977739899,2.7173412366756446,-8.47020028740191,-17.211520371363484,-8.196108850040265,3.0957264742186843,-1.0341535651498217,-7.613842430019297,2.4456326142207265,-11.512798578560982,8.81432666246058,-5.357069578563689,0.5775205108009462,1.1522461091241418,4.734939599084354,2.663234046339114,6.309703469954193,-2.828712154729928,-0.40404220632716414,1.3360543395628093,-1.4794999382143725,8.336841661787359,2.0699972005462346,0.11469564491653728,17.617945982842848,2.050315165833009,0.06198314659576565,-0.17661561389555702,-14.13691064194035,0.8466240698108939,1.9247283232483656,0.3927296925904402,-0.5730506225621073,7.755885398965782,-0.8281589397334126,0.16288265833127857,5.701608569033306,1.595461261851694,-1.4641027958783857,1.7675213903181914,1.7915811172431146,-6.138282885891703,-2.5785166231357968,8.602552606257566,-2.8107035275691077,8.875003115477545,2.2544647282833528,5.727851820962121,8.753271471387237,-4.877937695444631,-0.12642259654257004,1.8934310794385856,-1.2426763185884884,-0.8013207562870887,-10.560046219361865,-12.711418166992505,-15.763450641859551,6.740959154334197,-2.5922969112416245,4.6805027624603825,4.7717009569863285,-1.4969354632571732,-0.2839617543717172,1.1544529181767036,-2.944894650545723,-2.9141123783760157,5.5807004697106795,6.216893170747152,1.4600137103139985,-1.7828119776503026,-0.2851474986282708,-0.16593622669534458,5.145514446565388,3.475943701801737,0.7512783573862576,1.1181289075531369,-3.378047081506365,0.7914864562673631,7.29377476980861,-5.236056656823161,-0.4042559745523846,-2.2691596690653038,1.7680107874378264,3.013385081126193,-0.39302615242470074,4.401344880063693,2.2283957575188396,-0.10203299821580458,8.32545465906346,-1.1266279900975786,3.8046489788146154,4.439595783193305,7.903092660720619,-4.663914313676677,-11.510769074764635,4.524402660764148,8.256239425329827,1.1554093526642069,-9.145100791335251,-2.3597066954161434,2.6931795318451055,-6.077600908212455,11.26814897372362,0.9576290531514889,-0.3393000268789099,1.2271395801636082,-0.8083927864408071,5.6768715116041815,-9.3400362946563,-1.874564472445301,-5.6018231553819415,-0.49176000915474916,-5.166909613763267,-4.000189989779573,-1.7925291534770171,-2.2219860190673946,-3.1568865120525436,2.454957270386674,-0.4132026095569632,-2.3072331760660534,-2.5628728331896307,2.125481097175682,2.6535092959599256,8.99884405692335,-3.7983934490203413,0.8566458806590433,-2.2856232669672307,-5.3147131748240435,0.19984423555895975,8.61810433112731,-4.359140776421963,0.1384064162712535,-2.4052243199822505,1.5452386269898566,-0.27574216401851925,-2.741607110888791,7.297874012349121,-12.978168411595291,1.3082741121121506,2.7673144221259074,9.359435680181925,1.2276342350801936,0.7609686100299173,-0.7638112481352954,-8.894754457629954,0.17927366347675955],[0.0026369698338264413,-1.6440131410949856,-0.6916089166308921,1.841793952685392,4.517852880865741,-1.0949173702549917,3.061107371223768,8.741362991656338,4.642721500362355,-2.771249589470143,0.8901304160600523,-1.7518035396246865,-1.5757811362976453,7.724826342373568,-0.055850315216136925,9.593971731204872,8.612919644621435,0.015677287713671717,0.060172929067083825,-6.052425519766619,1.2740493587678907,1.574774355807328,-2.2933498805906085,-2.852529913377496,-4.92927014837632,-5.284028704455648,3.112310344446631,-1.9488451904879334,6.443165217994805,-9.02389158975653,-2.6822048177832376,-0.5829653804059641,0.8773085285549953,-4.064138381453121,-7.242857468179249,5.0147271339143185,0.48480451138564984,5.773064740739204,-1.0001425848363077,0.8980170072985372,0.9841141948492493,-0.7270213498856379,-1.9291443178521677,5.991791796342568,0.3286930357678841,-1.457669783236864,-0.5043172620713754,-2.2864899423894265,-4.774895662341242,1.0959432359264083,-3.6812397015426317,5.6078310405923855,-2.3130038286771155,4.503787538132997,3.7185654777518202,14.236409973865399,-3.2190419558508676,-0.5261756856733888,-3.2835611609763573,5.014074768609386,-4.85258390784153,-7.894419802599167,0.05401101282510801,6.556466808072678,2.6638328628566317,-5.083275368100049,-5.890729908597992,0.22010729365374787,0.9817483151790327,2.7401231745180885,0.27456689282341495,0.45576594321958996,-8.191925387384904,-0.9095598091639641,-2.7898050011434554,-8.326505084803406,14.249514608422967,1.8720358966239345,-2.145480173479973,-0.6363585991180888,0.8673960512279213,0.6118568393070767,-5.511922937491445,12.338903616723519,0.11743932523354172,-6.307356815464765,-0.9198740714076413,-4.852693003918407,10.477086053317585,2.6919400577289974,3.2255638146420003,3.0458788740635736,-3.988525691286659,0.19311551027081442,0.7519214310250313,-9.048331372567603,0.6965241320175046,-1.0339888008087845,-0.4244911482105746,8.29044657000993,14.855922051938808,1.3081404979311664,-0.7226680363258111,2.6290845329767087,2.17174866918032,-12.061533180051887,-0.8546501627442875,-5.257589699087925,10.54329117961824,13.721122625529816,-0.14222700173163494,-0.9924927719566949,0.5152657470397308,-0.9748080652654862,-0.8334564327309737,-3.5039736460272506,-2.80058992281545,1.5973519305352983,5.608177083897015,0.1682118744735006,-6.924413390854191,-1.8124863572125287,-1.0069385917658633,-5.53704045584897,-5.080878629549544,1.1976865342830454,-7.1382668071196775,-11.74214573092872,-15.19170485993223,-5.913502587282594,0.11520837430268749,-0.8613895574749599,-2.10387618110623,2.4334110603583032,-2.6951068790305577,-6.239474576347936,-6.381479830875811,8.225751258941273,2.7404924314416457,2.004192532457677,-0.5294646115904644,11.089103400867646,-2.8360844763778483,-2.873945588095064,4.94302204627386,-0.3096994606576142,-4.803291791659213,-5.066043114692776,-8.590113527033445,5.329114282629212,-0.7474579572125908,1.1856601840628278,0.2700777273980144,-3.5947927773069512,-8.341707797039593,4.179954637375529,-0.24665215499802096,2.213482469027026,6.517775006558569,0.553772436453762,0.16136654304429254,-3.7528565932182865,2.0440487858162637,3.65474954376941,5.2429027321797,-0.027042793090032102,1.3258647374150572,0.17269174335120296,-0.45854192194849663,0.8088376712744372,-3.7318679890433106,-13.704061149586511,-0.5443372666425224,-7.588810053922042,-4.539923128383162,13.213257741592527,-5.662520417448012,3.5488990974993224,-5.090921178529369,1.8589879764378274,-4.976789803776267,-0.3859025741652444,-0.8253160149720902,-1.9956638482521711,4.3328351056448255,-1.413986477922033,3.004456827753576,0.950489628410474,1.7574007695181781,-0.5928531067654004,-0.5373059312024582,-9.41053093117341,-0.3485496262940182,0.7007322612447262,-0.9872926940606908,-7.284043672478484,-0.8713857265281417,-1.432326763756087,1.7485622250887163,13.489081542014691,-4.781511267069295,-7.688454269213107,0.5506386954940274,-1.6444622408350962,12.682513636083499,-7.694554308013726,8.051902493259545,-0.4217984140945801,7.499981878661128,1.3616864647535953,10.904643800374119,-1.791225223960975,11.724882634428383,7.856091458818629,5.603059328672496,1.0820648087477756,-7.911885680869803,-6.697125936671827,-14.975721826715361,1.1524713559515762,5.5437536591193295,-1.9226373701729056,2.6871008295005985,1.7425747536568845,3.819939027194531,-3.8111255882066244,-5.827535364974333,0.5518189705861367,3.045587966266079,1.2270979385495306,4.21020012182016,0.2612351535184789,-0.8624539738872146,6.502846426167942,14.566040996925686,12.771182905962178,-1.6218563104929253,4.123930433012645,1.6311126286076005,-1.5008092959345887,-2.055597394662306,-12.293376483049222,2.854728118360822,-8.207295647751831,-2.24501473767077,-0.2850921902716015,-0.21885917537873123,5.408143778588888,9.397965036152389,1.3151265296275458,5.8340612880964,-2.8438651322783786,2.9098219015840963,1.9238501749059758,0.43192981247569207,-0.5169304553058396,8.364234686608459,2.0888335917323086,-2.204059547997734,-9.242892121223395,-2.787954661560916,1.044229378756166,-17.92245334176811,-0.36675282293264755,3.753817006032565,1.5094065556267147,-3.8733925587160467,5.270312997860121,-6.704228723854572,-11.490933802051167,-0.5125238874612101,-11.15539494982847,-12.045570997330005,-8.667594871926582,8.90188144644614,3.9093883475640485,-2.9024126968125756,-3.239219922794014,-4.573440847329522,6.311912084900922,-0.45380877836936584,-0.7593049762797737,-2.096918935058308,-2.471613872031895,-0.28102054305702473,-6.114188877007898,-10.20726893152083,0.8646549101335523,-1.58008116395634,-6.738032635419945,-5.602921320076925,1.0295781597678157,13.700531064389624,-6.043322488629375,-26.73733138278176,-6.255557559400388,1.8838868974238387,1.9376487497695112,-2.500048325201588,-8.696407192878226,0.16594248905952957,-1.5851936073495372,0.9852897629882529,-6.849408943139736,-1.467428892249192,-1.0483046262282065,0.6594121432365538,-7.828387845969251,-2.8563513724802996,-3.681258600426729,-1.1790096324542096,2.054978557001874,2.9331367636681014,-7.869199119752803,-2.1158971098707813,-3.7088156301536346,1.2762140963209923,-1.1326247598356574,7.468804892646899,1.4392717984895338,-3.9132046007211407,0.6872240186859151,4.064032637774815,1.3354537828634534,-2.3452733173553186,-0.5091515719630693,1.712013087382661,0.20828269439672376,-0.7950538221471497,-7.350201973382289,-6.694830826439498,10.856837785347551,0.16747276064604044,6.613649996653876,2.2244214837960423,3.9587747222524126,-7.16068727083853,1.496112714574703,2.3627596549811676,9.442282604886444,2.4919179788963968,-3.9189889936850753,0.9836673975811285,8.157092709120061,3.5171082105219327,5.155640699224541,11.199169975041496,1.3539054377038473,5.60139579525489,2.0939901821116083,-10.314484220925266,-14.007943645124616,5.310588583100668,-4.103266580830707,-1.8782702362115726,-0.04971037486136898,-1.6732398948981886,-2.817279575021857,-1.8135248899735767,-4.37275536057685,0.6819093099784332,-3.3482692748862326,-7.412147941797629,15.545575088713637,-5.292672690345287,-1.5062579360399928,-9.5043430834861,-2.3787254235289215,-11.168906678164172,4.574198439207947,7.447716163690709,0.37083037035583355,0.2879927494403587,-9.538833278371742,1.436972965343093,-0.9384813621335057,-1.294077297576807,2.8298815383290723,1.3368454897302873,1.6023535339432176,-1.3035392716115366,0.8223799866068009,6.318155209208772,-4.2041522337454005,3.8515177848395314,-1.509699556446865,-0.9904464982048723,-10.496181951762658,1.3641304553926614,9.080219394813865,0.22195256819975212,-8.422019785388029,3.133496255568179,0.09455609008099675,-1.465469299888582,0.12734436501060387,-2.3890943679138648,3.819418363749576,-0.010062502009815066,6.56715306921152,1.1166647531840654,4.880971241213915,4.028358275115103,0.9041342909964314,0.15753545389655477,0.3554239565085706,1.0544310182598644,-5.011215948496151,-3.8449304909357718,-5.393315368191613,-1.7032455261773798,-7.364503533208763,3.6399815777058224,-2.670144641702655,-5.252178617505365,-7.938404099114546,-1.616671003303666,-1.5226221838968972,-3.902830914001389,2.05490100843764,1.3629386946864086,1.12967813740873,-1.6376447540359669,-0.5470176304414485,19.4011054363133,1.151103658406782,-2.6679766997549037,-1.840347748268466,1.9469784276918114,5.077839660423768,2.7213349515757557,-0.5046980485337342,-11.068095834862998,2.5104502079487645,-2.602642004456479,15.299391318542188,-11.659420597909955,0.06244352490084504,2.210359874718639,1.793935472732975,-0.70996380108367,-1.1349929375991952,-0.8031728963381983,0.7960411670001271,0.011363203708258718,-9.890076519750858,9.106030166491252,7.721865994833573,2.3257027398128587,1.1673163650576095,10.526854350751861,-3.160484438605944,-1.4113856404425893,9.917943872796656,-4.700912121362671,11.072434053056682,-12.88435172994768,-1.8629106177988297,2.023772603912157,-1.504633286084101,11.06956727496683,0.022236922746532883,11.222522701677683,1.3439144798511204,3.05440855807161,-19.095103273364494,7.455776963644176,-4.807410853217737,4.932848701860672,-1.67580164553049,-1.7705212542053301,-6.533012259653666,-1.2104575667682551,-7.350218076247842,-5.581666509095035,2.9022912570168473,-12.28559850883747,-3.025536517596092,-1.5271574753310586,7.6144996249852355,-1.752040078003096,2.3371954858170225,1.0176570916191636,5.919750121344531,-13.874463608746279,-5.387882010203625,0.08804834446480037,-26.220130827476513,12.150172579610114,-3.002314689087463,-5.418336181135114,-0.6484176330931279,3.8099162072828925,-1.3934391603499123,14.26001747665298,-4.713853127510001,-0.6677295646200208,0.6333938396778847,-0.6590105907369463,5.926272681731702,4.75530602394986,-7.771423764963288,5.6906882519657955,2.9708099348058945,1.7136543056616245,-8.308177706784248,0.6048953381166788,-3.633755636379474,-0.14813363278472091,3.783081360059507,-3.7264283304456782,-1.181085565411101,6.732365058799099,-4.685063454368623,-7.322277159814295,-6.512738720163595,3.745232472852143,-4.691465452946097,-6.610039115862554,2.5839805199879597,-4.428431058955479,-19.955969978137137,0.6072347525689172,2.2447028693177966,-5.994933885409726,6.346839114609455,-3.107126008186185,1.0648798355619518,1.258463369718716,-2.776077449889465,-0.3217852718845964,6.267453181086411,-0.12339808119206186,1.9143131279503423,0.6096927899840119,3.9548261847592023,8.341519888574082,-6.7298094563117346,10.474242746071836,-10.534259645001061,-2.8694004926030967,3.9374411209326237,4.922531053255519,-1.0045781235708553,-3.9950130381937505,1.0858497878142828,6.197327542700072,-23.00769386304701,-7.424233651889278,-3.252729056357368,1.6220525314734822,7.7837800857323645,2.418044596813952,4.093534877728735,-0.5096945271522234,-0.3721659464286401,-3.324588432590701,11.984219777820986,-0.06616978772576054,-0.7017159721493785,0.22205465624423848,-0.11276672537591903,1.45551558148824,1.9434568446976277,1.2097145112292922,1.3787804558673145,-6.2046072215255546,1.102246280446862,-0.9526477203130412,-4.282050374809805,-2.7189975256383114,8.999442663844217,-1.1308948256791673,-1.9625089893917593,-5.103228120287707,-10.608228719433155,0.2533215231486638,0.7366824521684047,-5.421116997257343,6.418688153932618,-0.2915726397764319,-5.50673699518849,18.265415423377632,-1.3479897582512153,3.053797352583334,7.3608897363939105,8.70621222026737,-0.409440831209269,-0.057102824052559065,6.4136069702343805,-4.243706916419699,-0.7051948370557806,-0.31597024561284703,-4.071949303268449,9.558275065729564,4.559573699080204,-1.5758481969896847,1.551700024124922,-5.90529802134297,3.633676285506696,-10.057119428241736,6.1408162521346785,-16.492110132816165,3.1909427811593805,-4.962857661954594,-24.694457833246076,-3.082086788505151,1.08619383425799,-5.257657968324786,6.367664867924329,-2.421231965160864,10.643750146606898,-4.240939740086722,3.2068480080257413,-9.346821575034596,-3.931319929599918,-2.9487527671634304,1.4817615423828134,-2.8149362685483457,1.5894828565153047,-3.381524335030219,-4.1586969443270565,4.487238911873747,1.269839036088968,3.1829593232036384,-1.037518731271379,-1.9141400222137355,8.956581242005477,6.1921375801317495,-2.016300521283336,-14.283313251303941,-1.0475166468864407,6.866312497335145,-1.6533634042612295,1.7485554869456865,2.283843318127875,-0.8369659444953772,4.050080808939366,8.28874869384117,-7.241839976664698,-12.039251816075222,-4.047623318661105,1.8377936930148921,5.595065571245483,9.542268115119239,4.424176884675237,-8.410532691952824,1.6016465215831712,-5.50613029510922,13.845564309974648,-0.09921363968654018,-9.071561017980294,-5.412920840804725,-0.5926152036096612,-1.249096398590248,-1.532771623121626,-7.036957040883312,1.9403655526191992,-3.2057895991076344,0.5877817174033485,-5.434182855924654,2.057509815148409,1.6161671914446711,10.351120095764102,-3.6510095901534676,-4.475770369815871,-0.549155978304677,6.187256626043685,0.3995428096823854,1.8546338571416405,-1.6778359895091777,-2.8360569514068654,-4.785955408498178,-2.9504559745779755,0.9047887521205931,1.103304354399345,-1.012123320859178,0.7269161052119539,-2.153016309180605,-3.2351180097948036,-0.39815977620229837,-1.910308147652417,0.8015331487356572,-8.868801706733322,0.8654916219285782,-1.01382751107464,0.6665231125547186,6.134519341500251,-0.5161608264371083,1.5680184913091788,8.336795356098623,-5.807532385948001,-4.209930496499673,-16.56077833103612,-8.233902631063685,-4.152150505383096,0.19646512128069715,3.7291372692303266,3.521181793102195,-0.7269723379122898,-0.09418063007763844,-3.1489725111566598,-1.7698522769334835,-10.565606605859436,0.5718584460550986,3.0733313055245888,1.5967727086366041,-15.094657267364628,-3.7646089071376725,-1.6555755160474455,-5.586324218779669,-13.936245398830666,-3.2390555522163726,5.175117994283076,3.4730661224819896,1.600487852398612,-3.1246801133926105,15.087593331194743,-3.612424943578691,-1.0678365560588712,-0.62401611287354,-0.19254226652944162,-19.257628724204892,6.845134646655696,-3.5798025776130373,-0.46087175834020444,-11.46407856541595,6.324874664404315,-3.3844933223879607,11.26144529796564,-4.092259140708194,-10.677856797522598,-2.220024495592642,0.24669348234299848,-2.0504799075465865,6.381705352676882,3.574694452436,2.9962204303346316,0.4774248764565939,4.352666566343666,1.2981753055701803,-1.5982926578395045,14.413256613128736,0.6888010216114553,12.1171339187183,-15.027404929916088,-7.090881301076512,-0.6079300838577312,-3.6290030862225198,5.615644480138008,-0.49681722123322913,7.451474774277507,8.674899688081824,10.114583807638954,-3.4222362640221204,-0.8970337542397779,-6.532486470228584,-11.03769409556321,2.247159701522605,-8.773551708220769,-1.408515257520046,0.1756539465079867,1.8911585716875496,0.9584383334613906,5.040452472276332,2.0780148568210386,-1.5716921316036707,-8.885502477987943,0.6036305825658437,-2.401600956675515,2.091720734219452,-1.1857751481961794,-17.763941567714703,0.8990891883677051,3.047182447458355,-15.672761941535741,-8.275902352731329,0.5956437307460121,-3.27776646234647,-0.011614010297845923,-3.852235854429056,1.0907111092289052,-3.4912584236370385,-6.70262690364828],[1.6643725565374499,-8.912299340995524,1.9186799815487618,-2.0228713852824862,7.238533369705623,-2.1558085993768916,-10.970730595469409,1.8838156449298824,9.480448746308252,0.18794223955134193,1.3998261337822264,-2.168497521209882,-3.4017327445858188,0.9939973468437253,1.8308566075992334,-3.971137969323194,-2.656073229362393,-7.889808781042696,1.0850800672689966,0.22513841194370343,0.8766559879076308,-0.1531354604020021,8.39793197616249,4.535082216385947,-4.405808798830978,-9.725287022617245,-8.920502896534982,-2.4404055423572766,0.3238206043506735,-1.414154325308182,-0.0700411329208559,-3.250597975994241,10.756474251854574,-2.223137341774634,-4.375613978885877,7.646160580238361,-15.297029634306995,1.6731322571726812,0.9242137066773831,-5.384965935455625,-5.5494070904375,5.626580616915342,1.3297166637529472,-2.4160096389784558,-2.584656261177225,-4.702850863647387,2.578715747657765,5.872243571567626,-10.513313076922419,-0.28382412238901894,4.828981148138951,-1.292138745877775,-7.639418018326741,2.236476030197376,8.497287670888301,1.2835186435017363,2.171677038411202,-8.132421913336586,-9.17393470016315,8.59797292740162,1.4418674245733596,-4.509475213847072,0.9474830530158407,10.184979989978535,-0.8641408668664234,6.122725382368702,-8.936947056413372,-1.030075977221161,-2.5087638028066523,-0.26016261983982836,3.951819472758724,-7.472790512972809,2.3698353857922294,11.24425929422818,8.610093459808166,-4.68361661477179,3.0407524579048415,-4.385130881631516,-1.8460032865928078,0.5361376857616309,-1.774075444755547,2.674926546773704,-1.0074699075141247,0.4445052090010195,-9.59302414289538,3.2593268931781516,-0.3028608247398653,-0.7826795326650817,-1.653252112161951,6.360659778001224,5.580367788186155,0.2985449320575335,2.905516066733174,2.8922319485815553,-1.603041501571651,-4.788683726434061,-7.654503077623156,-6.209785210963763,0.8080689617254684,7.128586452607761,-3.1225619341659168,-9.434566800324712,-0.5655472164131825,-1.6051366920314132,-8.021253079459443,2.5399249146645646,4.625941472990908,2.912513843157843,11.395821225001164,-1.5488650259951076,11.108633477989894,-5.9650662671307755,1.5634933642114768,0.8386230151228495,-15.78558412231634,0.8911268103926555,2.7279062747144867,4.563972978391089,10.494809733212797,2.5322967417307862,-3.5984211803665707,-1.526533735348535,-0.7450861610997148,-0.2519123642203325,7.210693927892217,3.7306858709112882,2.526146030751116,8.020998877831705,-1.0242011287490156,-4.413759122415915,5.285805109712588,0.25595214185453297,0.4852457712891938,3.5568611622963853,-11.611311594060753,1.3905591223494125,-14.492899416039721,13.086159876352975,-0.71950758381748,3.5315485182872015,-3.5841310364886896,-0.5851797104448409,-0.8280603979566958,-6.63352873444963,1.2726834456897653,8.07977129994854,-4.773538803265156,2.9719903468925093,1.0413812873372008,5.740017983144124,1.3488463004661009,8.792982528957427,-4.723849848870091,1.278210798930153,11.783043683716306,-0.8168701181029645,-1.1475809234694943,1.022603073787275,0.7866075911052516,14.959309271097704,-6.380482421831143,0.48190811019935365,2.453987064596737,-3.0553734054937607,1.28718840509102,17.561237329568485,3.801253637172832,1.9306544735692217,-7.602713198845947,1.881919241256223,-1.5705199602625812,0.8605261860523843,-0.8237577371579003,4.131374512836213,3.1078059539152108,-0.10756489652053647,-5.155674100059622,-3.657020393542222,-6.851815653339743,7.06847794120039,1.5930310037122473,-0.2662975045465452,9.808385980311916,3.6072042732640583,-2.4963581304613336,-9.079376229055011,-4.118145793788901,-3.2515799084772663,-0.6494614696500216,-3.606531528197541,-3.0883951465938324,3.1064936914962127,-1.7685614685290858,7.5574162545681425,-7.606906802958714,-0.5141092093184247,0.5510867337087977,1.0446855914569029,1.6195502928477583,0.2326365288251806,1.0445169609839708,-7.9292848720604745,6.163266341177316,4.244440738331647,3.962604388999445,-10.642378872095893,-1.5974264308140183,-1.5968502029925546,9.15617202524244,-7.686740492316138,-3.161336713700487,-0.48527470265207473,3.1308806805929335,11.518310461874279,1.1483102951953446,-1.6624377678245734,-0.5959895359354981,3.515619333037951,2.56252687319059,-18.626073673792988,-12.790465524853406,2.379458605374489,-0.026201441974558648,7.354412533307291,1.5290006126737035,-0.02248857417786221,-2.850165900540601,-9.00774451598509,-7.541262865209948,1.4738637856506245,-3.062005691750938,-1.647191926063849,-2.15709910525703,6.3450757301575385,10.65568770775377,2.5178427148844817,1.5704729469377992,-1.452595683853155,3.9500771990430117,5.692366712658878,2.6020328012806004,-3.9015361961617536,-0.8293387493985978,9.182807070769282,10.929357224574064,-3.294832081356239,1.0396077797105692,-10.258328332439184,-4.2552136761140655,-14.085767446078147,-1.0208875546586942,-0.8641847528036917,-0.0060529103099946635,1.682297886395805,-10.231637118482922,-1.0051076980040623,-12.531525433252495,-5.055831629263634,-5.9411327384620884,7.260376145696762,2.4691992978462705,1.2127360226500081,1.9056763220925426,-4.54430706041993,-6.415075794761462,2.3940825945006403,25.178019612033086,-0.14751003479662805,4.818915828540732,4.378594119199176,-4.658984850467585,-1.1379525900803715,0.9983928490263818,0.9183462677631442,0.48400068127324014,7.503873133331286,-5.873628344991927,4.804782651161633,-5.142168179934213,-2.4726554090692243,-1.1457093874980249,11.262418666722594,6.198856769897536,5.850957834817307,-7.847366121919517,0.16784292456303618,1.8158840322632943,0.24908563843158804,1.3282288987656268,3.171041237839557,1.3142783701412055,-18.018489022854283,-8.682187802774044,-2.5470779561976085,5.102750679621268,10.895740897107796,-5.739298867358194,0.7226329235576792,-15.410677633244866,0.200776428236059,0.5864636641250689,-5.825847001880819,1.5981407376841696,-2.1242493548025037,-2.373794128357879,-1.78647264438557,-8.735943194941447,-10.815681583043045,1.7204125590233907,-7.396857482389658,-7.506892725985924,2.572141505876335,16.57276383684189,0.31255028951024244,-4.16831612438196,-6.625153083516495,2.6847930617247173,7.893808010933615,-8.887854538964767,21.941053709697478,1.2036808159061159,-8.823299598350822,-3.0007117623751753,-1.6353969639820227,-8.821083518083483,13.585685251042298,-0.7997352546427012,-0.623088021593337,3.3331468337621546,14.687290527835549,-11.949260476221315,-5.331182788573976,4.617841092318343,3.135733395160766,-5.674547132168252,7.333395560745913,-8.995755900306285,8.348989083933668,13.429984629727244,-13.201034009426596,10.173343733606067,-0.3816366452123512,6.963609290007982,-6.388924659924356,-2.661655064221427,2.856609697773876,2.6713594111750156,-1.4963606114840997,3.377275718366494,-7.862933416921887,7.94659819579458,-2.096244023020692,-6.79177296689661,2.8874516550701665,-8.784115885299101,-9.776922542963385,6.678831127102002,3.037088571182042,15.482381133572702,9.813885097385304,0.07099029158708145,4.24994362658075,-4.395340427782189,-4.645087737966685,4.114740580008514,-6.043174776862584,0.9912068161837012,-0.6167639228419091,2.6745989287882024,-7.742230683911419,-10.666664838780305,3.1183671465934193,1.2530094307682615,9.992819798554518,-1.088654563066993,-8.362784999571023,-1.9565640821311083,3.8094395975883373,0.4036344635863789,-1.697919109566591,-1.1593781901313926,-10.241104664678598,-3.404504091725607,-4.832239110181406,-3.012785728905517,1.7778840739320998,0.2064833056684141,-3.881552613800844,0.004562317600596,3.593060213795993,-3.261756331398713,-4.998547106068622,-4.03698779259108,2.786878738820826,7.629005716349587,-17.314577589332785,-10.943776121702383,-6.995420931784697,2.5234028635082364,-9.720708339567992,5.649253414518594,-1.2920228806284673,-3.0056608347388774,-0.1846411661909011,-0.2989190779436762,-1.3722151498174482,-3.9878282834926067,2.3027590324192446,0.49620248828147595,-20.6638817155588,6.180751899542106,-1.2423529891158371,16.04746974078387,0.3247479546831389,6.6621675382059955,7.4648794914207155,-3.470531963337976,-0.9619004670934101,2.030088484332918,-6.097373620800415,-4.240068546928098,3.3286840514383496,-1.6013503691402153,9.533841519069888,-5.635394838082842,-11.314425106157069,-5.282714057721753,-0.18840511148052774,-0.567627336273614,20.314290536069926,10.856157582096198,-10.457549813217472,-1.9224154289571218,2.6280898818325333,7.281346549568209,17.474318125785096,-0.5663115260343812,3.478625043612123,-1.9076354349344542,-4.388742862417796,-1.641215171651016,-3.173984892107822,13.768248007765651,1.2022180684429165,-16.76461768852096,-1.7559400326691814,-0.4027177435463478,12.369325128277612,-3.045277979737657,0.5188132499396874,-4.34286754778338,-3.078134804749073,0.15205221704560534,-2.1682726413189664,-2.8742413586411075,-10.994837068920038,-1.2777890691078388,4.351629684356681,-2.3963733461944794,20.928188010295024,1.9500716778539515,1.8847526164990045,6.837607522867358,6.121442856220464,0.7252212862610341,3.5952497246038986,0.023178036186734197,5.263917618069566,-8.107805507617652,5.442307965433409,-2.044583576801319,9.393413009977683,-0.7009553254068231,2.020552923116753,4.104480744215364,5.1091167438408505,-1.8839086161080831,-4.875678117987847,-12.323941965354066,-1.7161650010942586,-8.634538329593108,8.17669819692048,0.7919448640518417,-1.6313440699526511,-6.22414896751226,-0.3160353896839325,-6.614983856334964,4.8851555285989425,-0.40083412646323024,1.087281770931677,-4.6419147832338625,1.1201878440556654,2.815062752122641,1.5692388903911838,0.34913305476190537,-0.24167842552756558,-3.687727128957542,1.421971900664718,-6.435784399324589,-7.70875874802501,0.8808390816341096,-1.5473449787111373,-6.557954818439473,0.8268083650791794,3.4804998458715897,-10.96239377400774,-8.384403510914376,10.712073623241968,4.473472246187411,-1.7766429327119266,7.368169785037484,0.2920984218060131,-6.536835490327757,3.6767604611058444,1.9791077070759018,5.955908565083938,16.147394918584553,17.779209928748482,-3.574168017470326,3.961233737126851,-10.974230035052157,-9.235822536410932,1.4503588722139338,2.271314950940905,-9.164018369540127,0.34603795014174454,-5.329113385556054,-5.6896523425891,9.73647996194497,1.8281475700023186,1.8064689420443878,3.738881448571563,-4.506102610975751,3.192486158704694,2.2172843344362616,1.0129013626312435,-1.1401553335545764,8.034353225969715,-2.295913836467904,-5.948114652082989,-0.1540514998505378,11.357182920485197,-8.084623569544107,-2.5264072274219354,-22.260285349973653,-8.191985254646827,-7.374483236283954,-1.7227104440227419,0.1764613017771397,6.15625658557209,-1.3154061841597318,-1.069487809497641,-0.7967809159311757,-1.4199458708499013,-1.1457566230280443,2.2448698496958395,7.447493579681495,4.772434749232758,-3.4824607287344023,1.7954963689317474,0.058887235753494194,16.20922281787047,-6.648859005862612,0.24733013859094632,2.4497024904698135,0.24365433282585802,4.091049757135357,-3.9697492327605617,8.793861131310791,0.013165145200120021,-0.5044516945406565,5.9623463699183326,12.04180879880577,-2.911685142498296,-4.878899019949169,2.250044886875372,1.0375135297386322,-0.10855657016685605,-0.149335587967391,-12.878480371989307,-0.12451765604846204,-5.215394407117829,6.0237270403676,-3.1298687355675723,0.42345240318627164,6.423704523695046,14.466052963783232,2.961704781819881,-5.601072617842045,1.4537607096179521,0.7239113287409086,-1.5433902012410647,-8.830041107228096,11.633594560034378,6.77914953414883,-9.074873713337388,4.100420905225263,2.193273874680478,-2.103437514138599,-15.943278054809742,2.6103683954651205,7.2924731069809265,0.02334549712315348,-2.7044598880369994,-8.766050894562131,3.6121201456046066,1.3759516529107678,1.1228634340763861,2.4465335086243463,-11.705853241847942,1.8604158787013156,-2.7041716017939113,7.43712069517688,1.6578837904637964,0.2632737785883388,-0.8566301053089327,3.1934005292203524,1.1212753581765855,-5.444767572883867,-1.210035188428514,6.978773293428188,6.248343130425105,-2.4266532066876056,-1.5708783658591061,-0.31578292704431243,1.9093787160763291,2.5019095291536515,-1.0226219747837473,0.14116686196338613,5.210702544282514,1.9214727000435419,-1.2343808320266958,0.44393480710257194,-13.201792086846249,-3.613040281277642,4.713219100948971,-8.683304655408872,-0.7851370131711102,-13.76321809392909,-2.00596613005025,1.1391423155347673,7.65025707364218,3.1823296545901036,0.46148818965389404,-7.681642329850222,2.462544601066047,-2.6018937190395235,-1.6662791026332506,-3.274338179094991,-7.817576004002227,-0.15789986384407695,-2.709716970893868,0.08488414646770304,2.7364438047865725,-4.844577673979978,2.6393916250556075,-11.167571468271696,8.528276491576388,1.3863739448484598,-8.50583433772147,0.5615087302823046,2.3083308099949416,-6.23612525348131,16.931594441540422,0.044627419562433435,0.11142276596519851,1.6214282339475314,2.5664465942280437,1.4459953087862893,3.1615582798331925,1.8559715384721254,-0.8833559723732958,1.0388808315538465,1.9202179385534528,6.522860757671617,-9.066971476400639,-1.0342207807753387,1.4310082612562132,18.576315133049462,-1.3762437326605135,5.614499483861641,0.7115611718620949,0.11734016847031536,-13.072741540139152,-9.6570234192857,-0.6890200011250851,0.9322195940826388,-1.9058940996453868,-0.4619239664899133,-5.956266102065603,-15.649900928037685,4.154902574094687,-2.991010576366776,-2.555683494603521,-12.802775544781072,-1.3076799449786185,1.5531154570902979,0.27142782930770437,-0.7863917172531405,-1.9638100010173996,-2.638616485659386,6.242985597534638,0.8497215076278248,-3.1275327807102014,-0.3511239990391235,9.695098761450312,1.9364844847343918,-5.923547120957298,8.727100958415011,-1.898863285768564,-0.38884225128647354,-2.8002979699749067,1.9217582649614533,-0.4656402084228144,0.927917344843437,-0.03639574899199971,-3.945506058959312,3.5495824691297875,2.12343418292797,1.1294751485142724,-0.14844009881045528,-5.939328096259494,-8.832127510299216,-2.2843614506712306,-7.483386651798859,1.3584542443659093,-10.302197145316034,2.8103564139561774,-3.692603926846156,0.8787151096881225,4.295915566141571,-0.5451758474304151,3.0321133707116985,-1.4341244892729255,8.659147088908277,-0.5722525265769118,6.890049054410843,9.275575903182858,0.4147188856366859,-0.5022820878667447,0.06621152678235986,1.534312604974641,1.0435692183941079,-8.405704466884284,2.8825884424824753,-22.515043299995973,-3.496132180981736,-1.9953770380463554,-18.82099807807338,-3.404926196382105,-2.3876140364312324,2.4206960484217217,-1.7035697821156137,0.7192022334905741,19.209501855240966,1.761290978349894,5.4502589045913865,3.310865919063389,-6.694942058415002,-2.2089564622884734,1.1097193939342231,5.646432636649873,5.696282112566858,-8.60820104010451,-1.6934645251060316,8.570141541851127,0.7546093027931533,1.4309042012071531,-2.0393199723547277,-3.7900503304967614,-0.8081623937900233,3.3929640982824214,-10.042947129984373,-1.4946896883126128,-9.488106238052426,-12.917276090139993,7.809193488195303,2.524194966397971,-1.98360028922205,6.3986603805167475,-1.6863647663347336,-0.7864171880154349,3.869629042884579,2.221719664007926],[7.274846617308552,3.7291487081229295,-6.360653145427371,-5.957278644237155,10.690715283648572,0.6307677765736122,-1.0243273191791453,1.7819912490745553,-12.28498569448256,-0.7202719123240955,-1.6734843485359234,-1.9725109197822979,-9.403062413696077,3.642616563871932,23.093096996143007,0.05702570610607416,12.750164537591933,0.7504848281509604,-7.4015675772180245,-0.2174119967743806,-6.511605143017112,5.74325834473429,-3.3194571843500844,0.2899064651250778,-11.520831668278168,-5.152317537603988,3.724183390214476,-9.173307532254732,9.985948117637971,6.4785989943255,0.5434004285008505,-9.439578148983484,-0.8045985286641226,1.6458384884203319,4.30092321235111,1.6580918250126788,0.3273920989582022,0.5788529315953506,1.3993960823370726,1.6236322291492562,-6.025193311232375,-3.3610241657542046,13.540802832368573,0.8988276603231129,-1.8321354479644905,-6.938305710351953,-0.6455568596215131,-1.378850462917188,-3.376463130969684,-4.630368378075247,2.431772022177543,0.01013001522042778,-2.035462660855796,11.364548690413057,-6.139415010000136,-1.2754319523218636,-4.6107617751587044,-8.237157774659021,-0.13697261494520507,0.8338168861171029,13.915084422437177,-0.30623016079082843,-1.2730745687224156,-0.9053585785360401,-4.1399824852565725,-0.8547665304773311,-1.1835690217186685,-0.9153141134238706,0.9027794335892501,-8.92713999371697,1.8194056383795623,0.05620690377453719,-3.919643883800699,-8.780536505591911,3.7102934301299015,5.014836676449673,-1.7695400795951652,1.2715632432853277,-2.2190662394101377,-1.722958140867942,4.4145721893561864,-9.237375993401304,-6.519547061303815,10.962908407141269,2.3624875231444706,-0.7786756607810725,3.9911889647406973,-0.36014575419133565,-7.810885309679667,-2.452967070129026,-3.949108531016899,-1.367722044724042,1.293519518397642,-11.783419565837823,-9.915334897946549,1.380641995150523,-0.8086920767236969,14.05218821418687,10.721806562359554,3.39961305336536,-2.023302377230799,5.921364413756738,-4.099591008271643,-3.4305087180762506,0.23907156940401952,-1.3581808434007723,11.267343414404955,8.725988235309586,-10.830738272725398,1.170641861535474,2.511436925316965,1.279531748638313,6.585631805722615,-13.99047529220259,4.00651438693406,-6.055475609471964,-0.3203400849156248,-2.5926178245881797,-6.341167245396541,3.5532042305244422,0.9101477728208427,-4.34895158585033,-3.2870427921330454,0.5134257373561131,-0.7909975236745166,-3.7191246367668724,1.747206913988206,0.32224844119059703,-1.4230102279726669,-0.798971778285495,10.306154297946408,1.2379978085409453,-0.1510382192264631,-9.005507102567913,-1.7274418743125208,4.200654599003683,-1.34984365545355,-5.1164835644233,-1.1211931479862562,2.116065695610498,1.3283619069114847,-6.750786128891171,-8.872334736978482,16.38880663784951,-4.171963928824082,2.3073427558981425,-1.5360758527142346,-7.216949867146184,5.98470313660324,5.111661424283447,4.7385660163488685,-6.1013446822146555,-0.8428293538052429,3.709576511388274,2.284987641993749,-5.443466535781646,-2.2763754608739117,9.232938700549461,-9.321198532976839,3.5409011237012504,2.6887587117903418,4.100950673163978,7.665712875975027,-1.6434425732781452,0.6357209547508218,-0.5552680509400423,-8.53348356537419,3.284676228983622,10.26139288998367,-8.203229799608609,-1.4268959465559417,-6.43104676691486,8.308470863876957,-2.3658155648555694,10.2407660079827,0.05382043161743966,-0.7905173152594787,0.23719243533115986,1.721023813688632,7.770523054700796,-2.681523220152196,3.567729316136897,-0.5804516534112785,-2.1506145189199146,-1.9121452189324768,0.8524901312190112,1.2325029980873992,2.516746166467747,-6.616437836581224,0.550523098246941,-12.642104823915789,-5.294688379726906,0.06792845213819954,-0.27161268849151554,1.6287215190351785,-8.143322856281351,-3.6789201622039807,-0.9950943945587092,-1.2523898591988805,-1.3499684096860785,1.1692038980700281,0.5778122872441349,4.8980704950438305,-1.8235062225025462,-4.654561423482888,-7.113106469048461,17.60321612990153,0.9619973605232794,-5.2252381310265825,-5.324671831416557,-2.438988061564797,-6.061777225890947,-5.515059536998048,7.151319458206381,1.9189985623297579,2.56104679792952,1.060022916976128,0.5146008906916255,-9.34031346417564,-6.547409309469118,5.878012660123913,-23.14359048203274,1.6628091105594045,1.386658088593928,-2.3359570838102446,-2.4518514038883787,1.6662757855991526,-5.446684162074683,-2.0767667673638717,-0.32378736770321104,2.0527347524919524,-2.2671812906454565,-14.944445014788506,-6.581524637034397,-9.357085623624576,-1.551710048208272,9.9919031808034,-8.379034236030616,-0.6698575193812393,2.3066180250959416,1.9070685131224316,-10.61241570273019,3.0715261116244044,4.377694963093564,-12.136513390964419,3.315707755828985,0.9580007186891648,-2.0770762592726313,0.27541185291957593,-8.30448673845942,-5.859461356704493,-4.12686437330137,-3.485719301566677,1.6973974465573078,1.4076434493203331,-0.10209021703631616,-3.451613495200893,-9.263258545684236,-1.5581462627135356,-1.6191410034184583,1.346425358113633,-13.526483140367176,9.539208932532029,0.7668053928387617,2.1834935667338993,-0.5247516432601804,-14.577374113892056,1.5301250872223586,-2.2015320960271167,-11.785647804432735,0.12792509499633997,-2.103297083791567,4.033752719735965,-2.4558004819524104,-0.3514574284147818,1.757792125042024,1.1300293501885132,-0.23300389898889518,-0.9378165093806419,3.565413627156267,-2.8262897524592647,-2.0944239662735544,1.6129103203940214,-0.644844987546153,-3.491527203863239,0.13007922237091885,-11.01743771250667,3.810716505025338,19.654704583753087,-1.3836434363157393,0.1341465887087796,9.797636392251995,5.993414584753239,4.730800259798226,2.03673410427226,-4.502374697940391,7.413650226132742,0.4123266931284596,4.177164284482135,6.258190934163384,9.963778900062286,0.2863991457554249,1.8520296648123034,-6.806396457067072,-10.355762081623423,0.5698837791123892,1.1634220760296996,-5.371555241839124,-7.347521219275466,-7.522570820095703,7.793793640859571,3.6700439504422633,-7.777412328930467,20.587963082547837,14.14597372065487,6.031975791297787,0.027469882760323472,4.532071561331557,-1.2217917790908668,4.100687033929892,0.4201072046994434,-7.979566302264029,0.8283746974270335,11.811494038486783,13.746213715245137,-10.32653948425834,4.418246378317605,-6.514752346749365,-6.017530441774208,2.2090640957280976,-1.827043352342814,1.029769254912698,8.861080414095994,-2.3941839536722807,1.5603880801771686,-14.068527112734559,-9.043165772666319,-1.6131885384540765,-2.8380947232124116,-10.024925315527486,5.69874142254211,-1.630348092015014,-3.4015382945904893,1.0226311543568234,4.163442095979543,-12.053054876046003,-9.515090655608352,-4.438401878411508,1.8687695086180645,-2.2291396548296762,-1.4788015282970886,-1.8880911215887028,-1.9691859052583887,-1.0669824214191856,-3.717618076076767,9.241139187362815,2.1157235800686367,6.097145150691505,4.056220449733837,-1.8259444009739774,7.59002514468836,6.46024897378801,2.1989192855859105,4.777773471860033,6.011879293130059,1.608349311353742,-1.7695177141175087,-0.1064727800568166,4.049477449380492,-4.901007709146807,1.6634972499698613,-0.3738619159621853,3.2049061286053533,0.8760547153257527,10.366665137611669,2.634688822180254,4.788453774940959,-0.8057450396061836,2.4622030830814383,4.123010804187481,1.6258404311203702,2.122298023166236,-1.3775027798387285,-5.608226406477371,5.992416041385185,-0.9903659894111563,15.112779180335234,2.150332195468871,-9.038516024907688,-8.03948419966008,-15.501584146457319,-0.34578789185614905,-12.676974422214062,-2.658914555670526,-3.732594151621826,-2.17977209730775,-0.39440158855007024,-1.8081814666442202,5.4346294992798265,9.045167641327627,4.481823718301527,-4.476661244998915,1.7793445247966857,0.5738270087464217,2.187932805781971,-5.478159264451661,-2.902553185240246,-1.5754864731234384,10.921577658698393,-1.617041361388296,-6.072024820236364,-9.601798691058207,-3.7797283405714106,10.858562158971836,-3.2840814676310712,-3.8297996451768173,-7.8783926439475245,-1.2614526976611309,1.120506189267443,-0.4419459446771017,-0.37600086041033753,-1.1211073081446967,5.335921889280733,3.4381403717935353,3.0091873563732223,0.1668667008318615,8.653200018258064,1.0178647167456027,-1.237361293430243,1.2438614143884301,-8.667866320995184,-5.019928887550439,4.804584238544634,-7.321118790933424,9.030869939678306,-3.0237382680138873,0.4817499394160225,-0.1975336850211522,-9.431262182454423,-2.721837898798076,-2.9510709506602404,-9.832757903939013,-1.695865553009856,1.5425170981512752,8.573373992638576,8.725095272993556,-2.8463961715617474,-2.141560225248975,0.18076964179213828,2.1162666140203443,-1.8225790938265343,0.7505350631035852,-10.58885810520297,1.2059313727829268,3.6517072320950525,8.002929858871815,-0.02044174305809543,1.027404874304696,1.667510878651512,8.670996809111259,9.543350233058524,0.9276325314299199,0.42870389877753645,-3.73352449917511,-9.795252129800911,-3.1716560665014333,-1.8014200922132257,-2.134597541681858,-5.736622665508934,0.6599368561892227,6.438663959666723,1.6250398042284715,-0.9946637517280976,-12.751565522632399,-3.0562913682983783,-1.0059626803237027,-10.934219188130227,0.7777571668817485,-2.557248537060725,1.7478024826646985,-11.079758967750706,-3.944091945349852,-4.459478662936887,2.3716295683633613,4.345540859651063,2.650834786181402,6.051719249927006,-3.4268294142130222,0.17357967558668697,5.974615996749387,-4.951246850630207,-1.6952073086509034,4.801857145847612,11.991383687101672,-6.327254359529488,0.5411041912697065,12.161170037877433,-9.79724085253536,-1.6341740486837553,-6.988506810391411,